14 384
<PAD_OR_OOV> 0.028864274 0.063122734 0.08406512 -0.042176038 -0.030424587 0.025427891 0.06619434 0.008859459 0.08233019 0.050798997 -0.034950275 0.033086367 -0.06760332 0.007007636 0.06971704 -0.051407926 0.065280534 -0.01076018 -0.049446743 -0.08067669 0.0308331 0.058295604 0.029996855 0.005999459 -0.0533402 -0.0068305465 -0.05504564 0.061653983 0.049630918 0.062528834 0.072775185 -0.01528929 0.034267697 0.081547186 -0.02744662 0.0730176 0.07334731 0.00487214 -0.012869122 0.02446829 -0.0776374 -0.02397249 -0.07644303 -0.058108937 0.011000964 -0.025465611 0.054857884 0.068478875 0.07409594 0.05707711 0.017959166 -0.062912606 -0.07854788 0.03992976 -0.085413955 -0.032215107 0.043314006 -0.01136736 -0.02289624 0.08227746 -0.021048892 -0.049008712 0.07002842 0.0030003595 0.031852234 0.033391193 0.060799327 -0.06425827 -0.013298276 0.07100193 -0.029641608 0.059026774 0.084776655 0.0037136925 0.08005693 0.07353133 -0.0643645 0.089151226 0.007683655 -0.0073828665 0.08464278 0.032754097 -0.013901269 0.06028078 0.071776114 -0.042702995 0.07608036 -0.0630828 -0.02213639 -0.068807594 0.07342602 0.010832059 -0.043859985 0.08557905 0.039481632 0.085773185 0.05768911 -0.024559196 -0.051392037 -0.0786041 0.008535516 0.08948784 -0.055829532 -0.079483695 0.05059157 0.028735083 -0.08531389 0.069647126 0.07078084 0.08004541 0.07372258 0.05335664 -0.030022845 0.028220551 0.07244364 -0.07725488 -0.0148173 0.0057376954 -0.041490987 -0.06749003 -0.020182062 -0.058758114 0.044153 0.014643803 0.008508693 0.058120377 0.07145188 0.020929571 -0.0095871305 0.07476562 -0.021268714 -0.07375889 0.058699947 0.073920995 0.068981394 0.031091206 -0.018426169 0.009524706 -0.024894688 0.013730625 -0.03094281 0.039502993 0.058857955 0.020073578 -0.00929365 -0.063115 0.014276537 -0.0885059 -0.030851174 0.039010666 -0.05973098 0.015669186 -0.0686254 0.027907915 0.034628842 -0.0065957685 -0.034641426 0.020939205 -0.02125478 0.01999966 0.02742521 -0.052804954 0.028287183 0.0026631611 -0.0075159403 -0.028475253 0.053591926 -0.0791376 -0.023620693 0.031071912 0.04608058 0.030497354 0.050926495 0.052501626 -0.047448754 -0.04704544 -0.017934283 -0.052565724 -0.030664647 0.053065207 -0.06889517 0.034427024 0.08089798 0.062538184 0.012270172 -0.08480204 -0.08631671 0.0039449194 -0.07254271 0.00071331894 -0.018316044 0.037918694 0.02866022 0.0493487 -0.028942442 -0.003957414 0.074705705 0.035553236 -0.008972237 0.0030310452 -0.0888709 -0.08273439 -0.0026708823 -0.07192577 0.004378484 0.019534823 -0.032105178 0.050382696 0.03467144 0.07769336 -0.06363522 0.076322 0.067132376 -0.021015782 -0.019578077 0.053332806 0.07887594 0.07881243 -0.063064285 0.035174657 -0.06723419 -0.04752343 0.07222585 0.06482771 0.03544024 -0.07254153 0.046607196 -0.070020825 0.0684589 0.034729365 -0.03220756 -0.029695064 0.037344083 0.023782324 0.05606648 0.0070728892 0.03827782 -0.03766523 -0.01486533 -0.04126931 -0.0431512 -0.051984385 -0.062257677 -0.05991308 0.032607928 -0.06811838 0.04131885 -0.08058454 0.02457977 0.026708266 0.02505225 -0.020584004 -0.005326807 -0.05059185 0.056211166 0.032503307 -0.012872627 -0.08751006 0.030969605 -0.049246795 -0.016326651 0.06068774 0.07619687 0.008442783 -0.018859606 -0.059167508 0.05494064 -0.039483473 0.07141226 -0.013145495 0.079233855 -0.08540499 0.017014636 -0.08089311 -0.008238205 -0.03611457 -0.069800206 0.03581119 -0.019990023 -0.04167839 -0.04104893 0.014902791 -0.0109271025 -0.054779015 -0.027178673 -0.009920452 -0.0236745 0.019706104 -0.034969877 -0.024439638 0.054061085 -0.04773728 0.011933659 -0.06330721 -0.07343248 -0.0046886215 0.074816056 0.014153695 0.04140231 -0.02492718 0.08516141 0.027543308 -0.08060346 -0.01041412 -0.037857357 -0.026992489 -0.0032678924 0.05960513 -0.0048495093 -0.040598307 -0.048854206 -0.052842673 -0.082195655 0.035956252 -0.055785373 0.05532592 -0.04686231 -0.032895733 0.07083685 0.08163877 0.054361183 0.026451385 -0.056146264 -0.043350637 0.03698015 -0.03544568 -0.07528893 0.06011086 -0.06528052 0.05561423 -0.019041993 0.044332024 -0.07848544 0.07378044 -0.00538442 0.012198312 0.0476861 0.005796093 0.018117273 -0.046014022 -0.077683814 -0.072776526 0.011213748 -0.021104138 -0.0006457851 -0.052718293 -0.061733264 -0.010569495 -0.079105675 0.040284477 0.08698619 0.06677072 0.06516358 -0.08295541 0.04427216 0.06809723 -0.041764554 0.075295225 0.017619923 -0.012064193 -0.015100352 0.0640035 -0.066126615 0.0086638015 -0.0109564 -0.03504561 0.007184928 -0.018464841 -0.06998357 -0.014927514 0.039745484 -0.048722073 -0.078460425 -0.050461587 -0.07554637 0.01928412 0.07290703 0.012386408 0.055708807 0.0691729 -0.058570493 0.043828815 -0.089583345 -0.011070863
bs_4.c -0.024094451 -0.037556257 -0.031083541 -0.04781378 0.011277361 0.06783295 0.080154665 -0.08188273 -0.038085155 -0.017541908 0.05231608 0.019027077 -0.07613041 -0.028131181 -0.059246376 -0.080343984 -0.018196268 0.06571175 0.0012040115 -0.0074910102 0.07608924 -0.017267099 0.07859033 -0.025863387 -0.008727497 -0.0033004202 0.0074691325 -0.010863335 0.04636138 -0.0076238234 -0.018284498 -0.04483807 0.064457886 0.040857296 0.030989408 0.05428473 0.06944742 0.034216043 0.06676098 0.06128518 -0.008838029 -0.02958409 0.06931886 0.08254502 -0.045055818 0.022449048 0.032246176 0.044396266 0.005828992 -0.051180683 -0.061440036 0.05377963 0.021147266 0.05872745 0.058709126 0.0020637251 0.07035183 0.06387769 -0.06620469 -0.04173253 -0.077382475 0.015467698 -0.021446742 0.04456275 -0.082483865 -0.044475887 -0.027186556 0.010856949 0.07907337 0.08821909 0.05747023 -0.06485842 -0.0610728 -0.014462413 0.009374877 0.002686311 -0.0674354 0.036221534 0.071512684 0.011399992 -0.0741689 -0.04909546 -0.07540356 0.023081303 -0.027216282 -0.029998437 0.04813618 0.0575021 -0.024920018 0.039771684 0.013433718 0.022552839 0.07815414 -0.07680579 0.030876208 0.007653598 -0.018870665 0.08768089 -0.0061511896 -0.085131966 -0.01335892 -0.08282341 0.07680403 0.04136268 -0.023317408 0.0067845876 -0.062690675 -0.019848678 0.008880983 -0.06936422 -0.0457637 -0.041019354 0.013495233 0.014872105 -0.07626874 -0.047002498 0.080247685 -0.0023144784 0.013520065 -0.011920993 -0.0839243 -0.071644545 -0.030909369 0.08185794 -0.025177436 -0.032756966 0.042276002 0.02911433 0.07906873 -0.05134488 -0.06482858 0.04404318 0.01447249 0.025797762 0.0069424063 -0.014259071 -0.07152657 0.0153483655 -0.05022205 0.01697991 0.04443111 0.052915413 0.034904663 -0.001764047 -0.026544312 0.04720969 0.024052959 0.01067562 -0.062697425 -0.04752994 -0.060903735 0.018632721 0.056187786 -0.042474482 -0.041332565 0.016609877 0.021309875 0.05579694 0.022104058 -0.030080456 0.075919144 -0.074748844 0.0039068107 -0.057433147 0.015112008 0.009762986 0.035122313 0.054950606 0.0027087866 0.06303753 0.0013866879 -0.07594767 0.08042991 -0.035163246 -0.06347708 -0.014116242 0.085778594 0.059134178 -0.045192476 0.01755729 0.08999777 -0.017828068 0.08588682 -0.051255684 -0.018715076 0.0844385 -0.051055122 -0.0856571 -0.07347977 -0.042339172 0.05774282 0.07083345 0.004805913 0.08882572 -0.026874732 -0.010462418 0.07095715 -0.06296179 0.028472593 0.056430303 -0.083128504 -0.00013994705 -0.035355207 0.07669638 0.076785006 0.046161167 -0.020942897 -0.009102036 -0.08041218 0.040807873 0.020672446 0.026889069 -0.08516017 0.043128606 0.018922685 -0.02939201 0.007707745 0.035679743 0.05396071 0.010604586 0.062638916 -0.0379952 0.015191797 0.075080946 0.08084947 -0.023977192 0.028784014 -0.028714277 0.043057047 0.051717192 0.03316704 -0.004822287 0.07509368 -0.013526396 7.7067176e-05 -0.06745361 -0.0052051623 -0.04149597 0.0030371575 -0.0792523 -0.024378052 0.07204268 0.015039554 -0.0041406113 0.01920246 0.033293854 0.050007366 -0.062277228 -0.0012936505 -0.056598898 0.010893582 -0.014242343 0.04059323 0.0058766794 -0.058070965 -0.045137946 -0.008891939 0.013361782 0.08417282 -0.021794818 0.056098178 -0.04730178 0.08213387 0.07958578 0.00543058 -0.054316904 -0.040946875 -0.04193108 -0.016177066 0.005594494 -0.034284238 -0.02546451 0.049584124 0.03140811 0.05752356 0.019455774 -0.07825768 0.04473253 -0.014845058 -0.08155898 0.029862478 0.022703795 -0.07173731 0.022023622 -0.016070243 -0.043055043 0.025829589 0.008002618 -0.041602228 0.048051044 -0.019749247 -0.014532014 -0.04481317 -0.009923198 0.05448653 -0.025684364 0.03116513 -0.04777275 0.07201228 -0.07096157 0.004535044 -0.073364265 0.05326448 -0.030367348 -0.06592434 0.07867858 0.0050793 0.032135308 0.085646965 -0.030649927 -0.03310382 0.047126565 -0.03887317 -0.026764836 -0.07797201 0.071586914 0.037642807 -0.046301875 0.071332335 -0.07347334 -0.075795166 0.032902647 -0.06371262 0.004164069 -0.014408862 0.082585104 0.046745412 -0.08268636 -0.0085235005 -0.08307948 -0.033816047 -0.05342522 -0.004362802 0.08200696 0.07265447 0.01638663 0.030520733 -0.07795022 0.08344671 0.0036753344 0.050145056 -0.030890951 0.06985423 -0.032861385 -0.078509055 0.027372174 0.04959931 0.072365254 -0.07932988 -0.02295197 0.06603523 0.02702359 0.060837675 0.02234734 -0.027222265 0.060833447 -0.051398125 -0.03814466 -0.08305545 0.006702005 0.08304007 0.0070082997 0.014752575 0.05969696 -0.017832253 -0.085646205 0.07454316 -0.02587506 0.024241019 -0.021888167 0.0049204812 0.0336418 -0.07903551 0.045599498 0.047901515 0.079129286 0.016846186 0.05897468 -0.0046796324 -0.08202004 -0.0058224285 -0.05127182 0.076156884 0.06921042
ss_5.c 0.07992012 0.07693579 -0.051928166 0.041309457 0.08049649 -0.034320045 0.01589287 -0.08220135 -0.022942306 0.058540832 0.082773104 0.078890584 -0.020431466 -0.059506103 0.06484921 0.05341574 -0.03184568 0.061834227 -0.029737312 -0.02996812 -0.06610579 -0.019948777 0.017793063 -0.00073550374 -0.06940918 0.066100456 0.05019381 -0.028130464 -0.010157864 0.010120642 -0.087399356 -0.055528697 0.07917491 0.050010737 -0.048890755 -0.016917195 -0.008238301 -0.0039456557 0.08735531 0.07909125 0.06700973 -0.023926593 -0.010843828 -0.046441946 -0.080558345 -0.00742696 0.040334534 -0.08142371 -0.02468826 -0.048651103 0.055439115 -0.0682236 -0.08622005 0.041776985 -0.06672155 0.013674632 0.06587698 -0.009194929 0.022570072 0.036171384 -0.007045167 -0.05219815 -0.04566315 -0.02350244 0.084484674 0.04383127 0.0644295 -0.07572674 0.0067024296 -0.029413223 -0.021231327 0.00020893823 -0.08469678 -0.05743225 -0.06596394 0.068894684 -0.021611672 0.007203023 0.071196206 -0.027832558 0.06038228 0.03880307 0.027241986 0.048295174 0.043790795 0.046358943 0.039951317 -0.0277654 -0.019352978 0.070615135 0.0009309406 0.054647177 -0.04973256 -0.080463275 0.0042611985 0.045674704 -0.029223366 0.073789515 -0.08657513 -0.017523544 0.040687878 -0.016332855 -0.004309548 -0.050389253 0.08013446 -0.05259357 -0.009181962 0.0012835067 0.025063612 -0.035489872 -0.0035536438 -0.009741972 0.037987992 0.043901894 -0.053405672 -0.005574344 -0.02049148 -0.0026770388 0.06608598 0.032377843 0.04922903 0.07037385 0.0072408896 -0.017618028 -0.0223721 0.038993564 -0.042019043 0.022064345 0.02955591 0.083385974 -0.03922406 0.073463365 -0.0489241 -0.0058237426 -0.07502879 -0.056131124 -0.03444025 -0.0076011824 -0.053770702 -0.05526261 0.038219273 0.009079577 0.014560601 -0.013487506 0.08636611 -0.00094278454 -0.07055665 0.062284093 -0.0023390718 -0.08276946 -0.06549561 0.06164813 -0.068448775 -0.0027900885 0.050368823 0.035209134 -0.079909205 0.017440671 -0.0489026 -0.049614366 0.007949802 0.061312385 0.013866242 0.04766688 -0.005423475 0.034458283 0.08448108 0.05605056 0.047249336 0.049433287 0.011480144 -0.00690017 0.03117808 0.07750501 -0.0023217176 0.009664475 -0.01890386 0.03957979 0.03949295 -0.029149968 0.023587981 0.034289006 0.06687891 -0.07535324 0.05530845 -0.066645645 0.015412065 0.07405261 -0.014264723 0.08866905 0.07795917 -0.036481816 0.0032922095 0.032578815 0.016392635 -0.0022097984 0.01884634 -0.043840624 -0.080666475 0.07396278 0.051334653 0.02981155 -0.080692545 0.065643094 -0.036021806 -0.058543377 -0.08559671 -0.059055984 0.04948624 0.032680795 0.004572089 0.051943798 -0.056020547 0.0066630277 -0.010264841 -0.0005784336 -0.072994046 0.0027253735 -0.024049575 -0.08278108 -0.03818862 0.062517434 0.019733513 0.06421446 -0.07337514 -0.0749946 8.874555e-05 -0.06246625 -0.08086276 0.02959646 -0.02685366 -0.080921486 -0.08343311 0.04982448 0.026308404 0.038868915 -0.012544365 0.0070027015 0.03696844 -0.004672937 -0.0024591074 -0.07496759 -0.05731373 0.059010964 -0.08214725 -0.084434055 -0.05205623 0.054969203 -0.07804109 -0.07993557 -0.06430637 0.07499569 -0.002180367 0.024303315 0.041416015 -0.06208644 -0.028545128 -0.029149618 -0.008671577 -0.05744927 0.026683535 -0.04987691 -0.003026439 0.08983568 0.02297872 -0.072452605 0.053728875 -0.021133892 -0.0351859 0.03543465 -0.027665203 -0.058803316 -0.034052566 0.026063591 -0.036354486 -0.07279944 0.0847885 0.053411834 0.0029425565 -0.0005747256 -0.07715231 -0.047808673 0.0010807638 0.024524067 0.0071552554 0.04623383 0.060386803 0.012317929 0.04397367 -0.06570013 -0.003314765 0.04151309 -0.0063352874 0.04611519 0.08137071 -0.038238965 -0.014562673 -0.0714566 -0.050704826 0.019742012 0.020116497 0.022529757 -0.08619665 0.07833583 -0.027511561 0.07350215 -0.08496941 0.07459485 -0.030362835 0.081509255 -0.050969537 -0.027756283 -0.06749056 0.046850424 0.020637851 -0.07562324 -0.06380492 -0.070562586 -0.06516933 -0.033778533 0.012166066 -0.07793052 -0.0788848 0.06637775 0.05498356 -0.027588421 -0.0703788 -0.014668097 0.048184346 0.012578395 -0.08058699 0.041922294 -0.020921083 0.006220308 -0.026261538 0.018274842 -0.0775392 0.044618495 -0.07406465 -0.034784354 -0.051736567 -0.02652464 -0.017184738 0.08515595 0.045360796 -0.06472113 -0.023712229 0.0027525306 0.07690602 -0.04404246 -0.0857244 0.015503522 -0.05469048 0.063070245 0.033973884 0.0249799 0.07810457 -0.03749825 0.0027085063 0.079085864 -0.030919641 0.043308225 0.04715282 0.0038233337 -0.08560302 -0.044658408 -0.0470129 0.009128119 -0.08209814 -0.01723926 0.089294955 -0.008313304 0.006022254 -0.07652515 0.07040819 0.020923298 0.017632252 0.03238384 -0.03918533 0.0030280394 0.009193489 -0.009120434 -0.016553596 -0.059537325
ss_8.c 0.037709672 -0.024776543 0.036606528 -0.041379634 0.07975614 0.008707661 -0.049041044 -0.027812684 0.09004893 -0.050855156 -0.04620657 0.057625625 -0.02872676 -0.031696983 0.0551654 -0.030397287 -0.028178656 -0.08564734 0.0076664197 0.03971266 0.0575064 -0.03048262 -0.04475627 -0.08167886 -0.03897167 0.025965517 -0.039533652 -0.03537751 0.00051674875 0.051483843 -0.07754299 0.03197921 0.008834041 0.051294237 0.07311451 -0.074532375 -0.022898922 -0.0564211 0.045485284 0.06436627 -0.033731747 -0.048528317 -0.0020474633 0.06297106 0.0428673 0.056830913 -0.017114764 -0.040363837 0.07464399 -0.054472517 -0.076221466 0.07337957 -0.06935476 -0.076375805 0.021817293 0.07312762 -0.01633992 0.06958094 0.03665854 -0.061977647 -0.037296504 0.06703261 0.013096869 -0.08589322 -0.008665841 -0.04549812 -0.03549199 -0.052590884 0.04593477 0.04929281 -0.045067035 0.0783861 0.01762286 -0.08490015 0.0819998 0.010242753 0.020995313 -0.085046545 0.053421155 -0.052250795 0.03440122 -0.044759613 -0.046112243 0.0075722467 0.05926863 0.056764863 -0.029232977 -0.048424482 -0.075577386 -0.058622308 -0.079404525 -0.017644327 -0.056691576 -0.024664093 0.05964188 -0.008095518 0.03813494 -0.07596263 -0.027177183 0.064385585 -0.036782555 -0.067891486 0.037286937 -0.04437254 -0.012326799 -0.0023822356 0.012889232 -0.008350514 -0.057678763 0.052963283 -0.047393702 0.020849913 0.010601082 0.04042917 -0.08377757 -0.0177875 -0.06471729 0.04011102 -0.06225638 -0.06049325 0.0244004 0.011481791 0.07595381 0.02180673 -0.057977155 0.045324896 0.0597727 0.07715504 0.025387947 -0.0051485435 0.053123906 -0.053545397 -0.036977496 -0.040719148 -0.016301293 -0.024113508 -0.033047296 0.088832095 0.036092695 -0.077225864 0.043218296 -0.052042853 0.03762871 -0.036408484 -0.075897306 -0.056011986 0.003939844 0.05641368 -0.056994833 -0.04066323 0.084064305 -0.023563849 -4.2734086e-05 0.043790825 0.04495562 0.025864907 -0.0028648812 0.08580198 -0.0171259 -0.052710354 0.07192453 0.025884658 -0.06245094 -0.0076038726 -0.011723926 -0.016060881 0.006409559 -0.07125188 0.013246221 -0.0009263554 -0.03356024 0.008616976 0.023793742 0.06365893 0.037474155 0.08424946 0.08701062 0.028196316 0.08367864 -0.004803479 0.024582993 -0.0713166 0.0040379176 0.051695827 -0.03399407 -0.04217224 -0.06295335 0.08209205 0.006447872 -0.038124375 0.009269004 0.03220855 0.06660399 -0.07145142 0.030966768 -0.037372928 0.022120802 -0.06717455 -0.03295551 -0.03193252 0.08469029 -0.057889596 -0.021650178 -0.077177145 0.055807095 0.03445129 0.051932007 -0.043688063 0.02514971 0.06149853 -0.025586596 -0.036389105 0.057440385 -0.08751732 0.08526838 -0.046937484 0.019287352 -0.056567583 0.01915614 0.03009785 0.014834743 0.033933315 0.00017835433 -0.07517046 -0.022709092 -0.054625623 0.0170939 0.067764625 0.014799609 0.06527483 -0.018165918 0.0018727677 -0.031631596 -0.023625793 0.06514738 -0.0749101 -0.0725096 0.086578324 0.036006898 -0.005394841 0.079989605 0.007203469 -0.015925728 0.060870733 -0.069797255 0.06588807 0.0055221906 0.03239672 -0.018945176 -0.010702836 0.052738775 -0.032611545 -0.07557023 0.07540474 -0.079906486 0.08068204 0.08438557 0.027237564 -0.05781026 0.055850774 0.0016785474 -0.06927362 -0.035948653 0.020409292 0.05586749 0.01706363 0.059851933 -0.042424127 0.049014173 0.00835536 -0.08016285 0.0067522796 0.048070397 0.010627885 0.01378246 0.05116476 0.013545464 -0.048211444 -0.042214863 0.017000426 0.032021873 -0.018865071 0.035797354 -0.07447941 -0.06345299 0.08753367 -0.08431764 -0.050305966 -0.045505304 0.019435877 -0.0027690886 -0.014442413 0.047651745 -0.030698098 0.044733282 -0.0021073595 0.021827063 -0.013404743 -0.03154672 0.07769819 0.046058103 -0.050962027 0.030165918 0.06523306 -0.009206239 -0.036218688 0.012414308 0.0018111218 -0.001636726 -0.07301263 0.0016411532 -0.01569644 0.083902985 -0.044057265 -0.056843434 -0.030855127 0.085210055 -0.08437378 -0.0064700358 0.014839624 -0.024862576 0.0044004405 -0.059585094 0.074599475 -0.017888792 0.07010791 0.053486306 0.012903941 0.0046173893 0.00177018 0.05615899 0.07814176 -0.04220621 -0.053771973 0.07042889 -0.08589035 0.040208537 0.0071639214 0.009924225 0.06954446 -0.03229893 -0.027663384 0.07464768 -0.05964266 0.061240077 0.079025954 -0.031230943 0.05992252 0.07998441 0.04543821 -0.051321283 -0.05759557 -0.02490974 0.06785577 0.062882856 0.035345964 0.042221647 0.05810402 -0.04551077 0.019942423 0.061683923 -0.042755593 0.057204235 -0.010829118 -0.045213453 -0.006910143 0.03408868 0.012695531 0.056114774 0.06428738 -0.048875224 -0.057651885 0.014296501 -0.01059826 0.044475287 -0.0805901 -0.05375526 0.06430074 -0.05372556 0.012788476 0.035020404 -0.041890647 -0.05577145 0.066839665
bs_2.c -0.07446819 0.05803713 0.059916355 0.005613202 0.05186994 -0.016503086 -0.030279815 0.02675855 0.0262874 0.039036244 0.02747931 0.08452253 -0.0125507135 0.009905272 0.013389211 -0.07788986 -0.04312909 0.023427434 -0.014658145 -0.035158973 0.024495848 -0.067531414 0.06928548 -0.014582347 0.060804617 -0.08309353 -0.030793125 -0.063498564 -0.023379182 0.024440674 -0.035643816 0.0016814778 0.07767201 -0.02547956 -0.008164166 -0.05419788 0.005183751 -0.020205555 -0.030646663 -0.069002844 0.013258069 0.022706341 -0.0493332 -0.078235865 0.060989942 0.00074690033 -0.060283005 -0.07582043 -0.025662933 -0.045394316 -0.024932351 -0.020159002 -0.013787212 -0.008971564 0.06503433 -0.05350082 0.008578979 -0.03841373 -0.015382475 0.03441559 -0.0077997083 0.0071414555 0.06941569 -0.015896147 -0.037083298 -0.011526193 -0.0070326068 0.015297286 -0.016614819 0.034186732 0.0878118 0.0668411 -0.027495608 0.04180653 -0.050583597 -0.07379783 0.060345136 -0.08531048 -0.00622568 -0.057973452 -0.0719555 -0.01998927 -0.07458707 0.02060514 -0.032063242 0.0008203623 -0.089280985 -0.08904554 0.08553919 0.07760035 0.013030796 0.013148536 -0.0058512017 0.059672117 -0.021267576 0.070068404 -0.030854663 -0.055042148 -0.055163562 0.07687807 0.035279818 0.030450577 0.085348345 -0.05679968 0.03988615 -0.05321117 -0.039729226 -0.0783241 -0.059386548 -0.0063385474 -0.057525203 -0.052655626 -0.06404001 0.0078421915 0.06302166 -0.013843533 0.027653744 0.011774153 -0.047958266 0.04515974 0.05960701 -0.068590716 -0.08347954 0.03292852 -0.014447044 0.07449869 0.009713186 0.022001302 0.057365056 -0.045201413 0.08121672 -0.025095193 0.025778329 -0.074405216 -0.070024066 0.07451971 0.082057446 -0.019066693 0.04846431 0.029414756 0.06605259 -0.06258563 0.073853076 -0.07352221 0.074054435 -0.070848525 -0.06063826 -0.055728175 -0.056062292 0.033494793 0.06651282 -0.041420903 0.040200125 -0.0009456809 0.014177227 0.048077133 -0.02909978 -0.045550108 -0.059940524 -0.0076869503 -0.042971656 0.07380857 -0.06469093 0.019227885 0.02323721 -0.051233053 0.077767774 0.027150571 -0.0031458838 -0.084182575 -0.06599957 -0.069873065 -0.06111715 -0.05407234 0.024896424 -0.057573393 0.046511047 -0.030518448 -0.020410636 0.0013846823 0.040554225 0.0055101425 -0.083280616 0.01703135 -0.018562814 0.045213535 -0.08672053 0.014026296 -0.08639118 0.007563184 -0.03534811 -0.058418933 -0.05783409 -0.07966456 -0.029559711 0.0015017107 0.08862267 -0.05408917 -0.060364608 -0.0036509924 0.0050407415 0.03320046 0.04006252 -0.023628911 0.07724369 -0.032434523 -0.047568094 -0.08200585 -0.07462069 -0.015138091 0.04133567 -0.087636776 0.080373496 -0.047810443 -0.062467866 -0.016526522 0.005954382 -0.0065580094 -0.09013701 -0.038920037 0.07749974 -0.04254908 0.03500411 -0.006403467 0.07543814 -0.020504752 0.0645948 -0.050332535 -0.077139415 0.066826716 -0.039585043 0.050926488 0.031096753 0.059203558 -0.080259696 -0.005605327 -0.080471605 -0.08056939 -0.056255072 -0.062699445 -0.058477934 -0.024306044 -0.058209885 0.08210351 0.028149294 0.07992641 -0.0033513275 -0.03544608 0.05320965 -0.010921113 0.039736934 0.048015118 -0.06487585 -0.042276632 0.04441087 0.07451024 0.009029899 0.0053388025 0.036352888 0.08006757 0.04796792 0.015340241 0.07867374 -0.045705788 0.068962105 -0.025357524 -0.0022758024 0.06864059 -0.041974895 -0.042426143 -0.014665118 -0.02798301 -0.033037417 0.030651903 0.0646285 -0.039465 0.07932447 0.030674629 0.08332351 -0.010914916 0.019648068 0.021281162 0.00965853 0.08461569 0.05401437 -0.006414288 0.07194871 0.076306105 -0.027000358 0.0050875517 0.06866929 -0.0040223286 -0.007919809 -0.07987047 0.022842607 -0.030867668 -0.01495923 -0.008472039 0.0026312235 -0.08087957 -0.08701832 0.047445286 -0.011030329 0.068434596 -0.05684835 -0.009482404 -0.07869831 -0.083517 0.060744904 -0.06228843 -0.088369206 0.030174779 -0.0014930294 0.061765265 -0.004235393 0.016036551 -0.08366076 0.042362392 -0.01877489 0.082824275 -0.063140646 -0.046781473 0.06401483 -0.020751208 0.020891279 -0.078584634 0.06538606 -0.03941755 -0.07600652 -0.038146894 0.0025066263 0.01120307 0.08602066 0.024846861 0.07905282 0.0756528 -0.08258964 -0.042590525 0.08174759 -0.020447921 -0.025075018 0.07254436 -0.057456195 0.057683572 0.012364581 0.072877586 0.04324741 0.00473296 -0.07185537 0.071698055 0.034802575 -0.030947834 0.081163585 -0.054104056 -0.086936235 -0.078903005 0.0004908678 0.08060085 -0.080125056 -0.01664287 -0.08466973 -0.06878473 -0.06854968 0.022857953 0.051317606 0.06495043 0.01928737 0.07033791 0.048376415 -0.02596736 -0.002430066 0.003919637 0.07462352 -0.050107088 0.071605094 0.084516756 0.03715954 -0.029806074 0.057971995 -0.04882963 -0.03864238 0.02147196 0.049220897 -0.08649559
ss_3.c -0.037373435 0.048618328 0.08434972 -0.03133416 0.048518777 0.046689782 0.05445572 -0.057146534 0.0017563356 0.011636411 -0.07854529 -0.04213275 -0.076324254 -0.07384954 0.028575365 0.042995498 -0.018874593 0.020664414 -0.08547498 -0.03770237 0.06297369 -0.012886556 0.07967426 -0.05043283 -0.03363756 0.07772449 0.08298803 -0.06488246 0.044207215 0.041941218 -0.0024191537 0.021387422 0.07063175 0.0066396636 -0.07980449 -0.007413303 -0.010962665 -0.027709082 -0.056083586 0.08212759 0.05376112 -0.031186428 -0.080580406 0.07093721 0.07190007 0.020340322 0.061511334 -0.08094908 0.03587609 -0.059129544 -0.083875805 -0.07768001 0.032769352 -0.084875226 -0.058693606 -0.022679755 -0.0073514865 0.07796498 0.03102779 -0.054099813 -0.002362379 -0.05185523 0.07682767 0.018631645 0.05114477 -0.031481545 -0.08348726 0.0046665943 -0.07866889 -0.044330426 0.08047329 0.0033855333 -0.0474837 -0.06808965 -0.08876211 -0.08862286 -0.07456805 0.035373185 -0.0430929 0.031393543 0.026219238 0.024165243 0.058505666 0.034558356 -0.009466949 -0.009047283 0.011621303 0.040478766 0.05617325 0.08770274 -0.033689704 -0.07384859 0.08567113 0.031453583 -0.06901749 -0.013455614 -0.088259466 -0.0053596064 -0.0560034 -0.0599104 -0.08393964 -0.07149654 0.009727934 0.04161461 0.07342102 -0.022511223 -0.054951623 -0.05773861 -0.08507626 0.001860336 0.021968778 0.0158149 0.05382734 -0.0849299 -0.0787019 -0.04752352 0.07947013 -0.0053136963 -0.079944 0.039948687 -0.027281167 0.08031126 0.074528396 -0.06033 -0.08724255 -0.07747331 -0.017399983 -0.068812795 0.06088449 0.043377876 0.04835814 0.058736686 0.053268116 -0.07878339 0.07174087 0.060180724 0.01441022 -0.00074781687 -0.030819727 -0.03306703 -0.021356106 0.004707901 0.0077349707 -0.074853234 0.014202046 -0.037385672 -0.05151252 -0.07087422 0.05166643 -0.002431963 -0.05271253 -0.04369901 0.0066928533 -0.07244399 -0.071183376 0.06510261 -0.052659888 0.0709222 0.015906645 -0.000306941 -0.039060853 0.0046702293 0.019629255 -0.016568433 0.044960678 -0.06583436 0.044698603 -0.06925291 -0.00088897604 0.01887575 0.050315626 -0.04165665 0.035565764 -0.008204222 0.007284623 0.02630806 0.07608065 0.03879329 0.04011139 0.04325041 0.02842548 0.016612036 -0.011167032 0.021701325 0.0069052028 0.07352856 0.010945808 0.011447277 -0.07609303 -0.08151885 -0.08752152 -0.060820293 0.08717149 -0.0842298 0.07126892 -0.04304181 -0.07620462 -0.03547031 0.044425506 0.026906986 -0.029868647 -0.013671231 -0.005069038 0.08842351 0.007716694 0.07524024 -0.03050501 -0.06263666 -0.04529285 0.009309006 0.043467805 0.018671338 -0.044211935 -0.013757542 -0.057152048 -0.0034599814 -0.0058396924 0.08299835 0.07172706 -0.0835348 0.055902015 -0.078222916 -0.058992967 0.057736043 -0.057651494 0.039250184 0.01167836 0.043736327 -0.017218567 -0.08671479 -0.0392097 -0.0012780591 -0.07267973 -0.06306607 0.012885009 0.080551736 0.0133764185 -0.065141045 -0.05333966 -0.0054172473 -0.0038150703 0.0806507 0.010158548 -0.057045408 -0.05898778 0.04155899 0.09015654 -0.04210963 -0.07890704 -0.08389142 0.028187878 -0.016689664 0.08499696 -0.044731386 0.038857594 0.085147366 -0.060941484 0.08425919 0.031237938 0.0040065907 0.050552554 0.019996742 -0.073183276 -0.044060457 -0.07594973 0.012079199 -0.08254046 -0.00558454 -0.046168417 -0.002892455 -0.04128948 0.03036778 -0.03876455 0.021524532 -0.07389689 -0.012150021 0.010708981 -0.028023805 0.022917924 0.04284086 -0.04312479 -0.06367946 -0.08725891 -0.027577162 0.049685217 -0.026929233 0.010163818 0.050239783 0.08020657 -0.0245905 -0.0068775564 0.047959495 -0.034332823 0.014622632 -0.06329729 0.019478336 -0.07713547 0.032312196 0.06168604 0.059339795 -0.05539967 -0.08218252 -0.06281148 0.033386506 -0.01870931 -0.07433621 0.028558351 0.008733388 -0.041411746 0.036556106 -0.061812047 -0.06651097 0.040916346 -0.023693813 -0.054052193 0.026743645 0.055159383 0.01325691 -0.023127424 0.08050891 0.009833551 -0.051803708 0.08600109 -0.046248063 0.03157431 0.04580672 -0.086367756 -0.040181443 0.033424772 0.074695885 0.0003833988 0.023508864 -0.050956827 -0.046678416 0.07262841 0.044841673 -0.007728238 0.060551997 0.08425971 -0.011870608 -0.032871574 -0.019673321 -0.08020467 -0.06142455 0.054916654 0.0012278159 0.010659562 -0.0097781895 0.038311847 0.048378695 -0.062150277 -0.021676354 0.083779685 -0.06727073 0.018413447 -0.016849928 -0.063395955 -0.0006158661 0.059912395 -0.018075606 -0.069994345 -0.00053877814 -0.023162058 -0.028346982 0.032848712 -0.036893785 0.065106 -0.0154874185 -0.016469825 -0.0069732517 -0.022983931 -0.02202321 0.07798414 -0.08626784 -0.03276185 -0.017485643 0.04938897 0.044068515 0.03715947 -0.08946339 -0.07125226 -0.012897007 0.0035895193 -0.08026123
bs_5.c -0.034136713 0.042981602 -0.0028371054 0.07913939 0.0030239183 0.023041962 -0.053429417 -0.05384624 0.043809734 0.004018388 -0.062395506 0.030402787 -0.026969466 0.0059079793 -0.076549314 -0.04542717 0.083684124 -0.033139087 -0.056020677 0.02612848 -0.05485161 -0.08528215 -0.03230624 0.0041690655 -0.014126515 0.06801996 -0.030702766 -0.07080904 0.029952053 -0.05893725 -0.085933015 -0.018455848 -0.009426163 0.06198192 0.018090198 0.048930086 -0.003096004 -0.0125183435 0.08332756 0.021842983 -0.012844553 -0.049436696 0.00061221066 -0.071977496 0.06678854 0.010645603 0.0024364572 -0.0358334 0.07716915 0.057865918 -0.034979653 0.05199812 0.0693947 0.07469147 0.006619676 -0.044099156 -0.07225008 -0.067138165 0.034591995 -0.060595527 -0.054878525 -0.07440405 0.08445056 0.07473975 -0.072518334 -0.0815491 0.044729944 0.07153083 -0.05050371 -0.057362106 -0.08280181 -0.063049845 0.032396767 0.025401087 0.07791847 0.041719228 0.028033005 0.061228283 0.058144353 0.07044535 -0.015377011 -0.033928514 0.009112152 -0.015047401 -0.0361473 -0.027228259 -0.03226081 -0.035894524 0.031366933 0.056817457 -0.08100761 -0.048874468 0.032730114 -0.060673468 -0.03562783 -0.0802858 0.08122294 -0.02763719 -0.008683417 -0.056933377 0.04094904 0.04577778 0.053035744 0.074999094 -0.0198435 -0.022720227 -0.082022294 0.045116242 0.011818743 0.034175664 0.00850416 0.070062734 -0.0509995 0.029021583 -0.03490236 0.0039956514 0.017750172 -0.02803353 -0.06254829 0.05907688 0.045611 -0.051751565 0.0641838 -0.036102444 0.055984423 0.024319045 0.02722696 0.061617054 -0.017564926 -0.059983674 -0.03386787 -0.012307108 0.03170574 -0.0011772232 0.023810863 -0.00023543194 -0.018001225 0.045168474 -0.040768333 -0.07053119 -0.05763746 0.0043061855 0.00014770596 0.041637763 -0.04857925 0.027492162 -0.04862705 0.07321662 0.08690422 -0.009540909 0.07584764 0.085000336 0.06249569 0.08688035 0.027915765 0.07919594 -0.005785976 0.06631991 0.07971881 0.03071847 -0.06704047 -0.01176341 -0.018805379 0.028241072 -0.054846138 0.024709735 -0.0005339954 0.0192305 -0.067236185 -0.012966956 0.05155007 0.056867648 -0.03864597 -0.009741717 -0.07582471 0.0769117 -0.0141719235 -0.024846947 -0.057327222 -0.026169738 0.047056522 0.05482752 -0.05584724 -0.013756397 -0.06092054 0.02576811 0.06823428 -0.057827547 -0.02117457 0.08890405 -0.026314301 -0.053536206 0.054326776 -0.030900812 0.06459502 0.034074422 -0.058642067 -0.07663348 -0.0328458 0.08741467 -0.011954806 0.025644636 0.025502767 -0.08422195 -0.068552546 -0.06460009 -0.014439261 0.0041315956 -0.03860887 -0.029484276 -0.013469238 0.08244175 0.060347684 -0.06255168 -0.0031699215 0.03624425 -0.021663558 -0.017305527 -0.05837349 -0.023521857 -0.05948159 0.04750303 0.015844014 0.018103275 -0.053218316 -0.03364637 -0.055621266 0.025899192 -0.03549164 -0.05738345 -0.03148892 0.05261648 0.06489725 -0.032567922 -0.07070017 -0.040520508 0.013376758 -0.061760288 0.0684667 -0.0086178 0.023776539 0.0854491 0.018916795 -0.032463726 -0.029041728 -0.07647379 0.006041933 0.035595912 -0.024597703 -0.020336265 0.001318899 -0.07857056 0.04003948 -0.004197648 -0.07047289 -0.008301494 -0.08154195 0.061788302 0.04794182 0.059671912 -0.02936166 0.04005103 -0.06694074 0.033467524 -0.07374398 -0.00057179993 -0.013653539 0.04916633 -0.014049282 0.06617678 -0.065415 0.02320248 -0.068577036 0.017422993 0.058571983 -0.058743905 0.06662482 -0.020218613 0.025165599 -0.024786575 0.018957082 -0.04905291 0.047522318 0.01700775 0.017772898 0.07361523 -0.03878861 0.050087504 0.031665478 -0.05225715 -0.0561621 0.047219656 0.03263003 -0.073352955 0.07537498 -0.023517106 -0.0011579525 -0.08214973 0.028526466 -0.028148796 -0.04685272 0.06523004 -0.012814219 0.07061789 -0.0023841835 0.05456125 -0.001534622 0.085487165 -0.07943393 0.08382437 0.072182976 -0.053485975 -0.065732546 -0.046170548 0.029194148 0.07706793 -0.08085342 -0.03340412 -0.05259412 -0.08538433 -0.017612224 0.024499165 -0.053610843 0.06621133 -0.03535467 -0.067137755 -0.029979246 0.021284934 0.07584345 0.085968025 -0.08342894 0.006674441 0.058268774 -0.0848728 0.025587585 0.06802755 0.071561724 -0.005136002 -0.052667696 -0.05332351 -0.072347686 -0.030648764 0.02580733 0.028049106 -0.049943343 0.025442867 -0.05186526 0.05472916 -0.0025204376 0.0009070588 0.05675824 0.008036774 0.06638598 -0.061385613 -0.059922814 -0.054397624 0.06439011 0.026355227 0.021801567 -0.042824496 0.072522774 0.013382458 0.00452454 0.039406687 -0.051981483 0.05451013 -0.07601812 0.046063118 -0.00526603 0.07686556 0.024692519 -0.048108913 0.04816628 -0.08697418 -0.057661902 -0.045886453 0.07953881 0.008518478 -0.0870238 0.0013988349 -0.07428251 0.023327256 0.06168598 -0.0007019696
ss_1.c -0.025016556 0.06097786 0.03916654 0.08530762 0.004927432 -0.0040338575 -0.05036268 -0.08905402 -0.018666834 0.011784725 -0.06682419 -0.06691952 -0.017329818 0.0061309543 -0.06434274 0.04027992 -0.015912233 0.074792385 -0.013063778 -0.026111197 -0.08379615 0.08930566 0.072024755 -0.070520215 -0.05199072 0.053105384 -0.0038668946 0.05870377 0.07818127 -0.08235655 -0.06710801 0.06770998 0.06897679 0.07755147 0.0829448 0.04549732 -0.015413893 -0.070505366 0.040799636 -0.035063863 -0.0075458083 0.014770403 0.03303255 -0.044085056 0.055300944 0.074609116 -0.0054855896 -0.05703355 -0.085533395 -0.0005557178 0.049340826 0.0010064235 -0.06415224 0.03616522 -0.04461865 -0.07911164 -0.03822071 0.0283314 -0.089655876 0.009539607 0.021416333 0.08353573 0.02564863 0.007056509 0.052952997 0.043613378 -0.08096092 -0.020154076 0.0794135 0.029923156 -0.053124797 -0.01916169 0.043260552 -0.052529592 0.08866175 -0.06442975 -0.07398945 -0.022098899 -0.0016471536 -0.011697993 -0.075459845 0.07769637 -0.03651851 -0.08128005 0.08378905 0.08630655 -0.06186051 -0.051692437 0.08080923 -0.07180407 -0.07924267 0.08773986 0.049555402 -0.05148861 -0.036605146 0.072335504 -0.045773007 0.08587928 -0.04806894 -0.03296134 -0.065688804 -0.0125556905 -0.0016990623 0.0059083574 -0.056744795 -0.08436279 0.052272927 0.060139805 -0.045975704 0.0834522 0.027380977 0.060829613 -0.06281891 0.079757616 0.05969969 -0.022206217 0.08125578 -0.032408718 0.015300751 -0.03603689 0.064178176 0.07787462 -0.017295176 0.03894567 -0.021652235 -0.03553984 0.015470799 0.049474325 -0.046095733 -0.018660793 -0.028629528 -0.006991252 0.080027476 0.059992187 0.083458915 -0.072348714 -0.028127538 -0.04538883 -0.034044564 0.027939541 -0.031144222 -0.039493218 0.011257193 -0.04645453 0.018135088 0.0727086 -0.06487171 -0.06304145 0.017522706 0.08097117 -0.04265007 0.055446878 0.014922604 -0.076073125 0.041328285 -0.06064985 -0.004450617 -0.07508579 -0.07307458 0.052958656 -0.012564864 -0.03017413 -0.07487024 0.08193993 0.013336016 0.0036280104 0.08687177 0.022586497 -0.0753261 -0.05413271 -0.057133313 0.038279608 -0.05235426 -0.0018390936 0.06496572 -0.020266822 0.056480974 -0.0634565 -0.026615871 0.017022006 0.08212964 -0.040090185 -0.057376914 0.018420752 -0.08378685 -0.019372653 -0.037561614 -0.009752214 0.08126364 0.015404273 0.031774264 0.012061168 -0.02697233 0.08448598 0.07786644 0.037307568 -0.08028023 -0.08648767 -0.07918133 -0.023906948 -0.011359466 -0.0060440726 -0.08702351 -0.026312951 -0.04789695 -0.053372864 0.0068790293 -0.040605668 0.06024254 0.07937492 -0.046829395 0.0060120625 -0.006975213 -0.00073304086 -0.060551137 -0.04656103 -0.052724186 -0.0051783137 0.057462636 0.075762145 -0.07194817 0.020127453 -0.040425416 0.0068105618 -0.054532416 0.0587238 0.03995895 -0.042805154 -0.0066973288 0.034146346 -0.087318875 0.027735638 0.00077248306 0.08360398 0.06747358 0.065471314 -0.010399017 0.04113802 0.018081347 0.028282842 -0.07654803 0.058764186 -0.074180394 0.085887104 0.06530016 0.031616434 -0.054225773 0.0030098744 -0.019635346 -0.012078895 -0.07504567 0.024383297 0.084217496 0.039723366 -0.027965019 0.04698049 0.037671324 -0.08373354 0.07156161 -0.03230759 -0.08031944 0.027575927 0.07428093 -0.023370378 0.011686652 -0.008961503 0.0011949898 0.045692354 0.07832448 -0.05966205 -0.01556383 0.044421922 0.043997385 0.017892135 0.0054862956 -0.00071571226 0.081173815 0.01933276 0.008879014 0.028945545 -0.001907568 -0.053507123 0.047794838 -0.06386156 -0.0068508666 -0.06790907 -0.03979813 -0.04774201 0.081237994 -0.049333993 0.086870655 0.07174776 0.031389467 -0.019224502 -0.042854566 -0.06613349 -0.057541393 0.08100221 -0.060952697 -0.06843029 -0.039981738 -0.027005145 0.033770364 0.031989157 0.07068922 0.016879901 0.0017197882 0.007583669 -0.0016172199 -0.037749395 -0.057204634 0.0059562665 0.07643008 0.0641752 0.060599312 -0.057038367 0.047062963 -0.0500815 0.006554749 0.026404914 0.076221585 -0.020990683 0.042171013 -0.06390642 -0.046487097 0.06574302 -0.06874491 0.07164381 -0.060141083 0.018456312 -0.054294303 -0.008985632 -0.041645654 0.07570038 0.019760456 -0.06503162 -0.04165081 0.016952692 0.056062706 0.038021076 0.03474756 -0.04400773 0.06028911 0.0070889676 -0.027338654 0.051586676 0.040737286 -0.036623046 -0.034990665 0.08775686 -0.075012766 -0.017120956 -0.029771216 -0.04298199 0.07922209 0.07588819 -0.025139343 0.03362741 0.06784756 -0.020448774 0.05334587 0.044109017 -0.029742246 -0.051013824 0.0025027003 -0.07569029 -0.07544628 0.070599 -0.020313935 0.08261705 0.017960925 -0.010681105 0.01855817 0.030887213 0.04223301 0.03508473 -0.036537196 0.0746376 -0.08203149 -0.028072022 -0.032147493 -0.013762941 0.030573022 -0.0025440902
ss_9.c -0.07420557 0.07984763 0.069841884 0.07223681 0.057846684 0.06246989 -0.03241058 -0.07490117 -0.036092035 0.02843106 0.034427594 -0.015769668 0.07801371 -0.06436833 -0.035402935 0.055712145 -0.049882863 0.07982829 0.037444655 -0.0027014748 -0.031991765 0.08988405 0.01599156 0.072398655 -0.07781967 0.02653573 0.037009034 0.046509787 -0.06256846 -0.06689415 0.035247967 0.06794755 -0.047712643 -0.0059853173 -0.023970604 0.013347065 0.0629275 0.055701137 0.06229653 0.029072281 0.0033002277 0.037953798 0.032972336 -0.0328407 -0.040000778 0.065374956 0.034790892 -0.0058556627 0.07739834 -0.023149932 -0.044765484 -0.0396754 -0.01212378 -0.02047056 0.08488044 -0.08305377 0.022875845 0.02514387 -0.024189083 -0.08582325 -0.01863207 0.03692144 0.040919885 -0.023708316 0.07965353 0.053782985 -0.031983506 -0.042959247 -0.08412607 -0.010565815 0.033418223 -0.037290074 0.08072065 -0.003438222 0.019019099 0.058640603 -0.0826855 -0.06695097 -0.064793825 -0.06285968 0.041063927 -0.022344666 0.087391846 0.024757717 -0.0076590665 0.013991867 0.03086715 0.024518905 0.01645059 -0.062633015 0.044023708 0.047815606 0.0465321 0.016144019 -0.030829243 -0.02263555 -0.004778338 -0.017476633 0.05103827 -0.061526336 0.050541136 0.04733171 -0.056994136 0.02947044 0.025497345 0.053225424 -0.004529304 -0.016923338 0.07722659 -0.040297043 -0.01593612 -0.041677378 0.038245995 -0.040656105 -0.030692587 0.057245128 0.05510125 0.029941715 -0.016088359 0.009126386 0.082603335 -0.03273168 0.042996176 0.08432838 -0.019719893 0.07503068 0.050032325 0.03175509 -0.07113958 0.06669183 0.07162129 -0.007988393 -0.06204351 0.048557997 0.058689065 0.07138869 0.03719635 -0.02013115 -0.0060631623 -0.05320002 -0.0587435 0.049931273 -0.06543681 0.0734686 -0.07055477 -0.05197412 0.0625107 0.071003884 -0.07859131 0.026172744 0.05868293 -0.07435479 0.049935523 0.00097608997 0.002419449 0.06613417 0.06143922 -0.07370729 0.0071512316 0.07380537 0.021967942 -0.077454925 0.012174479 0.03687297 0.077044934 -0.07388592 -0.064438365 0.043697592 -0.0018586763 -0.031572774 0.053373586 0.024103303 0.07761238 0.035528507 0.06767677 -0.054278076 -0.055262223 -0.037832957 -0.0045045847 0.018476618 -0.046687875 0.06063007 0.022935472 -0.0127651645 -0.026632115 -0.06997118 -0.051628232 -0.06371108 -0.037887424 0.02840331 0.037438784 0.0058140056 -0.05000406 -0.005666527 0.012973972 0.082365826 0.025015134 -0.071532235 -0.058365554 0.0153798405 -0.07441253 0.022903275 0.0085760495 0.001927967 -0.030821176 0.059911422 0.015202276 -0.090228975 -0.066821106 0.083791934 0.015171779 0.019602833 0.06452738 0.06010431 0.009622601 0.016625976 -0.05043954 -0.018840492 -0.07536287 -0.065396175 0.082200244 -0.004286827 -0.056066703 -0.073987894 0.074914664 0.00056960265 -0.047388595 0.061329864 -0.050336175 -0.069454364 0.03176103 0.010466513 0.002429982 -0.050916247 0.064419344 0.0075979866 -0.06898468 -0.055907775 -0.027373748 -0.004515849 0.075657435 0.055959463 0.0027575588 0.026933491 -0.005247105 0.058149565 0.0142755825 0.029553179 0.045990527 0.025618827 -0.0065681683 -0.056702517 -0.057617355 -0.055716056 -0.04254627 0.06293757 0.034306176 -0.06584681 0.05830476 -0.024822045 -0.01134645 0.047847066 -0.0799725 0.06699547 0.05828768 -0.0703369 0.042483646 -0.06476431 -0.07277747 -0.089632444 -0.046808552 -0.062386826 0.031548087 0.0030851923 -0.06544138 -0.005990253 -0.0695611 0.017801017 -0.084058985 0.039236706 0.07764425 -0.069109984 0.0774378 0.08219324 0.06543857 0.020747012 -0.0075487955 -0.057054497 -0.08051637 -0.058372594 -0.05434602 0.07875232 0.06620032 -0.0041710213 -0.068995215 -0.040609986 -0.03871135 0.01601296 -0.021686912 0.08010211 0.013853785 -0.055644967 -0.06248808 -0.029158708 -0.03202756 -0.07884059 0.0014159889 -0.01883385 -0.03083472 -0.08494457 0.050637443 -0.040653624 -0.012047035 -0.069629185 0.03106502 -0.01826416 0.013322096 0.031880103 0.078249924 -0.017310811 0.0484573 -0.006837938 0.03102529 0.019340329 0.08284256 0.04213397 0.08569773 0.02580379 -0.03420424 0.06383352 0.062332384 0.051201317 -0.004058799 0.06666235 0.068697564 -0.045172766 -0.028957153 0.07241683 -0.034359135 0.032812707 -0.069919825 0.03655124 0.07333216 0.059110183 -0.049204476 -0.06125446 0.077626355 -0.046686612 -0.012433152 0.0070427163 -0.05286053 0.017496778 -0.05963703 -0.004785301 -0.046794415 0.052977078 0.018423602 0.007504345 -0.08065493 -0.04859959 -0.00350612 -0.06913361 -0.03311245 0.05219623 0.048649926 0.0753488 -0.050437354 0.011756403 -0.080978364 0.029518997 -0.07636085 -0.074278556 0.06923524 0.060283992 -0.049160358 -0.0052153342 0.006973521 0.084007174 0.04929541 0.042711698 0.011464456 -0.037485458 0.080500335 -0.07231444
bs_3.c -0.013926137 0.06511409 -0.016573355 0.056490704 0.0142002115 0.08679217 -0.036068257 0.0132603645 0.07661968 0.026252707 -0.04728351 -0.0013827335 0.059907135 0.015156967 0.038832057 0.04795601 -0.030085266 -0.08547895 0.07444686 -0.0862339 -0.06861389 -0.057309177 -0.07483683 -0.07359762 0.006430877 -0.048423916 -0.07214464 0.0712296 0.08515847 -0.031206515 0.0004272121 -0.030092314 -0.07829424 0.009780336 0.054028526 -0.004296765 -0.03600163 -0.035833463 -0.012508813 -0.018439574 0.061691593 0.07703546 0.03830064 0.079162925 -0.037338924 -0.073802695 0.030189125 0.06431122 0.056303494 0.0076594437 0.013282714 -0.075766444 -0.04850123 -0.04093658 -0.07454927 -0.039876606 -0.010783389 -0.040670227 -0.079306684 0.010744035 0.057458583 0.028832173 0.042201858 0.027770145 -0.012275182 0.07962374 0.02337592 -0.02208424 -0.030323807 -0.010329532 -0.020765485 0.034098927 0.008303262 0.0004215351 0.02867349 0.07170243 -0.0286625 0.035913985 0.07167872 -0.038887735 0.08197515 0.015803915 -0.033664595 -0.0016154264 0.045232568 -0.050956175 -0.043172214 -0.0358215 0.057065647 0.08079091 0.036341447 -0.052617773 0.07722857 -0.0032156797 0.030999273 -0.0627745 0.016775623 0.06148885 0.07357668 0.070921704 -0.08437246 0.06391298 0.054630626 -0.003865289 -0.03160699 -0.07479867 0.08134657 -0.00036452117 0.0865749 -0.0007714359 -0.08092299 0.011437381 -0.08117123 0.0502772 -0.04526017 0.08411044 -0.040061723 0.065971985 -0.024149818 -0.058638453 0.037445437 0.07845249 -0.0105391415 -0.0029545203 -0.07437867 -0.04688458 0.019352134 -0.07847389 -0.081110425 0.088897444 0.08079297 0.05945942 -0.08199398 -0.0071434933 0.0759518 0.020718709 0.019598225 0.021860763 -0.03076429 -0.041109335 0.051073287 -0.0016492545 0.017378816 -0.06704626 -0.0034141056 -0.047328085 0.05512541 0.041533902 0.07201833 0.05657643 0.078364365 0.06402452 -0.05539842 0.03713533 0.07072756 0.022278838 -0.0029258323 -0.04976663 0.058036726 -0.022222303 -0.042839665 -0.07399955 -0.057095606 0.08770396 -0.018234242 -0.041676234 0.05706179 -0.016197983 -0.01175351 0.06439506 0.022150876 0.021772057 0.017763944 -0.017728982 -0.0113135055 -0.07051502 0.001153273 -0.04078564 -0.064066924 0.05715145 -0.034102097 0.03495542 0.06456607 0.004778985 0.073405705 0.02065649 -0.045456536 -0.0638637 -0.015980411 -0.06037059 0.061638795 -0.054368597 0.041604005 -0.04821384 -0.012352044 0.026212143 -0.025928069 0.05963932 0.043174054 0.044129476 0.08930013 0.065568976 -0.0085709 0.04338707 0.0057181 -0.08593919 -0.030768769 0.07120992 -0.043823257 0.014007363 -0.039306946 0.0077479254 -0.039531466 0.020399494 -0.036036544 -0.06826359 -0.07286593 -0.04689562 -0.0820587 0.025313532 0.01487994 -0.020037105 -0.04336765 -0.006504831 -0.07879512 0.038497966 0.04206219 -0.01730531 0.007099662 -0.013067104 -0.02660458 0.0767772 -0.017858868 -0.044212043 0.037468232 -0.017021485 0.038560025 0.051024448 -0.010113106 0.034681577 -0.059352905 -0.033405997 -0.029562736 0.086435616 0.024030572 -0.011453549 -0.059332665 -0.0412407 -0.01846784 0.037478823 0.075781696 0.045010574 -0.03855034 0.031306364 0.017074842 0.08391972 0.07259314 0.024328751 -0.041679636 -0.042839684 -0.0050441176 -0.031639148 -0.0033029935 0.009167211 0.05365781 -0.021730619 0.025854275 -0.05303494 0.037393928 -0.076337695 -0.029407514 -0.062290628 -0.036859136 -0.00020202092 0.031502075 0.07475195 0.07073898 0.08615933 0.076223016 -0.06869966 -0.012757509 -0.05039759 0.05947954 -0.0034989165 0.0052811257 -0.060186192 0.062018767 -0.022297958 0.05115824 -0.057467423 -0.07400122 -0.0005508688 0.022983026 0.035876192 0.039784323 0.03354803 -0.03940331 0.04055926 -0.021904489 -0.0729172 -0.05312087 -0.05108447 0.037109442 -0.073641665 -0.015187982 0.083400816 0.04310754 0.06579828 0.007474669 0.0606193 0.08651641 -0.08613365 -0.027206086 -0.05540084 0.050867897 0.024805687 0.03920196 0.032910883 -0.036399875 0.07990915 0.041540142 -0.03594492 0.001552382 -0.060663335 -0.005356934 -0.020220697 -0.011517992 -0.06820261 -0.020429876 -0.07632866 0.05233293 -0.08623912 -0.051665645 0.0054158974 -0.025054121 0.049011473 -0.074625894 -0.02445987 0.010233939 -0.037777226 0.052657306 0.0055171032 0.017302541 -0.056583866 -0.01641639 0.046714295 0.07963377 0.0617031 -0.06407251 -0.02945197 -0.06675082 -0.052798495 -0.04881736 -0.03269986 0.007717019 0.0037494812 -0.02821955 0.067938566 -0.08009452 0.06401083 -0.054412518 -0.039427318 -0.055688374 0.044553105 -0.08093109 -0.04624985 0.050426777 -0.055407733 -0.042301748 -0.058575932 -0.058486503 -0.0055260514 0.014185305 0.011355701 0.019611927 -0.076969735 0.0026793005 -0.06732856 0.08387799 0.05918034 -0.0035689902 -0.0052265 0.08608406 -0.025584213
ss_4.c -0.06868347 0.0736754 -0.046010304 -0.060305927 -0.057330374 -0.06544997 -0.0102825025 0.0027224827 0.04745193 -0.04818081 0.08646944 0.020412175 -0.020253401 0.06240016 -0.002181021 0.012776498 0.01507919 -0.0066764485 -0.0056679267 -0.014039283 0.023195062 -0.08880462 0.021669893 0.05051411 0.018159017 0.024308743 0.027026845 -0.02748942 -0.069079496 -0.018649912 0.015348835 0.06879306 0.07187493 -0.019040445 -0.059602793 -0.05768577 -0.006312191 -0.072528355 -0.06270726 0.078730896 -0.07380416 0.004904662 0.006879448 -0.070808336 -0.068257436 -0.05828341 0.08106346 -0.049060598 0.028905403 -0.011177928 -0.054987896 -0.07996265 0.03259657 0.08881369 0.08080614 -0.055212315 0.012885637 0.02544733 0.0888959 -0.05244438 0.027215092 0.05930329 -0.059217103 0.058214813 -0.056136105 0.06340188 0.041000325 -0.07897723 -0.076633245 -0.029056275 -0.010041858 -0.062277492 -0.07575708 -0.077770054 0.042258784 0.049895473 -0.035388056 -0.043501608 0.020339195 0.035372384 -0.08587924 0.057833385 -0.061442 -0.03582929 0.051081903 -0.022781983 -0.0043710745 -0.076448455 0.0035905307 -0.021422809 0.037986133 -0.054943305 0.07903907 0.0031741532 0.072628595 0.00495071 0.035464436 -0.025400463 0.040149037 0.07455606 0.035308532 -0.073808 -0.056506548 0.030871732 0.047065523 0.081764914 -0.024182202 -0.08007645 0.07740894 0.0113113485 -0.08558538 0.059606213 -0.050759614 0.03471266 -0.016132604 -0.0006883564 0.08900199 -0.0030568573 -0.06275979 -0.06184748 -0.085685335 -0.08044361 0.0377676 0.073501065 0.027197465 0.021504082 0.046656597 -0.050648477 -0.05639987 0.024885913 0.07800809 0.03037556 0.030488377 0.0663195 -0.09018099 -0.05022504 0.039176982 0.026641322 0.05704212 -0.014633889 0.08612488 0.06599321 0.052166827 0.03872099 -0.08986285 -0.025954274 0.04616684 0.085361704 -0.05560544 0.020641945 0.089197315 0.045828387 0.0021622884 0.005257985 -0.044573463 -0.043308336 0.014045663 -0.059108756 0.033219095 -0.066268936 -0.002935546 0.024121473 0.0064928317 0.038709052 0.013045439 0.08231923 -0.08324331 -0.038022894 -0.041577388 -0.085144356 -0.016469859 -0.031513568 0.0580379 -0.0367574 -0.04138634 0.045741823 -0.011987716 -0.08679987 0.027066195 0.081842825 -0.08119316 0.08579145 -0.009011656 0.061163038 0.038908307 0.08305939 0.012319002 0.08022964 0.00583523 -0.08143626 -0.007885019 -0.06750983 0.037321176 0.061566643 0.043109547 -0.051879004 0.008444715 -0.061920542 -0.034832444 -0.01643883 0.008991362 -0.066949904 -0.050063208 -0.015279299 0.02455987 -0.0825263 0.053355876 -0.03882176 0.05673594 0.051791534 0.070871666 -0.06199651 0.028423922 -0.08025861 0.08255342 -0.043706298 -0.06788699 -0.07196013 -0.060210027 0.0763201 -0.070346884 0.07735843 0.06940358 0.035790708 0.0029237352 -0.08418842 0.05135523 0.014697691 -0.039985746 -0.022641031 0.0098424405 -0.038802765 -0.020163713 -0.07701873 -0.06941869 0.007024065 -0.066843 -0.008927988 -0.048094828 -0.010456579 0.0304805 -0.073382534 0.04412531 0.06268553 0.0067872996 -0.019932155 0.044275682 0.042522017 0.001233289 0.06564177 0.02236526 0.03359863 -0.006554621 -0.058465607 0.012685296 0.049383007 -0.037012056 -0.06807183 0.012341606 -0.04199332 -0.06987359 -0.077435516 0.0059519005 -0.008584463 -0.04216305 -0.08590952 -0.044191394 -0.005896287 0.06836753 -0.0785171 0.012960007 -0.02799219 0.02699294 0.010359056 -0.0068880077 -0.03954044 0.005484946 0.08576909 -0.029729893 0.025058262 0.018315282 0.044295575 0.031390086 0.035482988 -0.08546931 -0.084867105 -0.012041845 -0.06165713 -0.06312165 -0.033251036 -0.050038405 -0.058140777 0.06737244 0.010107386 0.00636978 -0.011372844 0.024024442 -0.04021688 0.06903223 0.020073771 0.045737572 -0.02360956 -0.04843276 0.0030542945 0.013490037 0.0029843377 0.052584063 -0.049705222 0.01574652 -0.06554372 -0.016153188 -0.08533262 -0.08617697 0.034719054 0.06457686 -0.046667024 -0.07912403 -0.056067426 0.06570767 0.03522797 0.03492634 0.053324874 0.08151185 0.064228274 0.015921652 -0.014348105 -0.062032893 0.08770027 -0.06154596 -0.079756044 -0.083456226 -0.08273998 -0.031643454 -0.06567845 -0.051309563 0.021067113 -0.047896672 0.08445218 -0.008877592 -0.07431769 -0.0713994 -0.06426344 0.07934431 0.07030381 0.07595185 -0.07113034 -0.07289168 -0.035051126 -0.046902984 0.041671705 -0.03551954 0.0745436 -0.040826228 0.07035006 -0.086160436 0.03290639 0.058313902 0.06205074 0.0063682566 -0.0634708 -0.025442729 0.031533614 0.06254564 -0.02025618 -0.056324434 0.083760075 -0.07048202 -0.030952912 0.072100766 0.063675694 -0.007403506 -0.07099394 -0.01835157 -0.06666818 -0.076542035 0.039642043 0.03954074 -0.077451564 -0.042070534 0.032662313 -0.0284347 0.07515925 -0.03802239 0.05595462
ss_7.c -0.004214348 -0.03567786 -0.009545332 -0.015153298 0.074251786 0.0057728826 -0.077993706 -0.00047472946 0.004397094 -0.0062826276 -0.054299522 0.05479395 -0.022399012 -0.0744348 -0.028925335 -0.038245253 0.048595455 -0.011198728 0.06873832 0.06264174 0.06858427 -0.053886764 -0.01469969 -0.010249822 0.022520732 0.070361055 -0.077993035 0.049485803 -0.07541854 -0.06718772 -0.07217121 -0.06007716 -0.03323946 -0.06370693 -0.083654985 -0.0051490106 0.020059453 0.050857123 0.05583415 -0.020465933 0.01908177 0.07820213 -0.04903692 -0.0751439 -0.021553196 0.042673524 0.052214593 -0.059815172 -0.041539397 -0.014590192 0.052245345 0.020003611 0.008072774 0.076164424 0.057801697 0.018110482 -0.045621067 0.031271193 -0.06353381 -0.07006836 -0.08010839 -0.04487531 0.05976177 -0.025863674 -0.06879953 -0.07724211 -0.05198644 0.007991416 0.029420612 -0.08543615 0.075383075 -0.052462883 -0.06207599 0.07548552 -0.0065245237 -0.038112823 -0.05894192 0.07690928 -0.049259756 -0.03339912 -0.012270827 0.055754572 -0.071323425 -1.9933737e-05 -0.054692145 0.058477677 0.02865548 -0.061847962 -0.07744257 -0.01870313 -0.06869391 -0.053056587 -0.010329468 -0.036203135 -0.056204483 -0.011523908 0.08234229 -0.06407126 0.0171442 0.06134911 -0.010722674 -0.07199147 -0.043845963 0.059383243 -0.0034947176 4.0967716e-05 -0.052402567 0.03577274 0.025295598 -0.047882978 -0.051711746 0.006360408 -0.08486002 -0.057672102 0.024924088 0.017218892 0.04541129 0.07472371 0.027143478 -0.026307015 0.06156903 -0.055818096 -0.08271237 -0.06735035 -0.001366216 0.07035662 0.07392838 -0.0068222773 -0.08589068 -0.06884876 0.021222211 0.069641955 0.07705927 -0.058492236 -0.032832388 -0.060841158 0.024213655 -0.049628545 0.04332594 0.072765924 0.0005590776 0.080378175 -0.044173162 0.012758958 0.013786191 0.0033218616 0.0045029083 -0.0046558287 -0.009877795 -0.0804455 0.058538932 0.01500484 -0.010418791 -0.040667053 -0.022683814 0.02915617 0.08257689 0.024819674 -0.08060553 -0.058484677 0.02525835 -0.07823379 -0.08122719 0.0657532 0.085525244 -0.048990943 -0.07674206 -0.08716382 -0.028636599 -0.066046886 -0.05654011 -0.022628292 -0.0685432 0.065252334 0.061610434 -0.065658264 0.03247586 0.04843497 0.03305711 -0.06317242 -0.07928688 0.034839716 -0.038132314 0.023680711 0.00986479 0.044152103 -0.0786345 -0.046797868 0.06471641 0.058973935 -0.023755519 0.03364494 -0.050891466 0.049512412 0.055383425 -0.032161307 -0.018249126 0.0006512432 -0.08551518 0.06127687 0.007740161 -0.041062243 0.057043158 -0.06730149 -0.025358167 0.046419602 -0.08469795 0.0023303078 0.016048523 0.055226177 -0.028661532 -0.040829238 -0.04360136 -0.047704067 0.013008353 0.06773893 -0.05280877 -0.07901866 -0.017094389 -0.057308163 -0.013642969 0.003549813 -0.022413015 0.04896736 0.024777887 -0.027741464 -0.0017938477 -0.07123264 -0.036743596 -0.083757885 -0.089047834 0.047205545 0.03362336 -0.052310023 0.068381995 0.07030549 0.0656307 0.082350165 0.008590302 0.08469366 -0.07824842 -0.024054224 0.08251795 0.037811846 0.08317713 -0.024895076 0.0018634344 -0.035603527 -0.012197004 0.07042604 -0.019009497 2.5093206e-05 -0.014381385 -0.03919478 -0.052871794 -0.07688111 -0.03449133 -0.064696096 0.0024705806 0.07182775 -0.08294179 0.05486601 0.01715313 0.019915007 -0.026893968 0.020658465 0.052988753 -0.07901693 -0.044868514 0.07908938 0.00026250444 0.020149732 -0.06736124 -0.041606937 -0.067085326 -0.0155619215 0.013466402 -0.047062494 -0.05788488 0.05664207 0.006012012 -0.059000365 0.00969027 0.040901482 -0.08280526 0.08330028 -0.0033026515 -0.06865728 0.03722694 -0.029522449 0.018113345 -0.0013756005 0.05594435 0.06596923 0.015532766 -0.01757452 0.02801627 0.024707487 -0.036160395 0.055828117 0.038227946 0.024742218 0.0852198 -0.0623166 0.08490768 0.046609957 -0.05137911 0.048899747 -0.027301699 -0.048260763 0.08010458 -0.05590459 0.008421279 -0.048029404 -0.038425375 0.011335738 -0.07926608 0.043058008 -0.08736965 -0.010174633 -0.02956017 -0.017101476 0.07753336 -0.0027411443 0.01908479 0.012772864 -0.02342347 0.020310253 0.060822684 -0.043225314 0.009567093 0.034488607 -0.03415626 -0.044195756 -0.03567974 -0.027044816 -0.0011815019 0.06501244 0.030238349 0.06223013 -0.07495159 -0.0020347529 -0.007861178 -0.04414965 -0.048348613 0.024854716 0.05432048 -0.053438783 -0.060488053 0.0710087 0.0726694 -0.03662359 0.06606641 0.00412534 -0.08840855 -0.08601634 0.0051707076 -0.043152418 0.01771842 -0.0615154 0.08063175 -0.035213593 0.045262177 -0.039947774 -0.085452534 0.0047999383 -0.049942743 0.024919676 0.08262854 -0.02678356 -0.0475767 -0.07308354 0.030028073 0.060222883 0.08403559 -0.06965522 -0.042508215 -0.05844709 0.005274909 -0.08236451 -0.018694956 0.005701039 -0.065977216 -0.039434012
bs_1.c -0.069653384 -0.029419413 -0.083823584 0.07137515 -0.07520452 0.060386647 0.026522022 0.08327806 0.045607034 -0.070288494 0.033049434 0.06419191 -0.05563637 -0.028630123 -0.052707642 -0.06230923 0.09017835 -0.03021928 0.084520616 -0.0036451863 -0.034494862 -0.03418907 -0.085114926 0.031007454 -0.03647756 0.073883615 -0.082267426 -0.08487869 -0.01289245 -0.042589393 0.02619893 -0.0840103 0.018958353 -0.009215252 -0.047895934 0.011558642 -0.03140776 0.06396251 -0.08413627 0.050447036 -0.015931694 -0.0672387 -0.044792727 -0.0025347914 0.007950544 -0.06589584 -0.053384863 0.08775075 -0.016007895 0.0018332689 -0.070644505 0.08223182 -0.0019538582 0.0040276353 -0.059938904 0.08694157 0.059144326 -0.036414992 -0.0073858555 0.045700748 -0.068358175 -0.016964426 -0.031566367 -0.070645556 -0.059162408 0.021548735 -0.07625604 0.0011461509 0.06607734 -0.05807469 -0.005161006 -0.07264369 -0.03635432 0.06906278 -0.017121192 -0.06960556 0.009883164 -0.01820135 0.062206805 0.06803061 -0.08400666 0.009115932 0.030227128 0.07766676 -0.06749947 -0.075805 -0.018790273 -0.051107753 -0.033565264 -0.025788553 0.008739016 -0.01511409 -0.0026989377 0.035421807 0.008605346 -0.0045553665 0.023806829 -0.046904277 -0.031120399 0.052730706 -0.018227318 -0.04032204 0.070263155 0.02778166 -0.034773223 -0.06579048 0.009037812 -0.040078387 -0.07009542 -0.046543896 -0.030437898 0.05324349 -0.04956977 0.044222143 -0.03903917 -0.08771969 -0.029840285 -0.06868034 -0.059536833 0.03274742 0.06826402 -0.06541441 -0.0021844404 -0.023311712 -0.053189166 0.057152264 0.05483811 -0.06142677 0.029733028 0.043883707 0.029050302 -0.03487331 0.03127174 -0.035032254 0.0049991505 -0.053051077 -0.050644252 -0.07500127 -0.045548227 -0.087344214 0.02641525 -0.056286026 0.057083968 0.06838148 -0.07165118 0.08361974 0.04040659 -0.08238362 -0.06290882 0.083934285 0.0696107 -0.005611599 -0.05713216 0.021356855 -0.034354325 0.016686665 0.023411533 0.01623104 0.020225255 -0.012590323 -0.06299874 -0.068917334 0.062498722 -0.07061155 -0.025754347 -0.07302323 0.007175022 -0.04036481 0.009953309 0.07949655 -0.04309506 -0.0009505037 -0.06702317 -0.008264104 -0.08434977 0.084697545 -0.043613736 -0.014498065 0.036470704 0.054083526 -0.084718995 0.061059937 -0.07305345 -0.051823694 0.05289676 0.05506862 -0.025118617 -0.017082987 0.04822766 0.01704827 0.018328158 -0.044983722 0.035708524 0.06300876 0.08230916 0.07681839 0.050816573 0.07716629 0.054857828 -0.07777313 0.014392368 -0.034516223 -0.045362532 0.056679145 0.032102156 0.0392954 -0.027791984 -0.050960835 -0.039048813 0.004909798 -0.08032525 -0.07836891 -0.0025476294 -0.028442718 -0.06583237 -0.07843602 -0.075555906 -0.024579128 0.08646064 0.015547895 0.05015615 0.049416 0.010854007 -0.021290667 -0.025706269 -0.057592466 -0.012033524 0.027041959 0.043089848 -0.051834304 -0.017366039 0.06383292 0.033677373 -0.07075427 0.078158215 0.0012269403 -0.011130084 -0.02097316 -0.023729125 -0.015933407 -0.039785475 0.040198304 0.04298109 -0.077162094 0.014263631 -0.07547719 -0.022808688 -0.086003534 0.07709764 0.076960675 -0.032550562 0.03112708 0.0088964235 -0.06752255 0.057742067 0.035916552 -0.021491373 0.029325554 0.07929461 0.055219322 0.07013409 0.00040577434 -0.013829323 0.055813316 -0.06328293 0.08223901 -0.0153857665 -0.037333682 0.03244578 -0.001520385 -0.019025553 0.00523414 -0.05703079 -0.042181768 -0.08270562 0.033021137 -0.050176486 -0.06259845 0.053111654 0.040410984 -0.018632501 0.03137453 0.07095366 0.020069154 -0.058016915 -0.0379289 -0.017066257 0.0062430752 -0.04829505 -0.03813249 0.08582088 -0.0033410133 0.010793155 0.026450869 0.058743738 0.039872423 -0.07798992 -0.057281636 0.00016115245 -0.041309103 -0.04778042 -0.009875017 0.013722908 -0.04799604 0.010739472 0.028716698 0.07722575 -0.0659004 -0.08109113 0.08570142 -0.046078544 -0.031272613 -0.04931352 0.05733231 -0.006562178 0.0022349686 0.052788615 0.0384629 0.019225895 -0.07470809 0.04684075 -0.06694284 -0.073592804 0.06587374 0.014204258 -0.059643842 -0.07354739 -0.023371974 -0.017837599 -0.044558935 0.07421802 -0.041016586 0.07249125 0.08847042 -0.08092161 -0.05310776 -0.06548732 -0.0731889 0.05938697 0.062130067 -0.063173555 0.02989958 0.077642985 -0.08516936 0.03510845 0.08248323 -0.0064214547 -0.043213602 0.034435466 0.040466536 -0.08521826 0.047593668 0.0108788945 0.076370575 0.08030796 -0.07379563 0.01552762 0.058265675 0.043706577 -0.030260617 0.01034181 0.0744443 0.012191206 -0.024133665 0.03352258 0.042982165 0.06101012 0.018359529 0.03578368 0.052268103 0.0025986214 -0.03165029 0.032167923 0.046683323 0.08025246 -0.033647608 -0.0019489813 -0.021356959 0.042902123 -0.0032755358 0.08563049 0.03250445 0.003936168 0.039204504
ss_2.c 0.010928884 -0.051128767 0.027798949 0.02686419 0.05830882 0.027738914 -0.011762455 -0.040738005 0.021510182 0.07133295 -0.02182778 -0.044765495 -0.081232265 -0.018076507 0.010482463 0.04196408 0.037717093 -0.019830419 -0.0415344 -0.0019071621 -0.031854484 0.013087921 -0.077064045 -0.070644006 -0.04979744 -0.041442707 -0.0009943537 0.017187057 -0.06237236 -0.005155838 -0.081966504 -0.020818627 0.060837 -0.0394269 0.01878939 -0.01072983 -0.013174545 0.0436708 0.08208427 0.07480482 0.008704732 -0.08074413 -0.020127093 0.07823785 0.029662106 -0.005972103 -0.024129495 0.054333 -0.0047440194 0.019165574 0.06397825 -0.04877486 0.08807032 0.020105194 0.046491038 -0.05632848 -0.019826517 0.0830137 0.05670995 -0.0018842074 0.086689316 0.02331953 -0.05256137 -0.05571505 -0.021138722 -0.03808439 -0.04361805 -0.05301536 -0.08501267 -0.032385252 0.025501497 -0.023106372 -0.05967185 0.007060234 0.07175227 0.084274344 -0.01593499 -0.024235439 -0.044526257 0.0707763 -0.06690742 -0.05979439 -0.06840128 0.007774659 -0.067731425 -0.030038418 -0.055758655 0.019777486 0.07780261 0.033058114 -0.012041893 -0.031890437 0.049803413 -0.06482007 0.077389166 0.07820095 -0.017214973 0.032582074 -0.06544071 0.047155123 -0.0055540055 0.06748263 0.020459153 0.05718216 -0.0015580123 0.02486659 -0.061404962 0.044595193 -0.012642076 -0.025021175 0.047899377 -0.08265012 -0.07390731 -0.07655304 -0.034062408 0.03345543 -0.079145074 0.054705672 -0.033840925 -0.02052649 0.032626633 -0.04735065 0.010980274 -0.070403114 0.05172525 -0.037264556 0.01719703 0.08685533 -0.04876631 -0.010592152 0.08604386 0.05418887 0.0727217 -0.02357097 -0.061541222 0.013792901 -0.088534825 -0.03080113 -0.08300242 0.048204377 -0.028506009 0.07841265 -0.050930146 0.06055923 -0.063084714 0.040635504 -0.07901189 -0.053603306 -0.03660272 -0.018115269 -0.08493738 -0.070597336 0.04112561 -0.066204004 0.003773753 -0.07854024 0.076410264 -0.020728007 -0.043370556 0.051509 -0.0036900523 -0.046151634 0.03634416 -0.05908774 -0.0059665493 0.08220991 -0.047040693 -0.027653573 0.050686006 -0.05619218 0.055482484 -0.06281335 0.019406334 -0.0114569375 -0.07499514 0.08584818 0.035109263 0.001898271 0.08788881 -0.06251324 0.05846335 -0.062148403 -0.061777573 0.08586153 0.061617788 0.0706821 -0.013036074 -0.017154925 -0.06698118 -0.049838167 -0.083223335 0.050230607 -0.014146643 0.076104455 -0.037173256 -0.056052674 0.08963544 0.00671583 -0.03966356 -0.038420483 0.006340918 -0.037239168 0.03605932 0.012790516 0.05821463 -0.08519708 0.08678905 0.07086286 0.004362504 0.0038991654 0.058607418 -0.08080751 -0.06902001 -0.0080965245 -0.0071127876 -0.06739899 0.05438766 -0.046957858 -0.014471587 0.03464528 0.047435403 0.023329856 0.086816564 0.031873416 -0.067358024 -0.060048223 -0.08413383 0.038038664 -0.056478817 0.068738274 0.041046012 -0.08564963 -0.052324835 -0.083560206 0.073207796 0.005416552 0.07013004 -0.03818875 0.042236086 -0.07428741 0.07250225 0.0077868644 0.013092636 0.046472833 -0.08641354 -0.005745151 -0.04731614 0.06754223 -0.03992001 -0.07011015 -0.057918716 0.08027449 -0.08930604 -0.08427684 0.030909704 -0.048875302 0.07190574 0.03129809 -0.015617686 -0.051205166 0.00043019268 0.032965865 0.08153366 0.025081426 -0.050993174 -0.060867712 0.03260237 -0.083846316 0.028481498 -0.035454407 -0.054569848 0.009491268 0.008645882 0.0632777 -0.08325755 -0.036698546 0.028032279 0.071312085 0.06882237 -0.04164646 -0.03497822 0.014497537 -0.017171351 -0.06754153 0.07188398 0.027663548 0.07980256 0.01705688 -0.070024304 0.029503003 0.032641936 -0.051305104 0.012940417 0.004795948 0.0529256 0.08702715 0.044110384 -0.057193685 0.03923482 -0.023908958 0.046254274 -0.07989003 0.07105906 -0.04105367 -0.053640578 -0.017552216 -0.07773877 -0.042044196 -0.008346357 0.019432107 0.053696923 0.05882821 -0.023115275 -0.007958593 -0.04006936 -0.06553843 0.08020384 0.070603155 0.059827242 -0.02372298 0.0880752 -0.018060332 -0.013596383 -0.084057 -0.0438197 -0.05497212 0.07695181 -0.076849185 -0.054209735 0.053429786 0.06897776 -0.06689234 -0.06082283 0.07707455 -0.00071223074 0.07199102 -0.0810178 -0.027973615 0.024565935 -0.044889342 0.005230341 -0.028494319 -0.0034740923 0.088426605 0.052826863 -0.06037681 -0.047383714 -0.003165977 -0.02802349 0.078475624 -0.07013962 0.061059766 0.022917204 -0.062479924 -0.024246186 -0.069018885 -0.06429986 0.054035235 0.015319874 -0.07370763 0.023137009 0.07980354 -0.09038326 0.0848206 -0.014872061 -0.057024628 0.070526466 -0.023512827 -0.012236259 0.00068963796 0.061561733 0.014906056 -0.024541378 0.076143034 -0.07458972 0.07663213 0.03592421 0.019306058 -0.06333969 0.04775208 0.050974686 0.014962785 -0.074661404 0.006286435
