16 384
<PAD_OR_OOV> -0.0048219967 -0.027711913 -0.031765092 -0.01028689 -0.05772727 -0.027258366 -0.023602577 -0.046766523 -0.026938105 0.038302794 0.0051527643 -0.049130253 0.05475767 0.050562155 -0.06677846 -0.086743735 0.0682318 -0.007046855 0.012095487 0.022792695 -0.08118935 0.057146132 -0.01643877 -0.037154153 0.02472196 -0.007472371 0.015039591 -0.024350533 -0.051894568 0.08752756 -0.073810086 -0.07573891 0.07628051 -0.047791004 0.023605255 0.057505894 0.049753755 0.070614986 0.0153050525 -0.048742305 -0.07101155 -0.07696786 0.059780363 -0.044946384 -0.059814617 -0.041119304 -0.041382622 -0.0444897 0.05849735 0.011494281 -0.02340257 0.010328932 0.032963045 0.06866806 0.06490536 0.05164298 0.066577606 0.0320174 0.011821713 0.0107462425 -0.054942057 0.021268837 -0.08585491 0.08110692 -0.03290728 -0.080317035 0.07997256 -0.049643844 -0.09028137 -0.0010279391 -0.03485746 0.028227322 -0.073241435 -0.022472955 0.03065048 0.07659888 0.04770607 -0.044581488 -0.07027053 -0.07767782 -0.015428028 0.088466264 0.04665985 0.003402314 -0.07440453 -0.06952367 0.07357381 -0.053084128 0.046165943 -0.08274415 0.01759086 -0.07324949 0.03586574 0.022890698 -0.0037451973 -0.062150564 -0.07293488 0.026632173 0.02734999 0.039282814 0.064494655 -0.05640263 0.06747111 0.08616687 0.06322422 -0.06359992 0.036321897 0.047374398 -0.026372053 -0.011595087 -0.019205125 0.05778992 -0.048449766 0.0030519436 0.0026686005 0.0029800367 -0.00092965097 0.043748245 -0.021509457 -0.06860358 -0.061093085 -0.0091633955 -0.05018096 -0.07492302 0.06849623 -0.045497835 -0.024240393 0.041324053 0.06702191 0.025924042 0.036200464 0.09016514 0.013057673 0.010917219 -0.0033818553 0.04502049 -0.0063642454 -0.054831408 -0.06632593 0.08615765 0.057658706 -0.045706622 -0.005464441 0.08419842 -0.071846455 -0.03347927 0.03665914 0.029980954 -0.06569353 -0.060933717 0.08759509 0.018450428 -0.029544368 0.016786229 0.0272593 -0.03344785 0.032257494 -0.06034226 -0.010081962 -0.033799484 -0.051529348 -0.0453014 -0.02498132 -0.03793953 -0.08127111 -0.063233025 -0.07257531 0.08461008 0.009229517 -0.07296087 0.029956453 0.06719651 0.04495371 0.08210911 -0.07304014 0.06025338 0.06404161 -0.042147543 -0.058121823 -0.07467476 0.045074563 0.06531985 -0.08375429 6.6897366e-05 -0.07055322 0.03900167 -0.044811126 -0.0062888945 -0.083947174 -0.0041853646 -0.03866717 0.010425633 -0.07916186 0.04947135 -0.03884083 -0.07458029 -0.08425279 0.076534264 -0.031231549 -0.05686564 -0.006182867 0.02867356 -0.008157288 0.03833297 0.002030723 -0.04606733 -0.07908082 0.039704785 0.089050524 0.024220174 -0.08753615 -0.03821665 -0.045871537 -0.014214688 -0.08297351 -0.052135237 0.07910569 0.08387186 -0.00062468403 0.08229667 0.004519541 -0.0001370809 0.037306804 0.023136754 -0.010125916 -0.072622135 0.06726769 -0.03902427 -0.059771404 0.015182495 -0.062390074 -0.07596877 0.057605345 -0.035188563 0.031173361 0.075322375 0.07576071 -0.024425786 -0.032152303 -0.052745864 -0.070860244 -0.07176439 -0.020136626 0.063000016 0.065717064 -0.068138264 -0.077151686 0.046416402 0.05388199 -0.03616228 -0.051079433 -0.009147322 0.021054933 0.081762716 0.0072998125 -0.030645471 0.046772666 -0.06096375 0.03989844 -0.060252506 0.029351342 -0.08216178 -0.0054644127 -0.021528607 0.02073774 0.03746156 0.06642279 -0.01651408 0.08395374 -0.07155644 0.07354775 -0.0047979513 0.057175297 0.0062441733 -0.06906673 -0.0387287 0.043880895 -0.008676389 -0.083293475 -0.0248717 0.02634278 -0.053033683 -0.06299016 0.0008032482 -0.06211335 0.009943086 0.034955032 0.07682164 -0.014324548 -0.037778497 0.062456172 -0.06955611 -0.03312132 -0.0060953023 0.08925255 0.08527308 -0.016979102 0.033443388 -0.055210955 0.04659471 -0.07655472 0.055058297 -0.033898067 0.051097147 -0.060534384 0.048664786 -0.0046959096 0.049491093 0.089695014 -0.077006005 0.025302127 0.009203246 0.06839986 0.049732152 0.08184711 0.023199562 -0.046640385 -0.059525963 0.03440352 -0.007838894 -0.043020785 0.06212783 -0.020069063 0.08448064 0.044893596 -0.08194447 -0.011958111 0.05508763 -0.07144619 -0.013966441 0.05328778 -0.013793736 -0.07867921 -0.053236596 0.038169414 -0.06832437 -0.0024924013 -0.024514131 -0.006052757 -0.0114096645 0.023325708 0.05379781 0.06105824 0.07304277 0.021934351 0.072262615 -0.08120684 -0.07556941 -0.0021165006 0.024150709 -0.07317633 0.0047273864 -0.049924396 0.07620836 0.017122183 0.045263216 0.08479808 0.0035384651 -0.045087826 0.07731173 0.05110936 -0.052048303 0.04256959 -0.05782345 -0.0613569 -0.030396007 -0.04195415 -0.058982316 -0.046217985 -0.07188964 -0.08361888 0.08455088 0.019345691 0.041195706 0.06395743 0.038603067 0.04274984 -0.009196832 -0.01779794 -0.05499647 -0.030273091 0.0234311 -0.04815097 -0.085351124
get|int 0.08735332 -0.035400555 0.04639768 -0.002750712 0.036368556 -0.038214605 -0.031314567 0.049445298 -0.053838424 -0.03898267 0.07226253 0.044316802 -0.042181708 0.056928474 0.0406282 -0.031926624 -0.025018968 0.05051921 -0.056890488 -0.062313925 0.07851498 -0.050643038 0.079984896 -0.023259792 -0.07471932 -0.05167469 0.026951209 0.007510029 -0.010408386 -0.049926206 0.04029341 0.07662361 -0.049477484 0.048235398 0.05029844 0.0562674 0.038004864 0.015489636 -0.006459241 0.027161732 -0.013870296 -0.07767174 0.029557362 0.024977623 -0.053628385 0.0053263875 0.046675436 0.08194835 -0.015066699 -0.06933362 -0.038992718 0.0053476696 -0.04093468 -0.03667624 -0.041837946 -0.07381663 -0.079210095 -0.05005152 0.048595607 -0.034331486 -0.03174345 -0.006488007 0.019277971 0.073534824 0.004525358 -0.071919 0.035233874 -0.050163213 -0.07283253 0.027603557 0.0024498857 0.030912563 0.036446713 -0.04227844 0.08960448 -0.0135028325 0.038169213 -0.02588977 0.035080943 -0.02250191 0.06427434 0.074298866 0.015119031 -0.035917245 -0.07406055 -0.025043307 -0.08881123 0.02456944 0.045677703 -0.030887663 -0.051205773 0.034292914 -0.01893286 -0.08320316 0.07214979 -0.0651409 -0.018105786 -0.06698435 -0.075560205 -0.08407954 0.07152539 0.016390817 -0.047051802 -0.0060530854 -0.025297465 -0.06818543 -0.07526447 0.0015027862 -0.031684197 -0.08501838 -0.07242525 0.058791675 0.08575564 -0.076731816 0.08026822 0.057697702 0.02509221 -0.07886823 -0.08542461 0.053696286 0.023858592 -0.051248144 -0.0046553747 -0.02659534 -0.055949364 -0.04655906 0.08808427 0.08527407 0.05499032 0.0010854568 0.03941439 0.06815879 -0.04085494 -0.007748243 -0.0677481 -0.013914196 0.014816147 -0.013696759 -0.08384985 0.028571766 -0.027099142 0.0095115565 -0.02842318 -0.07793645 0.0028352623 -0.024004452 0.058854606 0.04928494 0.04683799 -0.0784604 0.032287244 0.055700477 -0.06634275 -0.0016567694 -0.01028375 -0.020428617 -0.031847 0.088986576 0.07916685 0.022508504 -0.042766437 -0.055264853 0.08943001 0.08698935 0.05354836 -0.07196362 0.079626545 0.02432506 -0.05684189 -0.05385067 -0.048435777 0.08393809 -0.00063198805 -0.040354293 0.06698109 0.023336502 -0.069954075 -0.020234682 0.0851249 -0.033901244 -0.07703178 -0.06913815 -0.04107318 0.058992475 -0.021877706 0.06989989 0.031001883 0.07466962 0.088850535 -0.0609019 -0.075993575 0.050263382 0.07229142 -0.043489914 0.05125698 0.01564263 -0.016389254 -0.087298594 0.023971561 -0.058644447 -0.060853373 -0.082347706 0.02455452 -0.019605815 -0.059367355 -0.047965948 -0.040680017 0.06961041 -0.08352687 -0.016892854 -0.025982024 -0.0528364 -0.0671197 0.020613037 -0.05146771 0.053897236 -0.06595372 -0.07893625 -0.051925886 -0.022038879 0.054413445 0.05658114 0.029191475 0.07596254 -0.007515793 0.06554764 0.055505123 0.009437725 -0.06671531 0.02888996 0.052112497 0.026435351 0.024043959 0.05882819 0.05868313 -0.016121447 0.008489724 -0.0073212385 0.08883062 -0.025140177 0.07246661 0.043009896 0.0014224892 0.04492549 0.0015125055 -0.029299967 -0.012920001 -0.020826386 0.0026021465 -0.011208442 -0.01485819 -0.08986939 -0.024286736 0.08437993 0.0062679555 -0.017756596 0.004830472 -0.011624704 0.033710804 -0.026249008 0.07324581 -0.0330294 -0.048650526 -0.03355237 0.055512276 -0.015698228 0.03418617 0.0056406083 -0.0049965484 -0.019007681 0.0059729153 -0.047143776 -0.019402307 0.07583687 0.064337954 -0.08893394 0.006284407 0.02720989 0.00056538393 0.025502142 0.022813594 0.06904276 -0.027244901 0.019513004 -0.0545386 0.016141852 -0.030076642 -0.020051815 0.042210434 0.05894342 0.0836782 -0.032373194 -0.008402192 0.07190784 -0.021835119 -0.06822073 0.060411774 0.024958149 0.006378149 -0.047001626 0.032764282 -0.08749013 0.052775312 -0.07804631 -0.026409635 0.004474775 -0.054721657 -0.058482338 -0.020345539 -0.033500005 0.066510364 -0.016137034 -0.01708922 -0.007950238 -0.049303077 0.06083473 0.050845593 0.08170835 0.06918869 -0.082082815 0.08816164 0.04948852 -0.050867476 0.07269159 0.027393034 -0.03732205 0.002973771 -0.031214785 -0.0020979587 0.008553074 0.0004050691 0.04445094 0.023121081 -0.022202142 0.008842237 0.037933327 -0.00500847 0.038527694 -0.0548941 -0.08654137 -0.06059533 0.055174403 -0.025491564 -0.036242392 -0.05696685 -0.07187081 -0.007860774 -0.08158973 0.07904082 -0.06598517 0.065626934 -0.06387857 0.08964863 0.015525923 0.012535406 0.0065431204 -0.03954996 -0.064549394 0.015695445 -0.042598173 0.0027473453 0.05210555 -0.052320987 0.07699353 0.048771683 -0.055531166 0.08249872 -0.0034192537 -0.08492057 0.03178004 0.02089855 0.044092048 0.020689838 0.050659046 -0.07164735 -3.5792356e-05 -0.031331573 0.081587866 -0.01763954 -0.038299244 0.06479028 0.012591937 -0.05420269 -0.021285463
get|unsigned -0.0017535625 -0.059041128 0.07981067 -0.022871027 0.0006079277 0.035526898 0.062197253 -0.061119493 -0.04290563 0.08305757 0.06965459 0.07896827 -0.008818063 0.023596196 -0.086950436 -0.0451892 -0.0041223327 0.050293945 0.0226732 0.07657834 0.0765054 0.07167884 -0.013013768 -0.052472 0.021315765 0.07458563 0.08746451 0.030353952 0.011095635 0.028664447 0.07998343 0.058337796 0.064934045 0.018607013 -0.085307434 -0.022938764 -0.05884409 -0.02804367 0.0047958377 0.04600993 -0.012204187 -0.056701716 -0.013098974 -0.08607511 0.06956473 0.026341999 -0.02016947 -0.004556056 0.018284163 -0.010335032 -0.03708767 -0.066260636 0.026965829 -0.077634566 0.047542363 0.029609695 0.0033029057 0.033198718 -0.07566049 0.026322082 0.05292296 -0.008134327 -0.07099828 -0.0015547877 0.06392663 0.04059189 0.082588166 -0.033804014 0.035011455 -0.03207442 0.019436648 0.052100364 0.01866328 -0.030081935 0.0030766088 0.035900638 -0.04535681 0.051264524 0.08654157 0.07822777 -0.074526206 0.05897203 0.072978474 0.06441252 -0.07546591 0.0823751 -0.07160446 -0.016309671 -0.04773497 0.07259977 -0.01593548 0.016126024 0.07155962 -0.07311104 -0.047198273 0.04163822 -0.0038193404 0.03984972 -0.089294136 0.053051375 -0.019694237 -0.07170213 0.014901984 -0.08241394 -0.026161764 -0.041389205 0.054304358 -0.053426724 -0.05086511 -0.03575612 -0.08179294 0.015855333 -0.037665784 -0.028063133 -0.010179706 -0.03288186 0.007963052 0.018420942 -0.012409374 0.04339299 0.059068996 0.011204662 0.06302059 0.044530854 -0.079216324 -0.055301085 0.027761448 -0.054758523 -0.025727483 0.014520935 -0.06823527 -0.049459543 -0.08053132 0.03570972 -0.030168505 0.06642698 0.048485458 -0.051494986 0.0038945065 -0.077327676 -0.08475367 0.037847146 0.0809051 0.06680143 0.033019595 -0.0078060674 -0.007867814 0.076428466 0.050661728 0.066948086 0.0391091 -0.082408875 0.026103804 -0.059850164 0.0063441657 0.083882965 -0.059125684 -0.059848476 -0.053483143 -0.0326938 -0.016337438 -0.011832729 -0.049957503 0.084822685 -0.0016403671 -0.013115381 0.08488833 0.013844247 -0.052243873 0.020001398 -0.017634632 0.03531969 -0.025277542 0.04191133 0.05370599 -0.054678693 -0.08029153 -0.087591745 -0.06768558 0.081217505 -0.0068611247 0.009172854 -0.013822903 0.007849522 0.023728844 0.08139124 0.031902816 -0.04996586 -0.048421536 0.0408576 0.040647358 -0.032434613 -0.06611836 -0.025215816 -0.0020884178 -0.08833794 0.08222635 0.05235598 0.016608318 0.06639251 -0.07871106 -0.021888327 -0.073358856 -0.053426567 0.036543217 -0.07101359 0.06393682 -0.0602592 0.0741952 -0.06057915 0.005817853 0.08306069 0.040809564 -0.022903085 -0.033756975 0.029045267 -0.065354705 0.06543594 0.044222534 0.009811765 0.028827453 0.080116205 0.006478269 -0.08545598 0.090111926 -0.006209274 -0.02923018 0.054796536 0.058907527 0.025806412 -0.042695332 -0.042297672 -0.04292664 0.08214191 0.024326866 -0.021639595 0.022696953 -0.044084236 -0.041252133 -0.0563948 0.071146786 -0.023464495 -0.062362954 -0.046980325 0.03488221 -0.042409733 0.013478134 -0.065044485 -0.018137958 -0.027940242 0.013969936 -0.038153596 0.0121461395 -0.062493853 -0.056667827 -0.016227894 0.07709114 0.003910436 0.00035932357 0.083784014 -0.04351035 -0.06776712 0.046431575 0.019565817 -0.08768223 0.00015763287 -0.05960466 -0.025124988 -0.02971629 -0.020763934 -0.01503306 -0.05777297 0.038802482 -0.07317028 0.08183128 -0.084106825 0.07418015 -0.054561958 0.045950193 -0.08358454 0.0432844 0.042818855 -0.05597397 -0.058512542 -0.03460118 -0.03801211 0.021942189 0.0077325846 0.015942497 -0.01149409 0.044986367 0.026055152 0.0047010267 0.0372635 -0.050651763 -0.07383439 -0.00019280927 -0.039175693 0.04793916 0.03554272 0.024923317 -0.021062268 0.07150633 0.053651042 -0.053513616 -0.08158495 -0.0667872 -0.0392003 0.070872895 -0.023333335 -0.05826384 -0.05365674 -0.01573023 0.086577386 0.013105014 -0.021944962 0.06906063 -0.029951515 -0.07287089 0.010172025 0.02786962 -0.08432381 0.0723259 0.005707326 -0.07991219 0.008205367 -0.071213454 0.079889394 0.045314208 -0.082369864 0.034674305 -0.0029929015 -0.086865865 0.065908946 0.084866874 0.043864433 0.048790656 -0.0015595562 -0.015483607 0.03918743 -0.08634052 -0.020842396 -0.042030483 -0.011523992 -0.088613965 0.042600736 -0.076157555 -0.049564313 -0.0066225147 -0.07321073 0.0076208767 -0.036351044 0.015413853 0.004558474 -0.037303478 0.054652695 -0.06893446 0.03282242 0.07759018 0.030006967 0.029686153 -0.03276732 -0.009822471 0.055811424 -0.074821524 0.07444879 -0.05602766 -0.06614707 -0.07991655 0.018063035 0.054544184 0.03801581 -0.08337443 -0.0122251315 -0.06018097 -0.077790104 -0.05586849 -0.016005637 -0.010848778 -0.045125414 -0.032818493 0.083149284 0.076683015 -0.018689806
get|double -0.07833237 -0.058932282 -0.019012092 -0.04899655 0.04954603 -0.06956344 -0.058875702 0.072686 0.046555813 0.07223422 0.053671278 -0.015613577 -0.04499114 -0.032063782 0.05071969 0.070871614 0.06584381 -0.05749592 -0.07887666 -0.06520098 0.0014118021 -0.020226799 0.06193228 0.0726704 0.05361577 -0.05771354 -0.03476005 0.011287184 -0.07497982 0.02795018 -0.032998454 0.07487323 0.085300535 0.033853166 0.08703118 0.0002451177 -0.07698554 0.03843862 -0.041641112 -0.040178437 -0.06837929 -0.058004234 -0.07603229 0.055609353 0.06754687 0.019399708 0.0728864 0.015790712 0.08378234 0.0071828384 0.0740211 0.036010075 0.057340868 -0.08199634 -0.012102755 -0.08120251 -0.07985934 -0.024771472 -0.049228482 0.05952147 -0.010567544 -0.032314546 0.0711824 -0.025737844 -0.055150747 0.07152927 0.043406893 0.05674179 0.0855476 -0.08508466 -0.081758894 0.06608239 0.017306961 0.038758118 0.00062353106 0.002304691 -0.05405709 -0.05484476 0.029998602 -0.01972059 -0.058549058 0.061280537 -0.04638091 0.07532815 -0.010648614 0.076514676 0.055647686 0.0026905127 -0.083844766 0.068228506 -0.07356246 -0.08567835 -0.023412364 -0.004849015 -0.084990926 0.04959594 -0.057455935 -0.0018932722 0.087790094 0.02628413 -0.08117251 0.026006257 -0.028753186 0.07268215 -0.03992356 -0.031113226 -0.0486899 0.051454693 -0.06167873 0.05478251 -0.031115653 0.056144513 0.074699104 0.045266315 -0.051763486 -0.05356327 -0.08559571 -0.078497805 0.08208709 -0.016287953 -0.070157945 0.07961006 -0.04840932 0.04148503 -0.04238337 -0.05396542 0.029835837 -0.05544106 0.044305354 0.036584344 0.017402628 0.070747524 -0.05460942 -0.06484256 -0.06006895 0.051833328 -0.018967032 -0.03692095 0.03825097 0.08070985 0.021382526 -0.012519707 -0.045018677 0.08331868 0.044975795 0.073589385 0.023639092 0.0771343 0.022124091 0.066297136 -0.04017859 0.020931894 -0.026692273 0.06531547 0.036277965 0.078052826 -0.0753011 -0.050123017 -0.0014898825 0.055169545 0.022592625 -0.017752813 -0.04183188 -0.030200947 -0.033223834 0.02061798 0.010752823 -0.07433301 -0.013534527 0.046847034 -0.039184593 0.040941 -0.07971932 -0.084265895 0.024345769 0.025952905 -0.06113083 -0.024585595 0.0031549525 -0.08310185 -0.048823126 0.0035475893 -0.008496823 -0.03271602 0.06138407 -0.035594516 0.08328102 -0.06477152 -0.0007408663 0.01855429 -0.0202032 0.04270219 0.050117556 0.02180262 -0.07853492 0.020631114 0.012656078 -0.004336125 -0.035906978 0.03298427 -0.027067654 -0.07365604 -0.08922679 0.06984746 -0.077709205 -0.027329098 -0.05703761 0.028446328 -0.07606167 -0.053161476 -0.07104589 0.050541706 0.07654749 0.07696939 0.059921477 0.075143546 0.008152368 -0.0011423704 0.030959183 0.020893767 0.05945829 0.043836754 -0.0524503 -0.08030006 -0.022490045 0.0747204 -0.07574465 -0.07995746 -0.024626419 -0.02417924 0.061990272 0.05104348 0.00656429 0.021889329 -0.06806973 0.0364053 0.07268236 -0.078075096 -0.04731759 0.050103147 -0.07985986 -0.05384942 -0.08726404 0.061307393 0.033064175 -0.07380129 0.085818544 0.004492266 0.029301936 0.00042135525 -0.062517256 -0.06522623 -0.046532113 0.05264527 -0.038089577 0.0028619403 -0.010227428 0.057964396 0.044252206 -0.0693687 -0.07990481 -0.05775367 -0.043925226 0.025703473 -0.049249087 -0.082877204 0.052774258 -0.07531269 -0.049839273 0.048478838 0.06115772 -0.049558673 0.0002721877 -0.039092895 0.00881374 0.06806539 0.002542207 0.037588507 0.010496209 0.0837159 0.010640046 0.04999014 0.015954109 -0.08184597 -0.039506104 0.07776697 -0.042770077 -0.011253346 -0.0054445365 -0.021110348 0.05415208 -0.060518123 0.03461362 -0.057060696 0.0095999595 0.030948255 -0.089879364 -0.080359146 0.07455769 -0.018008672 -0.01459976 0.08123527 0.03115717 -0.0043291384 -0.0058131777 -0.038778737 -0.071864665 0.0051800394 -0.08256619 -0.0015883402 -0.022471935 -0.013568235 0.045948993 -0.062266324 -0.08806503 -0.045051068 0.0005069 0.079391286 -0.08731259 0.022635339 0.06802957 0.010219984 -0.07174271 -0.06586333 -0.06551216 0.003488635 -0.08198301 -0.06473796 -0.011637873 -0.05071372 -0.008355292 0.019418964 -0.04169109 0.075215586 -0.011839524 0.008846679 0.0327884 -0.07826398 0.01957191 -0.06541577 0.034389317 0.0037203657 -0.0685519 0.028093357 0.055148195 -0.05167169 0.05806055 -0.057196144 0.063322425 0.0076775094 -0.003283985 -0.008889083 0.045393504 0.07019182 -0.024113744 0.04579443 -0.061145335 -4.733668e-05 -0.060666446 -0.028941762 -0.032415442 -0.011565551 0.084613524 -0.05147102 -0.009029361 0.05878068 0.042392846 0.015509192 0.055463478 0.020057188 0.085107416 -0.07742653 0.09016086 0.0018018091 -0.08164819 0.049698967 -0.08679604 -0.077138364 -0.0038465713 -0.0022734278 0.038467996 -0.06499075 -0.023590911 0.0034006475
operator|<< 0.045207884 0.06760412 -0.06838712 -0.04743741 0.041893195 -0.0040965765 -0.029534295 -0.0070857094 -0.08826291 -0.0024617417 -0.018281136 0.054892242 -0.05948591 -0.019413754 -0.04082157 0.005936135 -0.02263963 -0.005363363 0.024606828 0.0054215537 -0.08124211 0.0037461831 0.04036839 -0.05262618 0.017812505 -0.05839969 0.044948656 -0.02168245 -0.028785978 0.07408947 0.026530487 0.082567655 -0.06512545 -0.04923737 0.08290829 -0.03149918 -0.037031 0.07233039 -0.016880646 -0.009535565 -0.029848004 -0.02424752 0.030108334 0.03886123 0.06315822 0.058957785 -0.06446652 0.007537886 0.02218662 -0.0728465 -0.061685417 -0.025378298 -0.06461933 0.05557536 0.021930572 -0.009578359 -0.006826241 -0.014722452 -0.05347929 -0.05990897 0.025045764 -0.047601867 -0.053406138 -0.040632974 -0.059112784 -0.039385837 -0.025239155 -0.062124893 0.043168485 -0.058156107 -0.05346455 -0.02226853 -0.00014324649 0.041387074 0.051036887 0.08581836 0.079365574 -0.054853093 -0.066800654 0.050814074 0.08165523 0.015951829 0.02159339 0.014714652 0.08354609 0.028234895 -0.08658145 0.045313064 -0.010688768 -0.030588396 0.07632768 -0.030304898 -0.073732644 0.0687582 0.06638148 0.08985781 0.0760537 0.018591829 0.08278256 0.06616481 0.027122824 0.019662604 -0.0025624896 0.024236286 -0.08118265 0.04971127 -0.08034056 -0.0031868548 0.009094756 -0.058606118 -0.035898603 -0.08534278 0.015288885 -0.0019476786 -0.028452998 -0.03961952 -0.06354961 -0.028530374 -0.07609445 0.05522706 0.016686222 -0.050863247 -0.08495556 -0.071465954 0.008039752 -0.06864938 0.059350103 0.04745356 -0.08671486 0.034892276 -0.00011391484 -0.042458203 0.085715026 -0.07208003 0.085143425 -0.021988546 0.072901696 0.047000926 -0.058263253 -0.01315719 0.06283048 -0.043842975 -0.032859877 -0.057280287 0.03284125 0.063310154 -0.032019854 -0.07919839 -0.047536813 -0.05287198 -0.030386105 -0.07044621 0.048081573 -0.0791408 0.013575207 0.04203338 -0.085943185 -0.043361533 -0.015372385 0.047745366 -0.06804571 0.058363225 -0.034346744 -0.0006645017 0.026796842 0.008383818 -0.026376031 0.0072338805 0.074043915 0.060479347 0.025314415 0.001022665 -0.04366955 0.002200784 -0.03445139 -0.007720592 0.02113706 0.0026055092 -0.04148005 0.021620572 0.054078784 0.06487865 0.02035554 -0.019258896 -0.029705988 0.024417723 0.039704964 -0.00031111971 0.035850596 -0.045704797 0.08321182 0.046740692 0.00024856394 0.014955498 0.030994156 0.06474354 -0.041886453 -0.037605654 -0.0253239 0.060272843 0.07771395 0.026489554 0.05953106 0.01692149 0.0015639926 -0.067959495 0.019856948 0.07881384 -0.05375306 -0.0031559395 -0.055992164 -0.03684113 -0.06489049 0.05908147 0.013754183 0.038045924 -0.0216457 0.06575175 0.0681344 0.0005762117 0.06929569 -0.046814308 0.076249205 -0.036549285 0.051678482 -0.010449003 0.075122304 -0.04501043 -0.009131622 -0.07069863 0.010226207 -0.07536289 -0.025190344 -0.049672615 0.0068315077 -0.07952202 0.0891241 -0.0404725 0.074670464 0.08428477 0.004361751 0.029725729 0.0037136655 0.027330415 0.055430777 0.07223234 -0.034374766 0.072700046 -0.056129396 -0.036578752 0.08154129 0.0660612 -0.08672219 -0.016555052 -0.08483745 0.090185486 -0.0044961865 -0.010871454 0.02373372 -0.084070586 0.061671842 -0.047284096 -0.0838884 0.032491747 -0.036907393 0.014957242 0.06332214 0.056555767 -0.079366826 -0.050126296 -0.048559107 0.083870165 -0.07789012 -0.07350792 -0.06427037 -0.06298151 0.0058694365 -0.07289583 -0.050871637 0.049803734 0.0059231278 -0.0107218055 -0.05756087 0.025944097 -0.028165322 0.027929364 -0.064846374 0.073214136 0.044037927 0.08291504 0.003044088 0.080386974 0.028384972 -0.031458173 0.08786205 -0.060560256 0.042922147 0.0027682565 -0.06145652 -0.0707739 -0.053249303 -0.0007833189 -0.061669547 -0.06676204 -0.03486924 -0.085883394 0.03307233 -0.087356575 0.008779194 0.02768785 -0.023355955 -0.003114977 -0.0097298585 -0.005495026 -0.08485631 -0.05535641 0.0042560576 0.041474488 0.066000365 -0.06301706 -0.085641734 -0.08765055 -0.04232187 -0.011153925 0.005425636 0.0824525 0.07820874 0.0027738607 0.08370007 -0.022358373 0.07440323 -0.0384029 -0.007282301 -0.0074666496 0.03598291 -0.08562603 -0.08144511 -0.051214065 0.06145021 0.012087988 0.011415694 -0.028355606 -0.08161947 -0.08396104 -0.0014031811 0.06402938 0.069532335 -0.025318883 -0.03905158 -0.042180974 0.06384881 -0.057340484 -0.037608273 0.06977315 0.027708476 -0.051965542 -0.033700146 0.05674483 -0.060273264 0.009428816 -0.011275601 -0.014038453 0.013257895 0.0105411 -0.045006625 0.0064097345 0.02564779 -0.042318 -0.0654917 -0.0018058079 -0.045672413 0.041335277 -0.040434845 0.038590346 -0.015724974 -0.011967874 -0.025500149 0.04448444 0.04384529 -0.05744249 -0.007470878 -0.07318338 -0.07693527 -0.013208205
foreach|test 0.0073033725 -0.07145227 -0.027411724 0.050530758 -0.037402924 0.011756582 0.018979283 0.016199525 -0.011701635 -0.022390533 0.05546349 0.089249246 0.06344241 0.05699144 -0.0883439 0.08464593 0.06397837 -0.05116423 -0.051045567 0.048134882 -0.030773265 -0.045652613 0.03691854 -0.04783562 -0.07938125 -0.08217452 -0.04449456 -0.046556413 0.07522355 -0.08445934 0.052072957 -0.07928274 0.003682007 -0.012173798 0.08551405 0.029715639 -0.0640864 -0.046199948 -0.0039163483 0.049785852 0.035862163 -0.07984325 0.0005380993 0.009217156 -0.06167088 0.06865846 -0.032351006 0.08213057 0.08023636 -0.0482939 0.027857086 0.019545034 -0.00014413917 0.0027188836 -0.07802634 0.047304176 -0.048573434 -0.08616105 -0.036920473 -0.06523199 -0.05606604 0.060474325 0.07762472 -0.08655751 -0.06532613 -0.061741527 -0.019542078 0.009134618 0.0028701485 0.02809522 -0.047119632 0.04939793 -0.0644616 -0.059306365 0.027913257 0.062050264 -0.032135073 -0.003117764 0.025397535 -0.055638645 0.044252474 -0.054168347 -0.08762373 -0.026602078 -0.005681712 -0.06522718 -0.06482527 -0.03705833 -0.08622297 0.023174994 0.02822792 0.02875031 -0.046026137 0.014219865 -0.06638457 0.017677965 0.080325305 -0.03819911 0.041749727 0.06549675 0.021954145 0.052360434 -0.045126475 0.050214563 0.08084747 0.0037609562 -0.03785738 -0.05909646 -0.069765456 0.07280247 0.06923568 -0.078875035 -0.03869713 0.070205785 -0.08621706 -0.039512135 0.022504516 0.0032563831 -0.005018374 0.015080951 0.058079146 0.00866382 0.07500649 0.020239765 0.036439206 -0.0022431402 0.0004161502 0.059487343 -0.067083545 0.031931315 0.07831457 -0.009040418 -0.083948396 -0.027864637 -0.005326172 0.07170647 -0.073393114 0.038882732 -0.021069653 -0.021116158 0.027180605 0.044108156 0.017925223 -0.05300104 -0.018982098 -0.069133304 -0.042625558 0.002439962 -0.046591002 -0.0031063799 -0.030401781 -0.06643145 0.024673833 0.04740229 0.07180307 -0.021094209 0.07470741 -0.018379781 -0.09035749 0.07733282 0.032489114 -0.014736955 0.029633513 0.0194335 -0.049338702 -0.02831499 -0.039965585 0.037028994 0.006336505 -0.011082917 -0.042313002 0.026719425 0.051639125 -0.02988251 -0.08061461 -0.03390935 0.006405896 -0.040533077 0.030717796 -0.08033795 0.05785001 -0.046868473 0.039137397 -0.07654782 0.042594522 0.0016063723 0.0064242864 0.021055805 -0.009503409 -0.072443455 -0.0037285052 -0.013592312 -0.06435734 -0.039348528 0.06132719 -0.06828192 -0.08134029 -0.041255668 -0.054565795 -0.040330045 -0.04558492 -0.03833919 0.020231199 0.07350686 0.07992476 -0.084506035 0.036546644 0.015631683 -0.0126649365 -0.061113127 -0.08730438 0.060208276 -0.08363275 0.012804167 0.008709687 0.07451666 -0.045413405 -0.016221158 0.06794232 0.043520525 0.08966431 -0.02073498 0.075387724 0.06430519 -0.017871417 -0.08786081 -0.03794326 0.044428125 -0.07666772 0.02944945 0.026503947 0.057148766 0.06753115 -0.019185968 -0.039358422 -0.041594032 -0.067103684 0.049478382 0.029324995 0.031039545 0.046405766 -0.011472682 0.030151164 0.079725444 -0.03554759 -0.04157235 0.009010731 -0.017671239 -0.019019896 -0.058735427 -0.08361496 0.042329703 0.086276874 0.054784197 0.075859785 0.07834009 0.047660057 -0.08621068 -0.03341903 0.0856507 -0.061092533 -0.081237674 -0.05328275 -0.032788 -0.08093461 0.016800668 -0.03301018 -0.046265926 -0.051289085 -0.016764352 -0.008137915 0.028603908 0.054627903 0.03453807 0.028240254 0.042815972 0.07080321 0.04466166 0.0032225756 0.0020540187 0.055609766 0.028271453 -0.082147 0.035915717 0.006844359 -0.031095857 -0.07500127 -0.025711372 0.08337387 0.0076690516 -0.043868568 0.05154999 0.0049522407 -0.010914883 -0.050131887 -0.07732026 0.004377684 -0.012480361 -0.077009566 0.040814076 -0.034690168 0.006285593 -0.012363881 -0.07195808 0.0068994006 0.03874551 -0.056582764 -0.029813543 0.020456342 0.081343964 -0.070294626 -0.08294728 -0.021002013 0.05028753 0.07901844 -0.06779781 0.07887835 0.028794026 0.013214754 -0.011826314 -0.011180384 0.016894495 -0.056369446 0.066848174 0.054627705 -0.04721486 -0.009704019 -0.044073433 -0.07002782 0.04592911 -0.07445466 0.00014176592 -0.06836136 0.08524593 -0.062350348 0.00015133317 0.03627345 -0.012819485 0.008030386 -0.085952334 0.076019235 -0.0340379 -0.0059961034 0.047787864 -0.071522 -0.023926154 0.03614421 0.013507128 -0.039615083 0.023446422 -0.08046005 -0.0032804217 -0.05026491 0.046869054 -0.0031613288 0.061214786 0.08148729 0.022199823 -0.08481125 0.06972865 -0.08339211 -0.0032618225 0.07402043 -0.016397089 -0.0018584348 0.05743421 -0.0007232701 0.07650013 0.027361143 -0.071603775 0.023078637 -0.07193396 0.022985 -0.08989872 -0.053221755 -0.07200734 0.086617716 0.06438254 -0.05990815 -0.017233131 0.033836253 0.058297273 0.08849627 0.007854285
tostr -0.035582967 0.0717762 -0.06571295 0.05946358 0.05169681 0.06102131 0.08507984 -0.05448068 -0.0155910365 -0.023129236 -0.0064979116 -0.008762713 -0.048512723 0.0771532 0.06577461 0.02394172 -0.024853483 0.05954806 0.0195258 0.07956003 -0.022211602 -0.033087842 0.03459577 0.06105697 0.037097722 -0.07200014 -0.023236115 -0.004122847 0.0858164 0.044138655 -0.011219194 0.015751725 0.011579268 -0.038721874 -0.005063059 0.057460453 0.020107232 0.07341455 0.06825918 -0.059251677 0.04604074 0.086103864 0.0039835013 0.073146634 0.069968134 0.026859056 0.050184984 0.08458691 0.003359547 -0.038624864 -0.015844041 -0.056976512 -0.055528197 -0.021925021 0.07156686 0.020384073 -0.08461609 0.012320764 -0.011347689 -0.04901302 0.00030281476 0.08371095 0.009246584 0.08407966 0.037401866 0.02383066 -0.06734914 -0.07439968 -0.040751442 -0.085892916 0.08841961 -0.041678905 -0.08837426 -0.016680714 -0.03324093 -0.008384158 0.029482868 0.052333746 0.07862524 -0.075624175 -0.029765965 0.052484833 -0.03132247 -0.040272463 -0.048197057 -0.05905443 0.059444238 -0.04767823 0.030749997 0.04038844 0.044011027 -0.018260809 0.04363233 -0.058576327 -0.025439704 -0.08703254 -0.024498086 0.050047215 -0.03774718 0.075802535 0.025301758 -0.07942584 0.0011363181 0.013811436 0.0020809248 -0.014320642 -0.012802465 -0.03960022 0.080707446 0.034468397 -0.029079603 -0.06207528 -0.039349448 0.043404013 -0.08070009 0.016176572 0.050611112 0.039253335 -0.009329143 0.002392991 -0.067973845 0.05842102 0.0069678025 0.059880577 -0.084873766 -0.063771494 0.04435755 0.03798105 -0.033078313 0.06503649 -0.080341265 0.04283841 0.009325854 -0.0357208 0.031609174 0.06039671 -0.07602247 0.044349436 0.085301444 0.084142044 0.058036227 -0.034468755 -0.08084901 -0.0007581628 0.06592559 0.014905357 -0.02145485 -0.021757409 0.00806509 -0.0405239 -0.05884209 -0.017614886 0.001933785 0.053153485 0.011774385 -0.010032275 -0.03636385 0.020354958 0.0897165 0.0650597 0.04137427 0.07576729 -0.055182368 -0.08794342 -0.019077096 0.048704885 0.014848817 0.013825469 0.03741606 -0.022508474 -0.06244095 -0.06588742 0.07951594 0.060188662 -0.05777511 0.015853515 -0.02862614 -0.06013474 0.086270444 0.009434855 0.08323257 0.05626702 -0.054503433 -0.06352342 -0.029327672 0.023910413 -0.021578616 -0.010582358 -0.022131346 0.050736405 0.027223695 0.041806594 -0.025735805 -0.05871459 0.087375134 -0.011156075 0.07425283 -0.049047727 -0.066980556 -0.047758736 -0.08397076 -0.014690983 0.05064571 0.011073713 -0.08998416 0.015963921 -0.027948976 0.01032512 -0.049348876 0.028338443 0.07305214 -0.07917528 0.04377247 -0.06138674 0.08415716 0.06532039 -0.056952264 -0.023344057 -0.009009546 0.06513906 0.05317612 -0.0028385492 -0.0007120549 -0.02695156 0.046476334 -0.06087768 -0.04596164 -0.022493806 -0.056696568 0.087704256 -0.06796257 0.08387365 0.028134976 -0.06852347 -0.02976756 0.07433004 -0.08192491 -0.05407775 -0.024225675 0.009927245 -0.04056766 -0.013666821 -0.039918847 0.021900661 0.00027761003 -0.054615445 0.07703714 0.005442086 0.040624414 -0.054203838 -0.051627457 0.07205919 -0.00055787095 0.008043835 0.029931562 0.045135424 -0.01419502 -0.04795237 -0.018944863 0.03574255 0.052273095 -0.042360812 -0.03137951 0.034420528 -0.03866875 0.06430104 0.0013359796 0.044124644 0.017598966 0.055277053 -0.053588726 -0.048657756 -0.06364708 -0.014191888 -0.08297438 -0.060652066 -0.04836722 -0.009646616 0.044977874 -0.0029464383 0.064830124 0.065528296 0.040051647 -0.08357331 -0.032625414 -0.07613656 -0.06032738 -0.012906351 -0.05791284 0.0071183555 -0.039826244 0.046436064 0.0017710698 -0.04552621 -0.04229926 -0.056794785 0.0065527232 -0.04362345 0.06296511 -0.07152009 -0.043967623 0.08974706 -0.008323376 0.020928202 -0.043111123 0.028645419 -0.08742247 -0.03981953 -0.049951307 0.0011817145 0.053709764 0.04049852 0.024030617 -0.06683413 -0.048819214 0.06866126 0.08186897 -0.050052788 -0.05024798 -0.067031495 0.06089405 0.06202818 0.07511592 0.017558888 0.077973075 -0.037271507 0.03253392 -0.07345466 0.080864094 -0.059022002 -0.029371837 -0.07118658 0.075355485 0.0008720078 -0.07255644 0.066209055 -0.017230656 0.05290484 0.036108114 0.045540273 -0.08472692 -0.016545044 -0.06271104 0.07787913 -0.028382491 0.037619583 -0.01943298 -0.03738163 0.07947602 0.006594006 -0.078300714 0.002059122 0.04126007 0.009838799 0.030605566 0.07402296 0.053978655 -0.08484722 0.07977865 0.0105095375 -0.0895601 -0.0687914 -0.021696955 0.0045342674 0.04658308 0.07555784 0.020117695 0.06440326 0.048901193 0.036453087 -0.052407328 -0.07860061 -0.08597083 3.309257e-05 0.051761944 0.07793926 -0.021121578 0.0011584801 0.08560642 0.071950905 0.07349526 0.009401549 -0.005269703 -0.078652024
main -0.015867662 0.072291724 -0.0045478176 0.06267878 -0.028274633 -0.07561332 0.04888103 -0.058101002 0.035255775 0.038006373 -0.08595643 -0.058776524 0.07090854 -0.06203141 0.08541702 0.02439557 -0.05153225 -0.041936133 0.043260302 -0.015056359 0.085921004 -0.018814357 0.007144358 0.03192464 -0.021901231 -0.011003836 -0.050271023 0.084562525 -0.056057844 0.05053258 -0.070241906 0.026652362 0.06001202 -0.046715066 0.068898626 -0.009950683 0.06986396 0.0876571 0.0039649615 0.054643083 0.009029002 -0.075906746 -0.076549366 0.010965202 0.07443342 0.058429603 0.06496311 -0.023214951 -0.08188143 -0.056407884 0.026643917 0.030191774 0.013261439 -0.030007506 0.055029687 0.023859167 -0.08168283 -0.052586816 -0.004463266 0.049750548 -0.019333376 0.084699586 0.048308782 0.035923466 0.04144179 0.053944763 0.07640996 0.088438645 0.017371472 -0.023270197 -0.036245752 0.027278824 -0.07878737 0.016414186 -0.024544822 -0.07366637 -0.0047098 0.07941179 0.078427054 0.057925325 0.06836425 -0.06947252 0.07382628 0.057436176 0.07911324 0.050328184 -0.020503026 -0.081131995 0.031314272 0.008826745 -0.0009859294 -0.075044006 0.056753732 0.040018566 0.03664109 0.08144057 -0.022922484 -0.027953548 -0.046651002 0.0076734857 0.07507228 0.013589852 0.032485224 -0.074062064 -0.004614307 -0.04722239 -0.015718741 -0.044390555 0.03453053 -0.034253467 0.08479401 0.041863576 0.074146986 -0.06482433 -0.015507877 0.053995915 0.038444173 -0.048082966 -0.08591618 -0.03291529 0.073396794 0.008541613 -0.066825286 -0.05670962 -0.06537613 0.06528351 -0.047279164 -0.053173114 0.034542236 0.072272204 -0.0142521085 -0.002526195 0.074691795 0.03891548 -0.026393134 -0.07869123 -0.04593499 -0.03964181 -0.03923275 0.07158676 -0.035926975 0.012649122 0.058965374 0.031121083 0.062049903 -0.07777501 0.07062304 -0.04216899 0.06975241 0.02840492 0.059944317 0.06028079 0.005505346 0.034877356 -0.08499542 0.03242543 0.00063885073 -0.03764511 0.010245737 -0.024440989 0.06094651 -0.0485614 -0.06463984 -0.08151013 -0.06675869 -0.07611794 -0.08258527 0.043263983 -0.06741145 -0.02163033 0.035397694 0.087952614 0.086803086 0.029370114 -0.029406067 -0.026509462 -0.015216918 0.048234683 -0.08277575 0.06546685 -0.07346092 -0.049943406 -0.044235177 0.04230467 -0.034976594 -0.07409386 -0.034498174 0.044631377 -0.024072682 -0.060159076 0.0046102796 0.026412908 0.084559396 -0.08892472 -0.010612533 -0.0059535364 -0.023663426 0.06729262 0.08172877 0.035039052 -0.013514224 0.08624032 0.027467383 -0.05145435 -0.029463526 0.076146394 -0.021418478 -0.040819492 0.07780543 -0.05238809 -0.034047246 -0.046833713 0.02258422 0.063606694 0.07142236 -0.063228145 -0.023169588 -0.055048235 0.022185728 -0.011704707 0.011163005 0.05853348 -0.07186298 -0.058995243 -0.022818835 -0.020923551 0.074166045 0.05934664 0.0593095 0.039272472 -0.07565414 -0.054874778 0.05909771 0.08542602 -0.050333265 -0.019325346 0.003421054 0.06849518 0.036853675 -0.006329629 -0.08866348 -0.061217185 0.011541668 0.0023997177 -0.028779378 -0.02298196 0.02364544 -0.038031574 0.06758241 -0.0046496675 0.08853178 0.062327515 -0.047763087 0.04116718 -0.067177765 0.04377537 0.015226042 0.011131618 -0.03652392 -0.08122441 0.08368002 -0.033245016 0.038057838 -0.057060584 0.053685658 -0.036822382 0.08421382 -0.00018446788 -0.029292032 -0.022335496 -0.07858635 -0.08316299 0.07231258 0.05391745 0.07350987 0.030950652 -0.072505735 -0.054169413 -0.031925075 -0.066133864 0.048728965 -0.06609623 -0.08666993 0.0069831177 0.008535537 0.010286158 0.002266069 -0.024867663 0.05712005 0.040504273 0.0430611 0.02982127 -0.022964712 -0.0014370788 -0.07109671 -0.07449083 0.006000776 -0.035193466 -0.03289399 0.02317459 -0.031792283 0.08687423 0.030305725 0.053521518 0.0766794 -0.05700238 0.07467754 0.04290363 -0.03875822 0.00022211927 0.037591647 -0.06785589 -0.033962887 -0.043963596 0.061479315 0.062915295 0.05220578 0.071844436 -0.06371317 -0.027455043 0.048857592 0.020509342 -0.04099247 0.030493705 -0.004241719 0.06979767 0.0063511278 0.017397422 0.090157196 -0.0072225225 -0.07568943 0.016000237 -0.08599427 -0.04865154 -0.0035078824 -0.07245211 0.06607209 -0.014891886 0.064621195 -0.060526576 -0.028570421 -0.028904261 0.0651698 -0.028596545 -0.040383536 -0.056391343 0.06573101 0.08330603 0.08544761 -0.013636416 0.03956175 0.04527622 -0.03147503 0.067709714 0.07766469 -0.003912259 -0.0062703975 -0.08959454 -0.038807537 -0.027022863 0.038938805 -0.035836186 0.053650815 0.06713597 -0.014392076 -0.04234382 -0.02291709 0.07947281 -0.041902497 -0.07502939 -0.021734877 -0.049214672 0.06007187 0.009055747 0.089369915 -0.004290383 0.053833593 0.033588033 0.04396649 -0.009899801 0.06575919 -0.018297926 -0.03206023 0.07284214
split -0.030311089 -0.0015550801 -0.036165927 0.013601884 -0.07610359 0.0050461837 -0.0051782997 -0.036261633 0.031126361 -0.07023149 -0.03581867 -0.056124877 0.055543058 0.0816323 -0.07772165 0.023685813 -0.020392153 0.034825496 0.015611947 0.05434119 0.01892688 0.08266221 0.037833307 0.024527485 -0.046732076 0.00661196 -0.03485113 -0.010684156 -0.084462434 0.07670422 0.08361475 -0.0400833 0.0054458953 0.057630878 0.014463242 0.060372293 0.080308184 -0.026890215 0.041097105 0.052611545 0.07942782 -0.07140645 -0.010946226 0.052481882 0.05278009 0.04537417 -0.08401786 0.078145005 0.03374642 -0.04225866 -0.01637131 -0.008668938 0.03430969 -0.064373486 0.035804953 0.0062180585 0.026064452 -0.026239866 -0.05820325 -0.08591412 -0.004469649 0.078598246 -0.08755954 0.020925486 0.02487703 0.056758188 0.06529975 -0.05590498 0.08552105 -0.01017132 -0.05298683 0.0698279 0.06590159 -0.013485346 0.07216079 -0.007692838 -0.07753 -0.04818319 -0.011157027 -0.020455636 -0.013454481 0.08973131 0.009178558 -0.000848172 0.008642993 0.007787596 -0.069741905 0.017335009 -0.022307685 0.0009651289 -0.041745987 -0.05549518 0.06253528 -0.0033401218 -0.080547765 0.04801867 0.08808602 0.06757263 0.043585386 -0.005482588 -0.05173889 -0.00376512 -0.020662066 0.019149141 -0.025266739 0.024189636 0.018334905 0.023827825 0.07365334 0.07487264 0.05885364 0.01596091 -0.05787576 -0.061616063 -0.044326816 -0.031507455 0.0030991202 -0.03269077 -0.050193857 0.041532174 -0.027448827 -0.037894137 0.008128886 0.07491472 0.05238442 0.08005941 -0.056564752 0.027829342 -0.05746166 -0.04249894 0.08423571 0.03803166 -0.045076877 0.05097947 -0.02810067 0.053102028 0.062498838 -0.04301292 0.062455308 -0.07991261 0.0040831263 0.075655304 -0.0029006214 -0.0520796 0.064332694 -0.07794331 -0.042496864 -0.015219219 0.054765727 -0.043178223 0.08248028 0.05286414 0.026415242 0.041172177 0.0153949475 0.062007252 -0.07678967 -0.033768695 -0.028023839 -0.06713631 0.06307823 -0.032330908 0.068018876 -0.021057284 0.01249276 0.08770988 0.07501644 0.02009456 -0.043761335 -0.07192477 -0.08073605 -0.010530816 0.015122426 0.057562694 0.078013174 -0.069121726 0.053702902 -0.029146442 -0.012675028 0.061395966 0.04458617 0.065723084 -0.03714728 0.05623393 -0.0061899293 -0.016406294 0.057834905 -0.041626297 -0.01395435 -0.078701854 -0.07442623 0.048402213 0.049854368 -0.040866666 -0.017223889 -0.06591298 -0.06752745 -0.037871704 -0.06403057 -0.0025177496 -0.027329369 -0.07737693 -0.084535144 -0.058286715 -0.060186427 0.05866175 0.023441553 0.020147577 -0.06847431 0.0059609404 0.06327901 -0.042565208 -0.051242586 0.05424381 0.04133675 -0.0109534245 -0.08841983 0.090250276 0.07889261 -0.011966269 -0.07352523 0.049382884 -0.06726522 0.040576342 0.016876176 0.0014505765 0.004599918 -0.01991036 -0.014372 -0.028327513 0.045837313 -0.048594266 0.02670893 0.058602706 -0.049596593 -0.037775233 -0.055587392 0.05503433 -0.021918261 0.005071404 0.06539944 0.051268775 0.022333581 0.07270208 0.071903266 -0.06284498 -0.0024745066 0.03771678 -0.06590656 0.059186608 0.008230717 -0.057009112 -0.0020998395 -0.067491435 0.03429584 0.03157543 0.03602843 0.0009990073 0.06823574 -0.073833615 0.04476213 -0.026706863 -0.03524179 -0.054400403 0.048076425 0.07742199 0.03845186 -0.029403849 -0.018901443 0.082503095 0.08114363 -0.006864142 -0.078375764 0.074853696 -0.06869569 0.038802203 0.008014029 0.061466336 0.05283558 0.025064783 -0.06683415 -0.042823046 0.05947021 -0.017459199 -0.06655654 -0.048029933 0.0706029 -0.0015680636 -0.08703371 0.029503437 0.07943939 0.036086228 -0.0431839 0.038405053 0.06810859 0.038387533 -0.05191593 -0.040591646 -0.015626572 -0.086963266 0.089236096 -0.062012557 0.037814997 0.06345292 0.056629833 -0.05265457 -0.07642509 -0.07347791 0.008099821 -0.010132246 0.059578244 0.059682116 -0.026613332 -0.04861575 -0.0016801114 -0.05008345 -0.024867566 -0.07741884 0.06789866 0.07087844 -0.07279015 0.04765829 0.028767101 0.013518316 0.045621663 -0.064740844 0.010279085 0.044918112 -0.034180358 0.01718356 0.018469457 0.020616237 -0.018650344 -0.054711275 -0.00805717 -0.029363604 0.034642924 -0.049949147 0.08614486 -0.07034893 -0.037036132 -0.0819858 -0.029253641 0.00806118 -0.06361036 0.074070066 -0.07928141 -0.071423605 -0.035407946 0.061091464 0.024408996 0.014769656 -0.048971675 -0.009657543 -0.08046279 0.05603521 0.07406131 -0.049215466 -0.005980314 -0.03322421 -0.01952327 -0.0852605 0.037775982 -0.028511068 0.007610484 -0.08140023 0.011188139 -0.035094887 0.08471463 -0.074604765 0.0692798 0.08924526 -0.0812363 0.06090221 0.003611561 -0.08725375 0.037611116 -0.044175263 -0.077590816 -0.08493658 0.0022685938 -0.034841046 0.032710876 0.042277116
get|line -0.056695912 -0.05662616 0.016803805 -0.0050794645 -0.06934989 0.06289637 -0.07730454 0.03667452 -0.0455985 -0.08481448 -0.059376493 -0.005591021 0.03323922 0.0054214625 0.06767738 0.0092932405 0.07708829 0.08615111 0.0077446625 -0.040318128 -0.06693951 -0.013499915 -0.07177332 -0.027327152 0.054154493 0.06476422 -0.03280566 -0.041627597 0.06672758 -0.06500003 -0.055390958 0.08138094 0.04190743 -0.060153116 -0.01784835 0.054109246 -0.004289403 -0.06567215 0.005467288 0.07812821 0.059779357 0.07205881 -0.06978365 0.041488837 0.044499483 0.010195759 0.03157889 0.024382908 0.074957944 0.028719649 -0.042253643 -0.029140376 -0.0041954434 0.021256873 0.009344265 -0.07479932 -0.0038625784 -0.04395357 0.00019199261 -0.07008578 0.013647432 -0.023614066 -0.039096907 -0.033903997 0.046396196 -0.083179176 -0.076849155 -0.026670495 0.0035346895 -0.01082919 -0.0032795582 0.06986593 0.02881172 0.053442724 -0.07600401 0.03039068 -0.0070291385 0.08323353 0.078728 0.032736987 -0.058386154 -0.04508344 0.07185477 0.038050096 0.023601787 0.043661304 -0.03289975 -0.032234836 0.06911304 -0.012867593 -0.08557332 -0.031893276 -0.06366021 0.06141579 0.02482727 0.07362449 -0.081231035 -0.073514156 0.054388497 0.0055244723 0.080438845 0.06278939 -0.011714976 0.07069697 0.063594624 0.04864978 -0.01682597 0.033787426 -0.05715479 -0.07491581 -0.055321675 -0.08014718 0.05914248 -0.060827278 0.0773923 -0.058827262 0.0556851 -0.043315116 -0.06444301 -0.0038869712 0.05698166 -0.034470085 -0.049054347 0.07014287 -0.0022826076 -0.07589756 0.071541026 -0.04037845 -0.026532913 -0.032289233 -0.002312259 0.033613335 0.052453574 -0.028765915 -0.048334263 0.013237283 -0.067721985 0.07154912 0.019753678 0.0053731226 -0.018644357 0.019001566 -0.073680796 0.08062696 0.05680083 0.015458006 0.010500839 0.060118183 -0.02351628 -0.08070779 -0.03787013 -0.01559656 0.079440214 0.017099168 0.026560713 -0.067791656 -0.081583545 0.007728334 0.03187888 0.0728566 0.07002051 0.04988266 -0.024432937 0.04918093 0.02641945 0.058780447 0.0042372695 0.00393843 0.04737043 -0.018650007 -0.059074733 0.04967674 0.016340952 0.035320617 -0.037600894 -0.010823361 0.047655758 0.041032076 -0.052129857 0.052402806 -0.025748044 -0.009065901 0.06247946 0.08231807 -0.03300586 -0.017356427 0.05004011 0.027373021 0.085202895 -0.020840328 -0.0349645 0.08952078 -0.027148386 -0.038577266 0.07516212 0.07148198 -0.041845616 0.042299114 0.011330176 -0.07121523 0.078635514 -0.02107108 -0.054604176 -0.018298797 -0.008116207 -0.056041833 0.06478763 0.048195228 -0.019014321 0.078479156 -0.039800122 -0.06878808 -0.046436146 -0.05562105 -0.02045462 -0.06843482 0.008480863 0.079726115 0.07702914 6.9059897e-06 -0.042155225 -0.011765263 0.0313069 -0.07744432 -0.00021229323 -0.03876346 -0.08573874 0.04199389 -0.030197145 -0.050995253 -0.08671263 -0.045902293 0.06668574 -0.08977215 -0.030463738 -0.027025348 -0.05950078 -0.049258586 -0.07508971 -0.06792591 0.033959683 0.019093908 0.01978754 0.045215663 0.07292984 0.06921526 -0.04495827 0.0675952 0.08337344 -0.07194322 -0.036796864 -0.017045602 -0.057431694 0.061776996 -0.08203097 -0.059421297 -0.034381386 0.054858442 -0.013924371 0.024959583 0.07277103 0.027981512 0.021813672 0.029804336 -0.05460416 0.015880303 0.0108394185 0.0648746 0.030296922 -0.06266209 0.025199462 -0.052727014 -0.06967749 -0.06719029 -0.013051957 -0.02815181 -0.07877315 0.031629924 -0.03697679 0.055818025 -0.0013349804 0.004230093 -0.02285894 -0.030130625 -0.014961264 0.054596744 -0.08471767 -0.014039222 0.039706018 0.078642495 -0.06815062 -0.05560698 -0.020460295 -0.046267655 0.033703 -0.06646207 0.05965184 0.024852946 -0.003790624 0.060750857 -0.047494933 0.055527296 -0.02230114 0.059891388 0.08976326 0.014863924 0.011899214 0.03481558 0.032706376 0.08156235 0.08098254 0.024839716 0.08589497 -0.02688061 -0.052819323 -0.04670617 -0.022984939 0.07304632 0.010942495 -0.0036890842 0.0049686152 0.053928223 0.012231036 0.032925215 0.010873748 -0.014192425 -0.061952926 0.062047914 0.06660767 0.011889758 0.0383122 0.06470975 0.08816463 -0.080280766 -0.06443757 0.030007908 -0.015142085 -0.08483822 -0.01794029 -0.08016733 -0.027720556 -0.062019464 0.06264548 -0.008872021 0.0459243 0.036709573 0.017870987 0.033026345 -0.05413066 0.037357196 -0.01515824 -0.048802547 0.04345527 0.07665136 0.06201888 -0.085831314 0.085633494 0.02489141 0.06548222 -0.044062454 -0.052102286 0.07757211 0.07621118 0.033773426 0.020403424 0.026810696 0.049892742 0.03449539 0.040594116 0.056186285 0.03492177 0.036293574 -0.048940107 0.0011184843 -0.05393561 0.015904883 0.029947737 -0.00048281852 0.01017155 0.06278638 0.03708833 0.008682406 -0.025152566 -0.07003545
flush -0.0594802 0.029583456 -0.009647902 0.0068603028 -0.06705427 0.03426839 0.023760078 -0.086319566 -0.027721012 0.071963534 0.054350406 0.045145318 0.04832405 0.015824212 -0.015997188 -0.03797637 -0.011888034 -0.04144151 0.022437746 0.026745109 -0.012700636 -0.07555409 -0.043802876 0.075724624 0.085217535 0.07898157 0.06451417 0.040415175 0.053897426 -0.02937683 -0.004506564 0.07882231 0.0069865575 0.022831326 -0.046946764 -0.030255366 0.09025866 -0.066291794 -0.043397397 -0.022845397 -0.021137835 0.070216574 -0.07699938 0.042025104 -0.08029749 0.045195293 -0.055126633 0.0010925187 -0.057454742 -0.032763015 0.074719675 -0.00016069971 0.010306426 -0.07027379 -0.00322057 0.017011864 -0.018924685 -0.008011405 0.028055895 -0.006976353 -0.012619021 0.044973828 0.03531306 -0.02274505 0.0068897028 -0.0054783057 -0.032735776 0.009254747 -0.06849826 0.050045192 -0.044799503 -0.07500758 -0.0155364135 0.035152532 -0.02704736 -0.059565503 0.04133449 -0.061500393 -0.0064875092 0.0038286475 0.07678755 -0.08870384 -0.051556878 -0.024983937 0.054493256 0.0021457782 -0.044166945 -0.085186236 -0.028559158 -0.07494805 -0.029700043 0.067719094 -0.069100514 0.07326979 0.040967636 0.017286852 -0.06273068 0.053939957 0.07384552 -0.07595602 -0.042110752 0.07454114 0.025186896 -0.065324314 0.0703049 -0.03633156 0.02765852 -0.027276274 0.0012696969 0.027144283 -0.010328145 -0.06270912 0.06206176 0.066830605 0.056273565 0.00856734 -0.015114502 0.07705828 -0.040023115 0.06857324 0.04340237 -0.018107519 0.0424641 -0.054276526 0.08616741 -0.06276041 0.057935804 -0.019612407 -0.04673693 0.055135842 0.075395234 0.041860964 -0.053800665 -0.048708588 -0.028649837 0.032395817 0.059936512 -0.022282772 0.083765544 0.084838994 0.08505839 0.055685878 -0.0064677484 0.08256196 0.0726086 -0.00037229236 0.055170376 0.011407319 -0.028033556 0.07135625 -0.014384288 -0.0842677 0.010629835 0.0113935005 -0.009078682 0.066755764 -0.07856372 -0.07324265 -0.07758771 -0.029403804 -0.047884807 -0.00143662 -0.079017065 -0.0685692 -0.015370313 0.040022574 -0.031622436 -0.06430571 0.06414092 0.022825638 -0.008657815 0.011499264 0.06421453 0.0612875 -0.018041141 -0.017022403 -0.036749292 0.03825114 -0.031970475 0.018423539 0.047945164 0.0021409271 -0.076921105 0.0697996 -0.052628748 -0.017743738 0.041836284 -0.015207524 0.066728614 0.014022047 0.037691787 0.070165515 0.07730522 -0.06578739 0.07696832 0.05841569 0.06590335 0.01680077 0.04129704 -0.014392979 -0.043808278 0.08027406 0.045361117 0.059705347 0.044626817 -0.04280527 -0.038528845 -0.0032352754 -0.038597893 0.041201457 0.054858655 -0.028634554 -0.009189434 0.025709629 0.021435315 0.021627437 -0.06303647 0.08088268 -0.011934634 -0.024964955 -0.044750325 -0.041791316 0.08135806 0.03572435 0.029054692 0.0076243775 -0.07091039 -0.011630413 -0.042692978 0.061933644 0.035875488 0.04429493 -0.053469565 -0.07274732 0.017962845 0.08199477 0.07343717 -0.07190135 0.04554326 0.018862337 -0.021175921 0.04415726 -0.0045018326 0.04947701 0.027674206 0.00032988493 -0.045173958 0.03379359 0.06036493 -0.07551959 0.07479153 0.026731765 -0.038094938 -0.036354054 0.0576826 0.039565943 -0.06064222 -0.029287118 0.027128208 -0.07631353 -0.06870371 -0.019352134 0.07726153 -0.0056795487 -0.07796567 0.027581008 0.042754516 0.009672059 0.046855953 -0.09038375 -0.005746193 0.052371874 -0.045368407 -0.076788805 0.07902743 -0.08460196 -0.045723315 -0.0040752017 0.046921235 0.018494945 -0.035424963 -0.008957979 0.006630754 -0.069747604 -0.06934386 -0.07107936 0.05784484 -0.045603424 0.02286061 0.053179286 -8.054939e-05 0.015793843 -0.04458107 0.06470023 -0.032419335 -0.065393016 0.012761856 -0.04393287 -0.044667896 -0.044289265 -0.07507005 -0.036962315 -0.056636393 0.0009063382 -0.0008167585 0.07218259 0.04179811 -0.08395596 -0.05539155 -0.001639623 0.012364694 0.024966933 -0.0066592842 -0.05986273 -0.062194277 0.052992366 0.04055035 0.048686188 0.08872101 0.05908924 -0.07805261 -0.07893577 0.05070744 -0.07745324 -0.08445616 0.072326034 -0.047679257 -0.05802615 0.027752556 0.007040901 -0.0063280663 -0.011200686 0.08097165 0.0063251276 0.036667295 -0.04662717 0.045099035 0.004692848 0.04719705 -0.036218777 0.045607425 -0.059476662 -0.024618173 0.041246857 0.0023139603 -0.08159217 0.008540404 0.028978352 0.0010493938 -0.047629163 0.06522073 -0.0031678122 -0.029397113 -0.043655332 -0.07252733 -0.03356581 0.015226684 -0.019152133 0.062199935 0.076590165 0.084397376 0.00940836 -0.0072305375 0.084297314 -0.028501173 0.028375834 0.0543476 0.06307514 0.07262354 0.008120894 -0.08956533 0.0632357 -0.03933357 0.0484085 0.07966231 0.079283565 -0.0818856 -0.049789377 0.02413358 0.06153103 -0.030511884 0.018191326 -0.0060069007 -0.026219087
sqr -0.052447293 0.026517421 -0.037121683 -0.011423174 0.05969587 0.007662641 0.03525864 -0.05252343 0.0037876908 0.035324957 0.029024052 0.057630956 0.01358551 -0.047931213 -0.08060636 -0.015561409 -0.04214803 0.044150073 0.052068617 -0.019163307 -0.067496374 -0.03946651 0.043551378 0.042449925 0.008083392 0.0403236 0.006048364 0.052535694 0.015435482 -0.07901176 0.050104506 -0.010193486 -0.00026777876 -0.07839997 -0.05272781 -0.075721666 0.059175733 0.05931849 -0.08700095 -0.028575912 -0.04367463 -0.014018251 0.008305129 -0.063208416 0.004482329 0.04443987 -0.0049321153 0.032103408 -0.074898176 -0.07863646 0.0016405123 0.03875395 0.042382672 0.019003056 -0.001956528 0.067628466 -0.04777391 0.02730796 0.039639175 0.020088509 0.06471964 0.06988469 -0.06992964 -0.015356806 -0.022918068 -0.04244992 -0.073329456 -0.0566651 -0.06018024 0.028202465 0.020576233 -0.03305633 -0.027345255 0.074413024 0.04620642 0.047839876 -0.051534317 -0.08219395 0.083090104 0.06286213 -0.037956133 -0.057505507 0.0343885 -0.012472236 -0.076001294 0.04616985 0.029892989 -0.05492088 0.049366716 0.036749545 -0.06889244 0.076062866 0.007534575 -0.06648838 -0.011275339 -0.0032545016 0.07490027 -0.08329988 -0.040729485 0.02161398 -0.08600052 0.054777425 0.005654266 -0.077395655 -0.018794872 -0.049874816 0.01865424 -0.02321022 -0.075603865 -0.019699972 0.08377687 -0.04353879 0.012666329 -0.028506823 0.037446547 0.08677506 0.06483313 -0.0155815 0.050189503 -0.024389833 -0.05081815 0.08116938 0.020620132 -0.067490146 -0.013115499 -0.05770311 0.05013723 0.024829017 -0.089802146 -0.061159547 0.027278222 -0.05141168 0.04988148 -0.059035767 0.07309847 0.008077059 0.0057881065 -0.07876392 0.021236794 0.06434406 -0.08168604 -0.025515996 0.03770705 0.042173285 -0.00568491 0.0032166948 -0.064015456 0.0737482 -0.016619612 0.033376653 0.06333624 0.047816046 0.03411924 0.06485559 -0.081473805 -0.08685263 0.078046195 0.05901841 -0.018286083 -0.032750715 -0.0787546 0.08113278 -0.036278844 -0.01398863 -0.05278268 0.02998197 -0.06533118 -0.06802117 -0.026090581 -0.06235249 0.025235971 0.030137628 0.0732737 0.040851556 -0.0045504654 -0.06469722 -0.017786305 0.058050953 0.007332188 -0.024165293 0.07545014 -0.025289997 -0.023732185 0.07808272 -0.021850662 -0.053950768 0.07645302 0.06922583 -0.043983005 -0.0020327466 -0.022919685 -0.018610904 0.06229924 0.06017507 0.07220028 -0.07661671 0.0036694943 -0.045483295 -0.07710156 -0.08027902 0.04827559 0.016568122 0.03472497 0.036677238 0.055479072 0.013963853 0.07922442 0.08436903 0.009007217 -0.06624858 -0.06708156 0.00694953 -0.007076113 0.035190325 0.039755262 -0.06508777 -0.06801515 -0.048754036 -0.035608836 -0.0138043035 0.060095925 -0.04832191 -0.07558528 0.010036997 -0.05094542 0.0026187613 0.03726712 -0.0723278 0.0144873895 0.06505106 -0.04930444 -0.044304658 -0.0047186962 0.079420626 -0.011151715 0.013045309 0.03821522 -0.076273195 -0.07602052 -0.045483273 0.07610466 -0.07158031 0.044389572 -0.062590994 0.06846777 -0.031679995 -0.07658622 -0.046084903 0.08162494 -0.026410492 0.0085526565 0.03809481 0.08410546 0.07554915 -0.0151502285 -0.0072997035 0.054909885 -0.06620827 0.077006534 -0.0387922 0.07712182 -0.013759444 0.0032945124 0.027697783 0.01885462 0.06516817 -0.07602127 -0.02485092 0.016356962 -0.04108237 -0.04434962 0.027134579 0.006650717 0.057062387 -0.051245764 0.0028894208 -0.06636579 0.014807468 0.04629262 -0.060991634 0.050667875 0.0014591555 -0.08160999 0.016389793 0.068082474 -0.034718037 0.02541134 -0.0031331745 -0.05908496 0.058311112 -0.05643455 0.012965414 0.074391976 -0.06225006 0.0066209137 -0.061098173 -0.06749257 0.072504975 -0.007592779 0.0421304 -0.036644075 0.07903979 0.015977936 -0.022804439 -0.08079899 0.07188446 -0.06290089 0.029537726 -0.036089834 0.011205282 -0.07757872 0.03991263 -0.051558837 -0.046109024 -0.008508274 -0.08014867 0.0070800306 0.008229179 0.08198241 -0.013563025 -0.00023296301 -0.054444965 -0.0690975 0.06708724 -0.040149197 0.020899536 -0.06844912 -0.020890526 -0.011126316 -0.012306415 0.028914478 0.0027486044 -0.013917742 0.06788154 -0.08388732 0.044093933 0.03672997 0.075241506 0.0166763 -0.033212595 -0.070991695 -0.059784155 -0.034124084 0.053181015 0.06077288 0.08292356 0.06432685 -0.023666853 -0.016753245 0.048662733 -0.04639532 -0.005472555 0.02917199 -0.08241028 -0.0050473996 -0.006215118 -0.04166065 0.07637283 -0.023263862 0.045872793 0.00962477 -0.00097059784 -0.046951283 -0.057366308 -0.04468442 0.020400148 0.08563413 -0.084246896 -0.039735846 0.008306608 0.07996004 0.07850225 -0.025203846 -0.05808382 0.043405153 0.008920375 0.03034486 0.0678276 0.08003606 0.044873964 -0.0028256 -0.033616945 0.071632534 -0.07310058
abs -0.014078695 0.018010534 -0.036659285 -0.07918707 -0.023083976 0.07270987 -0.036706198 -0.046595026 -0.078307666 0.06412307 -0.057036493 0.03245258 -0.06498715 0.01697989 -0.062268466 0.003982599 0.025358163 0.06928793 -0.08294939 -0.009225898 0.077643536 0.080418564 0.073696196 0.0777072 -0.008506801 0.067719854 -0.026197694 0.059788983 0.07338886 -0.021228174 0.06302989 -0.04672706 0.06089394 0.08974982 0.029498994 0.015306992 0.014673309 0.062790014 0.052079424 -0.06028537 0.03387618 -0.033693172 -0.018396163 0.02130469 -0.047224253 -0.022364104 -0.024558024 0.012832341 -0.07731677 0.026693547 -0.0726195 -0.052534 0.046291612 0.040398005 0.024035037 0.077511095 0.020259768 0.053250596 0.08652351 0.04546684 0.014083588 0.024440125 0.06104774 -0.07779646 -0.012229144 -0.08413826 -0.054168142 -0.058920674 0.008607534 -0.04949968 0.017643142 -0.05970724 0.04199786 -0.009940371 -0.064208634 -0.084845886 -0.08258022 -0.063447155 0.060865436 -0.05027466 0.043429323 -0.02293858 0.05396403 -0.032305986 0.038123395 0.06933153 0.08588789 0.06540686 -0.062021114 0.058245007 0.03528769 -0.065527156 0.038523212 0.074322715 -0.046944533 -0.046765693 0.029285228 -0.0038566566 0.06790971 -0.08897312 -0.06986669 -0.08056136 -0.04157619 0.056790918 -0.022169601 0.08356004 -0.029840395 0.0016750119 -0.0022347413 0.050785802 -0.066141374 -0.075083576 -0.0032101097 0.064463764 0.01750832 -0.07709088 -0.013563945 -0.015501542 -0.017417144 -0.083455026 0.06819079 -0.07377749 0.043533344 0.060606413 -0.053281493 -0.028807018 0.029014712 0.048096675 -0.04491172 -0.08951026 0.06331331 0.025209837 0.08342406 0.06322322 0.02506501 -0.080128014 0.07297912 -0.012279664 0.050478417 0.034215722 -0.062279325 0.04347049 -0.02490194 -0.059620123 0.08129402 -0.03676141 -0.040891483 -0.022417769 -0.034240168 0.08132126 0.08934367 0.07284039 0.017728005 -0.062223498 0.03512941 0.028852122 0.024767457 -0.026919708 -0.0030367328 -0.02373416 0.0147160115 -0.055865742 -0.047523588 0.07848172 0.08146416 0.03488674 0.017229088 0.054996807 0.01810763 0.021733603 0.03306236 -0.059430394 -0.05139133 0.041577786 0.07477582 0.028476143 -0.040921904 -0.08298812 0.013806881 -0.03384221 0.031908255 0.069394305 0.02732919 0.011066821 0.030107038 -0.018832618 0.045621824 0.054695223 0.043936897 0.019181795 0.07036069 0.030668622 0.074302755 -0.021000074 0.040142007 0.019185398 0.012909552 0.04607522 -0.02787421 -0.07807161 0.0068345866 -0.043334868 -0.051584642 0.053921916 -0.08237149 0.080611415 0.0089458525 -0.031958506 -0.06691291 0.030103441 -0.0547772 -0.07373057 0.00061615196 0.019501373 0.031930063 -0.06331561 -0.019421495 -0.019662088 0.006380243 0.032794498 0.027970556 -0.061910097 -0.01045573 0.084408455 -0.050192874 0.08164403 -0.06641576 -0.05176171 -0.020597305 -0.00077472295 -0.080586866 0.015399679 0.007257449 0.05548903 0.009993501 -0.06610437 0.0782927 0.010668989 -0.027388388 0.05338105 -0.05447489 0.04719789 -0.04367147 -0.080399476 0.019518318 -0.033432703 -0.06317652 0.08836264 0.014147212 -0.06055651 -0.07697324 0.0677958 0.011863449 -0.05832405 -0.07258553 0.044975985 0.007843244 -0.029140567 -0.07485554 -0.027354388 -0.0033564991 -0.023597902 0.015697774 0.079104066 0.002749748 -0.022891032 -0.05264685 -0.06082817 -0.079589285 -0.045762606 -0.024039373 -0.0722141 0.047834653 -0.052062407 -0.07475235 -0.03249348 0.0348816 0.050014753 0.024806743 -0.046191957 -0.045452815 0.0059877476 -0.066868365 0.06695684 -0.074556276 -0.050326854 -0.019419858 0.03926874 0.06862419 -0.029445346 0.0710476 -0.0039376006 0.043999884 -0.009661266 0.019253686 0.07382941 0.031774744 0.07183255 -0.04132781 0.06914283 -0.035325587 -0.0625845 0.024886208 0.008967841 0.029142085 -0.04634154 -0.079309575 -0.004082691 -0.046778698 0.03913113 0.043566488 -0.061234355 -0.015009926 -0.025976313 0.045706764 0.05656125 -0.015665412 -0.0791054 -0.025036188 0.07817005 -0.049343117 0.062717475 0.018781664 0.019955985 -0.02889093 -0.009590215 -0.08747837 -0.08092655 0.061179936 -0.08029416 0.04611491 -0.026260225 0.025245203 -0.075700864 -0.08018846 -0.08371204 -0.070801236 -0.06244998 -0.0104183955 -0.031908672 -0.04707797 -0.07335906 0.057351023 -0.0045520337 -0.088225275 -0.03463069 0.031994857 -0.0517461 -0.08702096 -0.03960806 0.015687082 0.020636344 0.029610377 -0.07477146 -0.031644456 0.0052366555 -0.025831852 0.058629237 0.058729522 0.07029378 0.059122667 0.027964825 0.00306337 -0.06545246 0.055971246 -0.01107582 -0.059232894 -0.060711976 0.027327359 -0.06706533 0.0037346205 0.016588705 0.046098564 -0.0703288 -0.07777783 -0.015163468 0.068682596 0.0562058 -0.078853995 -0.02774301 0.017846001 0.08424177 -0.018544996 0.08335242
get|string 0.075787686 0.0717826 0.022907155 -0.06733938 0.046841647 -0.014231784 0.028133497 -0.0012802123 -0.05805549 0.047404714 0.037072115 -0.046286594 0.00602837 -0.030135145 0.05388538 0.0219739 -0.04658907 0.076561525 -0.06805012 0.004052431 0.0042599365 -0.02389485 -0.05353391 -0.088709764 0.03878197 -0.056756027 -0.083140366 0.06365694 -0.007816704 -0.03439449 -0.038147226 -0.0029117195 0.035338722 0.03349741 -0.032252554 0.036663454 -0.06099488 0.030172965 -0.07026436 0.061522588 -0.08112286 -0.084884174 0.050000608 0.034875877 0.014749375 0.019902743 -0.012231676 -0.037220657 0.044176225 -0.024461294 0.042891316 0.05469524 0.05320618 0.064556755 0.063317165 -0.037081577 -0.021333585 0.036630448 -0.040841825 0.07792929 -0.070296936 -0.019550502 0.037178338 0.020209929 0.07773011 0.027651466 -0.059732616 0.032957144 -0.0732999 0.053465106 -0.023565093 -0.0059723738 0.05783472 0.063968726 0.027809054 -0.057312556 0.059561376 0.018891903 -0.06340103 0.011442608 0.051585913 -0.07086567 -0.043363728 0.063971415 -0.07798513 -0.00026812486 -0.020055411 -0.07446131 -0.024865104 0.085782215 0.08343054 0.0054067043 0.03425351 0.06973052 -0.0470041 0.0006381606 0.036036704 -0.079948254 0.04876881 -0.010678834 0.028289651 -0.025456227 -0.05254796 -0.054583125 -0.0669636 -0.039864674 -0.06471584 -0.009598099 -0.06207018 -0.06978344 -0.0021532127 -0.026018549 -0.0015007099 0.0052136662 -0.008040418 -0.052869562 0.08062358 0.015019784 0.074642986 -0.050681956 -0.044877168 0.006703243 -0.036701493 -0.040286493 0.04103823 0.080493726 -0.012158734 0.047744986 0.022444159 0.02944285 0.06706871 0.06398227 0.024876462 -0.059612013 0.024981527 -0.060058966 0.08240564 -0.02008791 0.080283135 0.050085943 0.05435535 -0.03270728 0.018407317 0.01347796 0.009386039 -0.06777676 0.08246198 0.06567937 -0.07578562 0.054625202 -0.07685584 0.05109967 -0.056283772 0.086424954 -0.069614395 -0.03663314 0.08110541 -0.014757617 0.044331543 -0.0070942626 -0.00058062375 0.0807378 0.015717838 0.026429214 0.042472005 0.027242487 0.031342197 -0.05861342 0.08494464 0.0626019 -0.06464234 -0.077054165 0.016343853 0.0008766439 -0.06565964 0.054274257 -0.007930014 0.055771384 -0.02447862 0.04301015 -0.032928854 0.04173234 -0.008589983 0.08911868 0.026923945 -0.039402068 0.009687851 -0.035345845 -0.004178035 -0.077989854 -0.06319358 0.003993528 0.035942353 0.05736276 -0.066550076 0.07357871 -0.060302 -0.052110244 0.043902125 0.038895153 -0.07033199 0.0074008466 -0.056026265 -0.038411684 -0.07023022 -0.022224454 -0.009791735 0.04733027 -0.0044702785 -0.025127029 -0.08509918 -0.008036552 0.059045408 0.051561166 0.029241042 0.0594688 -0.021808583 -0.06346921 -0.004938437 0.048473936 0.067208216 0.03344758 -0.08316349 -0.0683169 -0.0855728 -0.050049353 -0.017405398 -0.019150097 0.05601047 -0.036605425 0.010825453 -0.03404787 0.08835316 -0.069844924 0.013042052 0.084763184 -0.00022859429 -0.007484211 -0.014795302 0.038208485 0.009634706 -0.068034016 -0.0005031148 -0.050507147 0.018336168 -0.031900086 0.072722234 0.07891104 0.019622719 0.07317366 -0.0703416 0.041324113 -0.06616714 -0.062465772 -0.03910725 -0.010311335 0.06411504 0.067006074 0.0764343 -0.054903444 -0.057124797 -0.007744442 -0.06163443 -0.013777509 0.06441498 -0.009531847 0.059589583 -0.06514653 -0.08156147 -0.08996661 0.023720251 0.015445224 0.05694476 -0.03377206 -0.060944874 -0.02860374 0.022882532 -0.033762105 -0.0057167457 0.024925929 0.004143819 -0.032927968 -0.01673099 0.09010843 0.01016721 -0.029421944 0.07488187 0.07629148 -0.049409356 0.08330766 0.032876454 -0.08376608 0.021030683 0.07351092 0.051842622 0.03377649 -0.021350069 -0.010747738 -0.07363944 -0.06920621 0.013600457 0.079393625 -0.07901313 -0.080076404 0.029039856 -0.06345412 0.025828674 0.05362683 0.0498777 -0.051976148 -0.015436172 0.034760002 0.0012562608 -0.072778255 0.07570457 0.01186078 0.069339216 -0.042142197 -0.08342438 -0.0020771003 -0.060371153 0.039898694 -0.03420455 -0.015323803 0.08539552 0.04467559 -0.046296317 0.0148037 -0.058056135 0.075481616 0.0007946538 0.086670145 0.009464137 -0.025716389 0.077432334 0.019725487 0.034326095 0.0039933645 0.03150549 0.056696832 -0.07741299 -0.05857395 0.026562799 0.030389879 0.065952055 -0.06616984 0.038893666 -0.061087165 -0.04158082 0.07293012 -0.029478777 -0.055433076 0.08563566 0.036263533 0.049680695 -0.04398654 0.014062706 0.007905487 0.07556783 -0.023767004 -0.008350942 0.029523244 -0.031307 -0.07478419 0.081975386 -0.043262858 0.025755841 -0.07721468 -0.08073117 -0.07612357 -0.060134575 0.0151820285 0.031234289 -0.032428447 0.019129409 0.08616871 -0.011505236 -0.036486235 0.010712424 -0.045253832 -0.0251419 0.0091166645 -0.043369707 -0.061315186
gcd -0.030006912 -0.008061731 0.012251788 0.026832879 0.080482416 -0.052910496 -0.04972888 -0.055024534 0.051336937 -0.05184687 0.041912895 0.031389788 -0.08241085 0.017622191 0.059120994 0.05535227 -0.07804427 -0.02397798 0.012110836 0.045177113 -0.07224638 0.06143168 -0.08218584 0.0711554 -0.046791032 0.017386816 -0.07356017 0.065616965 -0.08958057 0.049631406 -0.072607584 -0.033127427 -0.030332593 -0.005441216 0.0035642388 -0.031303037 -0.079066314 -0.07365338 -0.034992065 -0.0835592 0.06459505 -0.031046897 -0.07073621 0.0046044197 0.0036868479 0.001893237 -0.02199741 0.014181294 -0.039821282 0.009155461 -0.03929259 0.04632172 -0.08102065 0.03239053 0.05155737 0.08074881 0.0020584876 0.04729356 0.05417822 -0.0813719 -0.056478 -0.06530559 0.0014084968 -0.019586738 0.06971781 0.034759864 -0.008921151 0.08245689 -0.04083391 -0.078855924 -0.03907285 0.010247353 0.019176248 0.06898831 0.051363256 -0.021254651 -0.07989545 0.08584199 0.012264691 0.03591291 0.06759132 -0.06699163 0.066274114 0.027900562 0.08208054 -0.0477896 -0.020938829 0.05223047 -0.0507284 -0.010336622 -0.03070185 0.04567169 -0.0156329 0.06318659 0.02573573 -0.031314418 0.016187351 -0.078579366 -0.033377282 -0.025627594 -0.04191551 0.03824951 -0.0789438 -0.047164284 0.019622898 -0.032480337 -0.03454562 -0.0038740793 -0.015170879 0.0124882795 -0.049086127 -0.035178445 0.064060986 0.028913079 0.068171985 -0.053526018 0.07606856 0.02455861 -0.006368779 0.0783577 0.062901124 -0.0777217 0.033959698 -0.081459604 0.035149846 0.04613194 -0.084237754 -0.06625826 -0.07772583 0.040203776 0.081808686 -0.05789899 -0.008585087 0.038559616 -0.07368124 -0.0014815866 -0.011477306 -0.026321338 0.013298325 -0.06480509 -0.042223375 -0.0052464735 -0.010767235 0.04602907 -0.07845811 -0.084614046 0.080742456 0.04506454 0.04600099 -0.011740986 0.014143193 0.063443154 -0.047556818 -0.081966214 0.080752335 -0.008951293 0.07085609 -0.08756932 0.016000185 -0.07365481 0.049019672 0.02540228 -0.02554209 -0.0773492 -0.06410639 -0.025293205 -0.034339704 -0.037681587 0.06423138 -0.022308959 0.005605084 -0.061056644 -0.06698157 0.025156025 0.029826349 -0.06640993 -0.087149255 0.056164626 -0.021082066 -0.064683765 -0.005002003 -0.051357914 0.0455744 -0.08624575 0.084812276 0.05086787 -0.08471158 -0.08616009 -0.07416401 -0.03481396 -0.031219805 0.05414421 -0.025476314 -0.057683736 -0.010871781 -0.07733327 0.013236496 0.07790785 0.04862053 -0.07644802 0.06514993 0.088022195 0.034670692 0.006201767 -0.016237296 0.0565817 0.08585455 -0.064263284 0.031347074 -0.07701334 0.06990918 0.0647031 -0.06426181 -0.040553056 0.021803442 0.079261556 -0.06336714 -0.042598702 -0.015706602 -0.057877343 0.054124724 0.055592563 0.063530445 0.03483756 0.07133778 0.082955815 -0.08470153 0.08665253 0.05489347 -0.024909835 -0.03476822 -0.07062362 0.059587497 -0.053772334 -0.033100422 -0.01800918 0.04841247 0.039494842 0.054931402 0.06914434 0.013057956 -0.034470614 -0.02923885 0.019146023 -0.05732895 -0.026734034 0.09035637 0.01806544 -0.036790166 -0.011382755 -0.01763793 0.060701378 0.073293805 -0.038847167 -0.020937702 -0.016881535 -0.021275587 0.0627605 -0.064336844 0.03189467 -0.005208028 -0.03321372 0.0008544754 -0.04916793 -0.07158842 -0.039453264 -0.07309914 -0.045748614 0.039524853 -0.080829665 0.007857608 0.0077865226 -0.052911557 -0.002890224 -0.0017328409 -0.0806279 -0.06266677 0.03643224 0.032590482 -0.030625382 0.001445878 0.060853485 -0.011647085 0.0238743 -0.020533107 -0.031270914 0.065080054 -0.08794609 0.030717555 0.043465726 -0.080815345 0.037353095 -0.023076814 -0.057453062 -0.021916497 0.05870995 0.04093069 0.057180006 -0.032341253 -0.03454144 0.044950273 0.08883438 0.067024894 0.04700054 -0.048834495 -0.003894208 0.026564296 0.02699947 0.0828385 -0.04382132 0.059297174 0.051216107 -0.0027431208 -0.0061146966 0.060795356 -0.085865304 -0.04923103 -0.005957989 -0.0657642 -0.016089508 0.003647237 0.014898888 -0.05161708 -0.026556117 0.07819917 0.04879298 -0.07231265 0.047949795 0.0075898925 0.05644575 0.08143871 -0.08896698 0.08167039 -0.047689334 -0.048789214 0.035165098 -0.035147723 -0.059563465 0.045127146 0.06686943 0.026392834 -0.012031766 0.055146288 0.01714067 0.048099786 -0.022016615 0.065322325 -0.022252876 -0.009675904 0.03318445 -0.043938294 0.031128896 -0.07260783 0.0032385099 -0.037998553 0.017802415 0.050812628 0.034991603 0.042459175 -0.066624746 0.08803219 0.06549823 -0.07158939 -0.0004527197 0.006544614 0.03323671 0.023925563 -0.08382509 -0.077778384 0.061511707 -0.009869486 0.030835407 -0.00983371 0.044427205 0.0498266 -0.027680501 -0.01750004 0.041684557 0.005872684 -0.0026125126 0.068093434 -0.07647828 -0.074064925 0.0007230027
num|inversions -0.029454475 -0.017280739 0.04617064 0.032971807 -0.047482133 -0.06486549 0.0028400929 0.0036079122 0.03193254 -0.011776999 -0.045353014 0.059480336 0.054755837 0.07432864 0.015719289 0.06225401 0.02324527 -0.016965693 0.068912044 -0.02022843 -0.021232132 -0.018662643 -0.015495725 0.08291188 -0.032944433 -0.05282987 -0.08569126 -0.073629275 -0.07100294 -0.010979628 -0.053072292 -0.08180602 0.01735323 -0.0778531 0.014891883 0.038161453 -0.026543325 -0.044670798 -0.06281563 -0.010337171 -0.06257447 -0.068007186 -0.012897938 0.06301641 -0.03148117 0.079041205 0.046719108 -0.0023543925 -0.082608804 -0.042409882 0.011899709 -0.030959956 -0.01936757 -0.074337386 0.0069710934 -0.057823166 -0.01623545 0.024282575 0.038901895 -0.04476603 0.011793311 -0.02429127 0.048222713 -0.05361984 0.017659225 -0.015587006 -0.029347943 0.029373275 0.031081023 -0.0059360615 0.06859985 0.036318354 0.08441722 0.0023835993 0.038056735 0.08049027 -0.025202852 -0.076604806 -0.06742947 0.08461886 0.038209468 -0.0024716193 -0.007900648 0.04946452 -0.06830374 -0.02403632 0.061994378 -0.03610886 -0.03776655 0.088989176 0.014354918 0.015809547 0.06764857 -0.037934646 -0.05260449 -0.039506506 -0.07853129 0.079190075 -0.06577534 0.07688135 -0.04736726 0.024140391 -0.058975566 0.03904267 -0.0045187823 0.05714941 0.004914874 -0.06254764 -0.052152444 0.02514939 0.0643256 0.022439623 0.08552115 -0.026442425 -0.07693091 0.086542696 -0.009990091 0.0015537117 -0.06313607 -0.00032357228 0.034111824 0.0057595493 -0.007246218 -0.02226961 -0.067328885 -0.06969787 -0.00030320894 -0.033334523 0.08467841 -0.06875393 0.015388583 -0.047631916 -0.00942228 -0.02973669 0.011359064 -0.0033398953 -0.07404936 0.059537664 -0.07638058 -0.08270918 0.06509736 -0.0040690526 0.0016202134 0.086458005 -0.06424321 0.032969486 -0.08077369 -0.009496132 0.0287907 -0.056504093 0.0072670854 0.041745357 -0.017287267 -0.08127842 0.030431494 0.037326645 -0.012574422 -0.057558432 -0.061772633 0.06097673 0.062019702 -0.06599112 -0.0014009525 -0.029815337 0.07068703 0.07891493 0.0072907195 0.01785092 0.02873337 0.027860222 0.03089938 -0.02903682 0.064984724 -0.039531786 0.013947398 0.05550761 -0.015072736 -0.07671694 -0.07918706 -0.052722577 0.034929033 0.08457892 0.045688674 -0.026229795 -0.018281834 0.029214337 -0.015481066 -0.075014345 0.07383059 0.013196464 -0.028394729 0.03278404 -0.037765842 -0.04027256 -0.06471894 0.029141283 -0.03855467 -0.03296137 -0.072859645 -0.0030587174 -0.03783782 0.070156425 -0.044362616 -0.011644723 -0.014052203 0.04845914 0.06952284 0.056220867 0.042186797 0.0752516 0.000281105 0.054547936 0.07996802 0.014302439 -0.04532932 0.029071458 0.025713982 0.048451975 -0.07556273 0.0666753 -0.06736406 -0.06425942 -0.05174447 0.03640974 0.05409577 0.032778066 0.08581334 0.059350435 -0.0025161842 -0.067444876 0.035264563 0.025167061 0.049784645 0.024540069 -0.05154423 -0.041791547 0.04898576 -0.0383952 0.08337321 -0.027672919 0.06573117 0.030454248 -0.03599315 -0.08490705 -0.018104455 0.006821758 0.009152492 0.00475956 -0.0121885445 0.059662137 -0.041193876 0.014763348 -0.06874066 -0.057907674 -0.024508707 -0.01593661 0.08720013 -0.05986925 0.089259796 0.006532695 -0.013925575 0.07626452 -0.049205728 -0.06267669 0.030535186 0.010861109 -0.06540897 0.06311513 0.021547427 -0.0741065 0.08160134 -0.07812943 -0.00081299496 0.04008292 0.015366393 -0.019138506 0.086148016 -0.05020199 0.031955756 -0.011784851 0.0034059945 -0.05974766 -0.01128901 0.064360425 -0.011103223 -0.06339503 0.07953025 0.05357267 -0.07655829 0.04093829 -0.052300446 0.053915 -0.044614978 -0.021118263 -0.07756181 -0.052934818 0.024210943 -0.035345692 -0.011514961 -0.008727991 -0.059337106 0.026925633 -0.08576027 -0.027910108 0.07853385 0.010113161 0.035167128 0.084935665 0.024038076 0.036964692 0.0064810156 0.050178062 -0.07635032 -0.006232921 0.06611749 0.030266652 -0.07295547 -0.02386701 0.00090854784 0.04232658 0.01562849 -0.0009669296 -0.06574932 -0.007653083 0.035101037 0.060076363 -0.056235302 0.050402217 -0.033850674 0.0042156964 -0.064706326 -0.05327576 0.028253945 0.02338605 -0.080330014 -0.032072715 0.07989164 -0.03016034 -0.04094628 -0.0141838165 0.06946852 0.044408295 -0.009650768 0.016949361 0.022176856 -0.009481208 -0.0011218234 0.035323463 0.047732577 0.04058268 0.021744058 -0.049769722 -0.035728015 0.0027158265 -0.080366604 0.02087314 -0.085998215 -0.05488516 -0.081347585 0.081013605 -0.014653466 0.039958537 -0.06801076 -0.07973703 -0.027858842 -0.08319025 -0.023383006 -0.031243348 -0.06990804 -0.05651407 -0.021137916 -0.062242933 0.016458627 0.026236447 -0.046757493 -0.04201785 0.0029651027 -0.08195856 0.006984421 0.08332396 0.014226373 -0.08524989 0.00723384 0.0670466
