16 384
<PAD_OR_OOV> 0.016412454 -0.08430883 0.04975065 0.020932598 -0.056264985 -0.0046519614 0.030275587 -0.0024199008 -0.0027271374 0.037674878 -0.016492277 0.0073299366 0.004402479 -0.016841784 0.027220145 0.07270646 0.07766509 0.052780107 0.057746258 0.08598579 -0.047656346 0.022932762 0.007848887 0.06291674 0.024882335 -0.08586586 -0.009012907 -0.06640655 0.017220855 0.07381741 0.06851438 0.031077921 -0.04356067 -0.005986854 0.07063744 0.016326036 0.07397304 -0.072363645 0.0036520804 0.07044746 0.080445394 0.018761877 -0.04176832 -0.06118678 0.059653703 -0.07108744 -0.03281245 0.08463463 -0.06909511 0.03827704 -0.0061707236 -0.06218958 -0.0068319226 -0.032636873 -0.035441227 -0.05257393 0.042521916 -0.04116898 0.062469352 -0.037165176 0.0770324 -0.086162135 -0.038175102 -0.06618238 -0.05906837 -0.06551829 0.059439126 -0.08235507 -0.042950418 -0.020842178 -0.08353617 -0.041744005 0.07179851 -0.021277446 -0.027923718 -0.07038282 0.017626027 0.07949399 0.085357144 -0.03478891 -0.06263149 0.04476395 -0.073544875 0.015814295 -0.06939895 0.01744106 0.04047056 -0.06749541 -0.07132179 0.07338002 -0.06186897 -0.016288819 0.083262555 0.052843176 0.08802368 -0.06728871 0.049681783 -0.005524987 -0.027414143 -0.0050340504 0.05862132 -0.05307163 -0.079661116 0.07429006 -0.07933679 0.02692888 0.015730968 -0.035141096 -0.031945735 0.04816489 -0.061001845 -0.041569643 -0.04179178 -0.0095679825 -0.06604587 -0.064495645 -0.008439752 -0.013187671 0.009461955 0.06643933 -0.043797616 0.07591866 -0.056877147 -0.08185244 0.04901181 0.018272439 -0.0656582 0.05009712 0.049116865 0.03851762 0.08335494 -0.034592275 -0.07162406 -0.05735797 0.079017445 0.007882462 -0.017384578 -0.07558959 0.013350817 0.0158149 -0.08781529 0.006680102 -0.03791285 0.005125462 -0.017121857 -0.060303565 -0.0698226 -0.03410449 -0.04300496 0.072349146 -0.014395847 0.06996238 0.0850938 -0.06871045 0.044757 -0.07118258 0.059986196 -0.0832914 0.026930192 -0.058031425 -0.04682223 0.049287613 0.07424646 0.060346194 0.028392525 -0.024626028 0.064365335 0.079067625 0.033721708 -0.0071852766 0.029318962 -0.004352228 -0.0052301814 0.08648835 0.07349344 -0.037356567 0.079804346 0.08642514 0.056289304 -0.01593914 0.049538583 0.03524076 -0.0019129647 0.02133266 -0.05809527 0.01433908 -0.038335636 0.0666851 0.06402607 -0.009458967 -0.03448214 -0.034452558 -0.034760877 0.042903345 0.005226107 0.085054554 0.042487863 -0.07512251 -0.0033727307 -0.058077205 -0.04660973 -0.00394296 -0.07372433 0.034344193 -0.06701683 0.047084153 0.03532528 0.0029842935 -0.073853575 0.00624445 -0.028089507 -0.016925428 -0.04388305 0.046826493 -0.00842968 -0.04540227 -0.002623192 -0.05355629 0.072550304 -0.007371369 -0.02573919 -0.024354884 -0.031651195 0.0344947 -0.021553723 0.005710807 0.041128416 -0.010076285 0.04848937 0.06553207 -0.017294353 -0.026640935 0.04603036 0.037192862 0.008835964 -0.025456676 0.0027717545 0.026836548 0.034231562 0.043165654 0.08335225 -0.041238535 0.07170344 0.044855684 0.042077523 -0.07506094 -0.027562018 0.07132919 0.07174388 0.00039497518 -0.018809183 -0.02111178 -0.053872712 0.019224288 -0.011570236 0.04159774 -0.014469056 0.020771086 -0.059920006 0.013167717 -0.0859236 0.08303161 0.050216727 0.05848878 0.06458401 0.007010563 -0.036934588 -0.071903646 -0.021225333 0.056185592 0.051791087 0.040829174 0.049579453 -0.020205837 0.02876896 -0.063172065 0.013300527 0.038373467 -0.03666116 -0.056842793 0.011453241 0.050724417 0.059170198 -0.059570935 0.014808814 0.0412339 -0.06027319 0.046407465 0.020409048 -0.057424977 -0.03565379 -0.04669336 -0.086529195 -0.08147937 -0.0571269 0.050043643 0.04512903 -0.025138244 -0.0154106915 0.079588674 0.0324846 0.057409197 0.03422057 0.04304012 -0.060752492 -0.08547291 -0.016392428 0.0669191 0.06658318 -0.0331206 -0.018249381 -0.02694563 0.008361273 -0.027095523 0.07728742 0.082797766 0.047149613 -0.003951654 0.055321507 0.08618386 0.009924863 -0.00036554935 0.052687813 0.057429347 -0.052460775 0.08529352 0.08271084 0.047952652 0.0154966265 0.08029816 0.07792665 -0.055683438 0.02296061 -0.07881501 0.06839822 -0.07658118 -0.011807123 -0.049967196 0.062373918 0.053724088 0.04070538 0.027799727 -0.06856904 -0.0067050485 0.04828318 0.028287198 0.005427603 -0.077779226 0.05208185 0.03895209 0.067289434 0.08811399 -0.07792582 -0.03279589 -0.040087845 -0.015512849 0.050057568 -0.03995249 -0.084721334 0.08466373 0.05428343 0.040240005 -0.058746517 0.0623353 -0.018299945 -0.0058967182 -0.059820175 -0.0808592 -0.062214617 -0.06547861 0.026972964 -0.036772985 -0.0049962895 -0.027441923 0.08029149 0.07363089 -0.061017588 -0.03748789 -0.041523457 0.056052454 -0.02146991 0.056082133 0.0011118525 0.07496078
get|int -0.039349418 -0.055166945 0.07593602 0.054125506 0.0031732372 -0.026821075 -0.041116387 0.016064303 0.020283556 0.060528208 0.06160578 0.056707893 -0.05287391 -0.070073456 -0.057704516 -0.014128441 0.054345544 -0.010439477 -0.020594321 0.0136555545 0.05302606 -0.0067710364 -0.074009776 -0.0040443568 -0.037010476 -0.049866617 0.07698604 0.046395022 -0.02976787 -0.03222415 0.0033976068 0.037025217 -0.07019164 0.06209318 -0.01806288 -0.057509247 -0.065045215 0.07685586 -0.02058055 -0.066190414 -0.03986698 0.07181778 -0.028887836 0.0031283973 -0.037603002 -0.05969889 -0.08584508 -0.057571933 0.051195662 0.032630917 -0.033449184 0.009876921 0.049907513 0.029764095 -0.023590317 0.038181823 -0.018194426 -0.04585957 0.05719627 0.06882138 0.013785516 0.08001251 0.01839199 -0.04354249 -0.02475918 -0.015694777 0.019632606 -0.008157609 -0.03497845 0.04936591 0.058187608 0.017725227 -0.03782765 0.05147991 0.036735825 0.07375046 -0.043955665 0.04370156 -0.008636268 -0.029763626 0.032704517 -0.028758096 0.008011391 0.07172261 -0.07467225 0.002332902 0.06965019 0.007983204 -0.02946549 0.031678107 -0.077151105 0.02896601 -0.06794505 -0.0014106709 -0.056957018 0.044793624 -0.020050582 -0.034599602 0.053923134 -0.08879319 -0.012292039 -0.043142293 0.00242168 0.07752498 0.08963109 0.058092583 0.0547458 0.030086936 0.082795225 -0.07418216 0.013484821 -0.030301953 0.064976774 0.0766638 -0.015655952 0.02978479 0.060646135 -0.049979687 0.071137905 0.048247807 -0.073378526 0.06896812 0.07023691 0.025956362 0.07673231 0.037896764 -0.073853925 0.07718018 0.049634494 0.05925496 0.049806576 -0.06956275 -0.06957879 -0.010713925 0.02760541 0.023172798 0.08336528 -0.023410983 0.08372372 -0.057664987 0.06788824 -0.079227686 -0.06579591 -0.03220711 -0.079753496 -0.047274377 0.08213219 -0.03294171 -0.05607888 -0.05961291 -0.0015045467 0.06801883 0.017990373 0.043109268 0.0773071 -0.055057336 0.01974747 0.07811896 -0.018469842 -0.053200006 -0.016676106 -0.027408134 0.022706311 0.056966767 0.059530403 -0.017043728 0.08057426 0.071566924 0.03421553 -0.0152597325 -0.022458598 0.01416449 -0.08530019 0.07600585 -0.052620094 0.0016296873 -0.019179597 0.06750059 0.015265401 0.051261738 0.0069746496 0.014255542 -0.0037879236 -0.09022138 0.037747934 -0.079743095 0.0589916 -0.02150314 -0.05712021 -0.041877255 0.024833007 -0.06523418 -0.0035938611 -0.07051607 0.07824065 0.0072352216 0.011338562 0.05962981 -0.08344485 0.017703706 -0.045311593 0.05264327 -0.051977634 -0.021968922 0.06308102 0.039467383 -0.030369552 -0.02450965 0.09033189 -0.0060204417 0.027797375 0.008755967 -0.033267103 -0.062114716 -0.03682425 -0.034214083 -0.08486171 0.008719004 0.0042871796 0.07984103 -0.081995934 -0.027317379 -0.07291677 0.065084845 0.024032043 -0.07305205 0.065269925 0.084629424 -0.014486626 0.044085845 -0.08258598 -0.0067065116 -0.025741113 -0.08712111 0.05364648 -0.055324327 0.09035465 -0.027164657 0.030974811 0.017201003 0.078822136 0.014633337 -0.07926983 -0.012820774 -0.07138663 -0.0011927212 -0.046070732 0.049145114 -0.066042155 -0.0022618086 0.07487761 0.0390086 -0.04541154 -0.03750983 -0.05551479 0.069641426 -0.035134237 -0.013210174 0.07768047 -0.03791569 0.041072555 0.06105009 0.05201694 -0.017191954 0.010424396 -0.071110465 0.07509531 -0.051820077 0.040892247 0.08032939 0.012579052 -0.06957921 -0.026196998 0.01907572 0.019351441 -0.053351883 0.031958163 -0.0045143627 0.076779835 0.032287132 0.035083424 -0.008877922 -0.08767227 -0.03328802 -0.06515391 0.030329065 0.08071324 -0.084194526 0.08938167 0.019328432 0.08382553 -0.035512533 0.021584654 -0.07838845 -0.0067752413 -0.06615866 -0.06213906 -0.00010706211 -0.004789954 0.0046801874 -0.054248434 -0.07792123 -0.022659248 0.0145240305 0.055980273 -0.020182116 0.0107400445 -0.08683032 -0.0583945 -0.022218432 -0.057270672 -0.04555286 -0.049521383 -0.062240418 0.045161817 -0.0254972 0.025358452 0.0041225743 0.052932795 -0.06607178 -0.062382128 -0.07435712 -0.021624474 -0.012979665 0.037190475 0.053411458 0.03770048 -0.02432123 0.0051189596 -0.015528466 -0.011976354 0.015388281 -0.03191576 -0.07811365 -0.071826994 -0.03181946 0.022354294 0.050337758 -0.025252467 0.08447955 0.016942762 -0.0070450916 -0.032566473 0.030465854 0.04829976 -0.06132842 -0.025002833 -0.008093199 -0.04685416 -0.040277988 0.035070635 -0.045113865 0.053181276 -0.010274077 0.014989894 -0.08478892 0.062384788 -0.048259426 -0.0007919902 0.08968681 -0.08069576 0.03208758 0.0892445 0.04318242 0.07321638 -0.00475037 0.046284307 -0.050051734 -0.052177425 -0.05140381 0.003358545 0.07025501 -0.01034064 -0.03937824 0.012712139 0.026024131 0.07234594 0.006503887 0.00434905 0.028057871 0.009124903 0.046306062 -0.024823138 -0.035512883
get|unsigned 0.026064351 0.08919325 -0.04429664 0.058789566 -0.08705128 -0.039164823 0.07192404 0.05210834 -0.014891193 -0.038839713 -0.041768674 0.015068669 0.033930816 0.06008464 -0.08549603 -0.019996602 0.00030282745 0.03330929 0.0015870776 -0.008846145 0.0031967498 0.07227143 -0.02928004 -0.03143046 -0.0145315025 0.07828123 -0.019088067 0.055143233 0.059287127 0.030166494 0.040110312 0.003329136 -0.037711825 0.0058590663 -0.04945559 0.028698336 0.051772933 0.011615931 -0.026233057 0.047681477 0.021763975 -0.07918846 -0.0024967329 0.074999414 0.021037687 0.040075008 0.009683319 -0.032703035 0.015759183 -0.08779544 -0.013547272 -0.057387 0.03387302 -0.059359103 -0.054367583 -0.08140277 0.07670671 -0.07279521 -0.010808219 0.07343911 -0.043091264 0.0861799 0.06449023 0.08206098 -0.086163014 0.03561716 0.072087795 0.028193617 0.07062687 -0.008702304 0.036828287 0.0055897757 -0.020015398 -0.025111437 0.08696783 0.02243588 0.058852408 0.06340089 0.040310018 0.0317686 -0.03379049 -0.025643483 -0.020400798 -0.059326198 0.006047154 0.022693684 -0.04166579 -0.05258548 0.08275431 -0.07213951 0.07584713 -0.0633961 0.011903342 0.0019683475 -0.07809597 0.048605703 -0.024570176 -0.07504417 0.063669235 -0.04763642 -0.019632904 -0.068813875 0.064133964 -0.06774193 -0.05153171 0.07943897 0.019921692 0.04561519 0.061945006 -0.053718302 0.017540079 -0.0042916313 -0.022076167 0.047321193 0.04358546 0.05577937 0.013329519 -0.06581577 -0.014833398 -0.038374625 -0.032809146 -0.07089745 -0.017884353 -0.013822944 -0.066982925 -0.06874846 -0.009755886 -0.021181483 0.062777445 0.018380474 -0.06267803 -0.0639975 0.03747654 -0.050188407 0.003357808 -0.052114733 0.02928938 -0.014514622 -0.046121627 -0.028398214 0.054103177 -0.06664748 -0.042230435 0.0049160467 -0.07957013 -0.03341934 -0.0371785 -0.05757976 0.02526441 -0.07500154 -0.03074226 0.08491943 -0.057122294 0.037938517 0.059960503 -0.00096110615 -0.07407747 0.07881937 0.038046997 0.034556188 -0.00038494647 -0.001881917 -0.080342144 -0.0041220672 -0.017148845 0.030496921 0.0036393707 0.07221648 0.05566111 0.008016217 0.0015614381 -0.03340299 0.044328634 -0.051500354 -0.005834161 0.016667917 -0.0122866025 0.0046382044 0.06280158 0.049609173 -0.06979089 -0.07119578 -0.04741261 -0.06863872 0.008082079 0.05740423 -0.032321755 0.0132023785 0.008371183 0.07880452 -0.07472558 0.056168657 0.013636903 -0.033825323 0.0029004647 0.05269663 -0.025137134 0.048043836 -0.060044125 0.06580808 -0.06932338 -0.0316683 -0.008355549 -0.022471067 0.080112286 -0.009691395 0.08808616 -0.012986761 0.062691405 0.022632834 -0.08705555 0.084216386 -0.015788706 0.07293563 -0.017481448 0.089886546 0.08310268 -0.07136166 -0.009573236 -0.07996839 0.07491362 0.08022568 0.04993116 0.048538107 -0.002287039 0.01999712 0.07180715 -0.024585873 -0.05838572 -0.036816273 0.050315782 -0.07196273 0.0046000993 0.0016718734 0.06341849 0.013076269 -0.0013329939 -0.02711588 0.03815359 0.015721532 -0.0009787304 -0.021801755 0.007935945 0.060264125 -0.039924182 0.024214238 0.06708987 0.030881738 -0.08883447 0.039805222 -0.052957054 -0.036260556 0.07688907 0.03737022 0.0705433 -0.018214675 -0.05580783 -0.009024805 -0.04471293 0.07351616 -0.080359474 -0.0026434325 0.0067588636 0.0070362487 0.013256857 -0.08058712 0.075711034 -0.015360387 0.06558254 -0.04894996 -0.01315495 -0.05109141 -0.04925744 -0.012366298 -0.07927848 0.029163819 -0.00968926 -0.071929395 0.07155619 -0.044771384 0.067990944 0.025710188 -0.033643316 0.0642553 0.024931619 -0.060031462 -0.0076545714 -0.046182573 -0.07101323 -0.043375738 -0.044795927 0.043041214 -0.07522154 -0.03939985 -0.04428062 0.084616445 0.07097032 0.062299803 -0.022858975 0.009008903 -0.033043344 0.064994365 0.015883422 0.08197685 0.01388937 -0.016875613 -0.06131136 -0.008940671 0.08419366 0.016711775 -0.023289476 -0.052166764 -0.071411945 -0.082464755 -0.0004357953 -0.0073332707 -0.018273067 -0.020729579 0.008656317 -0.0724192 0.01243409 -0.045178313 -0.055236477 0.07217026 0.03161228 -0.080854684 -0.055557244 0.051002603 0.08180506 -0.076181814 0.048530094 -0.068205856 0.07709912 0.00010152848 -0.07643183 0.061982326 0.019300302 0.04921309 -0.024852037 -0.027505431 -0.051967535 -0.057549797 -0.018688671 0.04356233 0.0024106218 0.045893237 0.08324854 0.034018867 -0.029768752 -0.06000872 0.0018856184 0.051013175 -0.06615606 0.084884174 0.020507172 0.06545521 -0.024047693 0.032439057 -0.083058 0.042882174 -0.07045751 0.08180746 -0.040452458 0.0033108843 0.08429691 0.06096758 -0.060633563 -0.07493606 -0.07290477 0.056399755 0.034028724 -0.04482537 0.028056068 0.025215793 -0.010069431 0.038169026 0.056813844 0.03420528 -0.027430315 0.02757438 0.08523319 -0.07339493 0.040652476 0.022964705
get|double 0.038390443 0.040412363 -0.05943516 -0.0462034 -0.06625071 -0.067914784 0.0858294 -0.020842114 0.07458568 0.049024463 0.04350329 0.030559922 0.07595204 0.08390386 0.067825854 -0.03458354 0.05157308 -0.047942683 -0.05944496 0.055855215 0.050521944 -0.069627024 -0.05046272 0.014931902 -0.012889461 0.0019199941 0.002526616 0.01729253 -0.030393545 0.07399294 -0.044552315 0.0442474 -0.04694971 0.06897035 0.05922641 0.038294017 -0.06456887 -0.013841764 -0.006909049 0.008628227 -0.08556882 -0.059516955 0.041678786 0.069507666 -0.020827428 0.05092086 -0.06223693 -0.061482176 0.0522656 0.00068122556 0.043145645 0.023458304 0.037634 0.06885181 -0.050598778 0.020326143 -0.07775957 0.039504033 0.0076835444 -0.07472533 0.03870234 -0.049694154 -0.07089717 -0.023331169 0.065596454 -0.05090635 0.011472753 -0.068686284 0.051076844 -0.07346568 -0.068277724 0.08446782 0.067931466 -0.090056986 0.057022367 0.015123498 0.03050683 -0.01894626 0.06357131 0.032901924 0.058218013 -0.06736472 -0.047403157 -0.08054277 0.050187018 -0.08273436 -0.022229865 -0.08576073 0.07168326 0.06067256 0.004917786 -0.027040392 -0.08944411 0.021896662 -0.08899348 0.013305671 -0.023354996 0.035352886 0.07682396 -0.0005873471 0.0866004 0.03446643 0.0063065384 0.07558805 -0.01251301 0.012806158 -0.030392628 -0.032767016 -0.0141480565 -0.07600533 -0.04534772 -0.010938456 0.08176111 -0.07813548 -0.0363472 0.07698307 0.0734802 -0.037180506 0.024325743 0.022906352 -0.038019568 0.034906153 0.042535443 0.03246117 0.04723178 -0.03794675 -0.002373714 0.05488404 0.070538215 -0.07174016 0.082067266 -0.05271377 0.03890834 -0.006497476 -0.010778802 0.04255375 -0.050995782 -0.008100703 -0.006510474 -0.048437357 -0.034380227 -0.028773133 -0.05281732 0.02086633 -0.057846796 0.05249444 -0.05232646 -0.0647331 -0.043105204 -0.071667396 0.0040065236 -0.009944616 -0.040442474 0.021621834 0.08373561 -0.0733976 -0.07481542 -0.05624307 0.079762265 -0.066866726 -0.05640147 -0.08044657 -0.03254063 -0.050359603 0.022502974 0.05001997 -0.03047372 -0.056973204 0.034174487 0.043205444 0.050623454 -0.07020561 -0.062936045 0.029511316 0.06598335 0.0694481 0.01447057 0.07033103 -0.07954337 0.057564784 0.07876216 -0.041100454 -0.017941395 0.016564611 -0.057048287 -0.029942434 -0.051080037 -0.011235375 0.07638652 -0.075035505 0.059601996 0.049556077 -0.029004885 -0.039131034 0.016713677 0.05098589 0.027526965 -0.06306939 -0.0654956 0.013818233 0.07774789 0.08377332 -0.0024409443 0.048200946 -0.06743141 0.006640002 0.012704074 -0.031760298 0.059464652 0.081060745 0.08556308 0.0091432845 0.035920016 -0.040752 -0.07923332 0.05613868 -0.061621457 -0.0057588764 -0.08414913 -0.0062358505 0.046291716 -0.011964409 -0.035070945 0.04583374 0.05170685 0.022503242 0.084794454 0.036035966 0.035060447 0.03933119 0.046463042 -0.07005485 -0.053199086 -0.05176859 0.027395442 0.07033785 -0.0344459 0.071818635 0.011696691 -0.065276295 -0.0036082761 0.07181331 -0.03857142 0.020493994 -0.072508894 -0.029930312 -0.03760139 -0.0844619 0.07527481 -0.0019168783 0.00031154836 0.06643793 0.036764905 0.08706841 -0.021526802 -0.08630257 -0.08724483 -0.011627841 -0.016796008 0.07092213 -0.054152902 -0.030192353 -0.059712287 0.0665848 0.08108843 -0.07373744 0.07588056 0.08414692 -0.043599963 0.014293427 -0.021290068 -0.08944023 0.045961566 0.0022356343 0.005133178 0.033814274 0.07799083 0.013279343 -0.03419447 -0.05857657 -0.07691227 -0.014622315 -0.07139392 -0.030036766 -0.00058265525 0.013571076 0.07140477 -0.05263511 -0.007906014 -0.07209467 0.024230901 0.051777493 -0.033539414 0.060599834 0.023819141 -0.08374709 0.040661007 -0.033030495 0.0519956 0.025204506 0.0026643532 0.014549416 0.076168016 0.061815683 0.04213662 0.07557876 -0.023222733 -0.0030356296 -0.07048504 -0.049218304 -0.07511418 0.02112188 -0.04876042 0.054029573 0.017866641 -0.010836719 0.08834971 0.0076609193 -0.03647198 -0.07160606 0.08018927 -0.05114899 7.020193e-06 -0.06766976 0.019458128 -0.078765996 -0.03763528 -0.0665088 0.025080519 0.08012089 0.05183745 -0.060320847 0.0060043945 -0.06132779 -0.0053204354 -0.03227578 0.066904984 -0.08852414 -0.088863075 -0.06961572 0.0316033 0.06404644 -0.033550113 0.08126517 0.03292329 -0.051717978 -0.0275564 0.0417702 -0.057184845 -0.008484068 -0.034374427 0.020587603 -0.05773663 0.061564382 0.08094378 -0.056256574 0.03370031 -0.034692142 0.07263849 0.086822025 -0.012168818 -0.03995812 0.086184844 0.067547314 0.07793546 0.054646667 -0.028336879 -0.06898584 -0.009310813 -0.04156137 0.055225015 -0.0146561265 0.022946488 -0.04400568 -0.030238781 -0.000319342 -0.057370152 -0.06482608 -0.008071544 0.061842877 0.06135381 0.087591834 0.026195686 -0.049871672
operator|<< -0.0157987 0.01197976 0.069270216 -0.06587061 -0.055491883 -0.024803527 0.013685187 -0.054185074 0.04788746 -0.005883446 -0.070803486 -0.07403975 -0.08550218 0.02866673 0.05093825 -0.087288775 0.07234181 0.022182025 0.019071434 -0.019345151 0.06422585 0.05618493 0.062195417 -0.05144938 0.012634918 0.081650026 -0.06722164 -0.06447626 0.0028621804 0.043058567 0.089791425 -0.044968475 0.03679417 -0.057075113 0.08266449 -0.0426838 -0.05579342 -0.07993283 0.038669094 -0.07252267 -0.026986342 -0.0670775 -0.034549177 -0.08001401 -0.08053877 -0.07206483 0.06316993 -0.08756622 -0.06356164 0.063520595 0.05168596 0.03399303 0.06862759 -0.029661644 0.029387964 -0.07202155 -0.0074897767 -0.030941587 -0.013162989 0.021211429 0.0038924 -0.076196596 0.047897346 -0.010265531 0.06482377 -0.046426192 -0.04426699 0.053313687 -0.038113177 -0.06644715 -0.07162412 0.070560284 0.03768334 0.06546669 -0.06150642 0.01171839 -0.061497174 0.033222076 0.041815333 -0.036513805 -0.059657004 -0.040674977 0.03899378 -0.056686033 0.013171582 -0.02329789 -0.0064959005 -0.020742187 0.04794549 -0.052479304 0.06179651 -0.044118244 0.05457064 0.019516803 0.05774851 0.05731036 0.06049472 0.06910466 0.06804736 0.07073488 0.028533084 -0.022148289 -0.028875504 0.014313096 -0.06263826 -0.047689047 0.032308772 0.025277527 -0.089542665 -0.03985867 -0.06873063 0.0031910832 0.07027058 -0.00010399963 -0.056148324 0.041868843 -0.02784707 0.0074305474 0.06885364 -0.03148482 -0.06736899 0.008583096 0.0017430321 0.08477901 0.04765322 0.048925936 -0.026913946 0.061783753 -0.0738716 0.022434665 -0.04599584 0.08262918 0.045499798 0.031620663 0.040802173 -0.008896149 0.011897029 -0.006719469 -0.07338591 0.052805148 -0.030086925 -0.048839197 0.032043904 0.029681755 0.011138898 -0.020120822 -0.048757415 -0.04969457 -0.034089483 -0.005052944 0.07748315 0.08967053 0.05104516 -0.04560525 -0.00066000025 -0.036334295 -0.003988956 0.04358111 -0.051342472 0.057545837 0.089348085 -0.022936372 0.061465774 -0.0049671903 0.041968208 0.08983421 0.047680456 0.02609076 0.052618902 0.042606726 0.030662943 0.00015574263 -0.086261496 -0.04208806 0.014183072 0.06579323 0.070865676 -0.031542 0.011703855 -0.044357907 0.05610979 0.04324548 0.024567561 -0.079027735 0.002916123 -0.008460943 -0.074749626 -0.08727257 0.078499764 -0.031025369 0.057070542 -0.010675096 0.07316899 0.0807141 -0.00021144666 -0.039746977 -0.001149212 -0.017276986 0.069153056 0.07390455 0.086029805 0.07077235 -0.08410679 0.08694042 0.07755958 0.052835908 -0.033538494 -0.07482318 0.057274606 0.03898278 0.084754616 0.004353847 0.059800338 -0.0051240157 -0.06961041 0.0019385517 0.046063837 0.014649279 0.0011867974 -0.0743591 0.027972348 -0.015771015 0.05494537 0.0832512 0.050562087 -0.052763864 -0.038719907 0.010094698 -0.012364069 -0.01672779 -0.0069558257 0.0488762 0.035512418 0.050926216 -0.042477015 -0.07131812 -0.03634951 0.07278914 -0.0031505278 0.08339903 0.00942546 -0.054679263 -0.072848424 0.015392024 -0.017447514 0.07906322 0.08202722 0.08547256 -0.08417864 -0.03531446 0.030222267 0.05874545 -0.044792242 -0.021756591 -0.014820911 -0.010551085 -0.06597906 -0.06623699 0.06175079 0.015875436 -0.06660326 -0.0070737815 0.08350595 0.038611963 -0.07500924 -0.041531302 0.04594354 0.027933726 0.06022171 0.085221514 0.03816939 0.032796193 -0.0331928 0.07585018 -0.043630734 -0.033370618 -0.001114443 0.021278096 0.00411472 -0.049244095 -0.00668057 0.024482245 -0.03133662 0.03367135 -0.028268764 0.010909506 0.04111733 0.053327266 0.022599941 0.0008246491 -0.072066024 0.03888936 0.050242633 0.018886719 -0.05264997 0.066755496 0.09012684 0.05825406 -0.07381077 -0.04160714 0.06773918 0.0319429 0.065152414 -0.0124652535 -0.080629624 0.018107628 0.06695474 -0.033650897 -0.0034627556 -0.012462726 0.034928028 -0.0014554237 -0.057268627 0.047345106 0.022231942 -0.05693055 0.03821789 0.061614554 -0.08040525 0.039056323 -0.07056228 -0.070900254 -0.0506986 0.011722349 -0.06336126 0.014805805 -0.08343297 -0.07726883 0.08873331 0.015014621 -0.0033559757 0.0134356655 1.0377786e-05 0.045619283 0.013906129 -0.010242303 0.042670798 0.0255147 0.063972175 0.07459379 0.02187314 -0.06212798 -0.083923995 -0.03719489 0.06796459 0.036549598 0.0375002 0.049379915 -0.069611326 0.055841327 -0.032769553 -0.021990241 -0.053988066 -0.007958931 -0.06542627 -0.009617865 0.071619235 -0.03383433 -0.058091413 -0.04771676 -0.061766703 0.046875477 0.035540316 0.08357458 -0.014929572 -0.031858936 0.022051059 0.036107022 0.005760079 0.07527721 0.011283703 -0.009301395 -0.007370474 0.07947707 0.046323333 -0.0066596936 0.027897978 -0.077448264 -0.05380017 0.038060673 -0.013787321 0.02695872 0.026500383 0.071848795
foreach|test 0.070057064 0.028871013 0.051128574 -0.017719937 0.0056346133 0.02912236 -0.045657195 0.007898429 -0.03970143 -0.041281767 0.026158776 -0.04195853 -0.025206264 -0.040635753 0.08322004 -0.07990944 -0.03228494 -0.038360283 -0.06934965 0.058555417 0.04139341 0.0651148 -0.03376485 -0.0071653286 0.07555793 -0.024283404 0.072612055 -0.0875927 -0.032590717 0.062098783 0.054630883 -0.05227915 0.082228646 -0.060167093 -0.046653584 -0.00085682137 -0.05052894 -0.0055752797 0.013334511 -0.03291043 -0.0024406877 -0.08055665 0.0062447684 0.07197962 0.0061604385 -0.07737007 -0.014450402 -0.027689883 -0.059521887 -0.0013888745 -0.08289795 0.054025635 -0.035615977 0.06455433 0.03206823 0.07000451 0.023761077 0.011567994 0.029201722 0.047025323 -0.021153828 0.066546395 0.058879998 -0.0127306245 0.00674316 0.0111248195 0.079040535 0.006139218 -0.015853457 0.076745234 0.03180708 -0.057563912 0.044472948 0.08250848 -0.03612747 0.0449244 -0.020358466 0.08369869 -0.05894441 0.003565933 0.033647414 -0.050555762 -0.04525892 -0.029420746 0.01670649 0.0024910273 0.0717739 0.015261434 -0.026752645 -0.0066825957 -0.008539102 -0.069809064 0.018095085 0.030305991 -0.056129552 -0.08128463 0.06504871 0.08320144 0.020787297 0.06641095 0.059229363 0.08011299 0.0404004 -0.05382555 -0.01095407 -0.07066748 -0.0043873233 0.07219892 -0.0012148835 -0.036740344 -0.005554 0.088290244 0.028110305 0.00605503 -0.048446745 0.017783796 -0.089400455 -0.06102437 -0.038803294 0.002538983 0.07378456 0.03598519 0.0056917574 0.051467337 0.07125932 -0.040851478 -0.0039041531 0.07574036 0.037749663 -0.009003382 0.01259196 -0.023353009 -0.009144327 -0.04698278 0.0118314065 0.06522972 -0.035421282 0.039684903 0.005833047 -0.003848827 -0.022747036 -0.031338833 -0.029790618 0.0070537506 -0.05779158 0.02466885 0.039331682 -0.0020737275 0.0767732 -0.009494963 0.0023905905 0.07836838 -0.05059453 -0.048234884 -0.07506943 0.08135599 0.022758435 0.070957966 -0.022876192 -0.07046189 -0.060414102 0.004415258 0.08309481 0.0051001245 -0.06703068 -0.013544026 0.044336792 -0.020071907 0.0823477 0.062781096 -0.024051873 -0.031667504 0.07891828 -0.040187653 -0.0502201 0.04517968 -0.067231275 0.030539732 0.08016841 -0.016890984 -0.037329085 -0.0008184777 0.025342228 -0.00057807297 0.07585333 0.019741306 -0.049613066 -0.027995137 0.08090244 0.08436959 0.048183367 0.041316736 0.025075888 0.0146162445 0.055337414 0.087619044 -0.08550726 -0.020117119 0.03720222 -0.0104028 0.0537228 0.025499834 -0.022056736 0.09030141 -0.012780295 -0.031953778 0.026768804 -0.0029196022 0.063162565 0.036984354 -0.053117108 0.026764302 -0.06984347 -0.05012598 0.07963471 0.029399931 -0.03577282 0.028959066 0.003658501 -0.06738515 0.059288505 0.06625575 -0.0009324881 -0.030592056 -0.03883524 0.037416063 -0.059465934 -0.07544114 -0.011986222 -0.051783018 -0.032304183 -0.015682682 0.08991891 -0.032314643 0.00052341004 -0.023778804 0.080287196 -0.020341046 0.0055061164 -0.073440574 -0.044877086 0.04374263 0.07285024 -0.008741425 -0.048417334 0.0008669534 -0.083004095 -0.06958828 0.05664877 0.07874543 -0.08808857 -0.03765109 0.029533466 0.02942415 0.08285074 0.08170176 -0.07580089 -0.049019564 0.008829721 -0.0074430825 0.023414627 -0.019037733 -0.040355995 0.009474745 -0.020287313 -0.03239038 -0.08078375 -0.07585676 0.063201115 0.05644746 0.023590337 0.04893293 -0.064615704 0.06947752 -0.016565194 0.046803154 0.03239075 0.016936775 0.08927979 -0.071840845 0.023889583 -0.05915163 0.07790632 0.07046487 -0.03970653 0.031949587 0.05040677 -0.085918486 0.028547086 0.04592394 0.070196405 0.0053456896 0.03633824 -0.004959741 -0.06990696 0.08729917 -0.07264143 0.040546443 -0.04686608 -0.056051057 0.023998663 0.053426903 0.08071521 -0.032493815 0.07549523 0.062425774 0.07021002 -0.062556036 -0.038641743 0.027238587 -0.085745394 -0.008999379 -0.062521 -0.024544416 0.047059786 -0.005536605 -0.028806131 -0.010754324 -0.040193785 0.04211558 -0.07000198 -0.08844412 -0.041901562 -0.044251762 0.05108572 -0.06436984 0.07469866 0.075908884 0.08408306 -0.057958663 -0.027457846 0.015225606 -0.04568063 -0.02914624 0.039223827 0.016827678 0.035975054 0.01891282 -0.023648895 0.047248155 -0.067520544 0.045340598 -0.06628088 0.041810714 0.032832645 0.05542823 0.03743137 -0.021706415 0.0873175 0.016874615 -0.018609807 0.07572662 -0.008101411 -0.021833003 -0.013912114 0.012379872 -0.083573684 -0.0755353 0.06126334 0.066696234 -0.061707225 0.07029906 0.010849226 -0.061160777 -0.06464929 -0.0026646329 -0.04047057 0.020465577 -0.018616762 0.013619295 0.05553171 -0.019439993 -0.08954743 -0.05421832 0.08532572 -0.020681866 0.067836404 0.04307976 -0.0059358194 -0.04603172 -0.082893215 0.0059345937 0.007945405 -0.010624151
tostr -0.04323147 0.04533874 0.032740347 -0.03323591 0.01873759 -0.082709536 -0.046192396 0.017360725 -0.06569757 -0.041389577 -0.0077377665 -0.077833176 0.056030616 -0.058814652 0.07460021 -0.017082231 0.004473422 0.030977601 -0.010007414 -0.07107177 0.07030017 0.013680609 0.018012678 0.08587534 0.024855345 0.020914543 -0.023400223 0.06785172 -0.0746769 0.024305243 0.026826624 -0.05024654 -0.058570467 0.03866368 0.052753147 -0.08393055 -0.0013542525 -0.067537345 -0.08735721 0.023933845 -0.054878272 0.017651545 0.02087799 -0.032590583 -0.019935148 0.0072232243 -0.05075809 -0.040013622 -0.0452023 0.011100811 -0.078732766 0.026904799 0.06798903 0.06761506 -0.02474087 0.052390877 -0.050804086 0.022476166 -0.049227137 0.068987034 -0.022956783 -0.02692889 -0.05167135 0.006719689 0.005678409 -0.02321777 0.08071445 0.060887728 -0.0481898 0.02279784 0.049769115 -0.057456497 -0.068496004 0.052636832 -0.078415126 -0.05881238 -0.028103638 0.015320895 -0.0024008914 0.017230436 0.071394295 0.073970504 0.071278274 -0.044669013 0.00522997 -0.047240548 0.073350616 -0.07537501 0.0049064024 0.05835155 0.066625774 0.008091657 0.03703108 0.019148339 0.04659131 0.080483854 0.020704767 0.07108442 0.010430661 -0.056915108 0.050513837 -0.019869892 -0.08342994 0.00211129 0.033746537 -0.05668358 -0.068694554 -0.029556617 0.012855896 -0.07655334 0.08276898 0.05157283 0.042981666 -0.073171444 0.044577405 0.009173753 0.028364332 -0.06879005 0.077269055 0.059127353 0.05830032 0.085819006 0.04817449 0.061541006 -0.036560085 0.056681346 0.05414183 0.04342794 0.038940705 -0.015801802 0.05387452 0.0657161 0.013066456 0.011653574 -0.038025815 0.07897302 -0.08464016 -0.009073067 -0.033924047 0.037458885 -0.0728045 -0.059097078 0.07860994 0.06858617 0.07568118 -0.032837354 0.07889558 0.066652305 -0.068856776 -0.07176535 -0.05604988 0.08352963 0.08580631 -0.0093966285 -0.025822114 -0.021765064 0.05183947 -0.07407156 -0.0012458273 0.032062225 -0.0766225 0.023569196 -0.0854614 -0.022674423 -0.07287345 0.0005858597 -0.057395224 0.0027467953 -0.0019329687 0.060572453 -0.0064649843 0.06400767 0.048659902 -0.072375 -0.077495456 0.051974434 0.03608544 0.03818767 -0.084598795 -0.001022045 -0.052511614 -0.08170843 0.08511356 -0.03776736 0.05127006 0.009338856 0.024768442 0.080006815 0.07899126 0.08064645 -0.06894303 0.0047013015 0.053361975 0.0249725 0.027308384 0.008987102 0.041756775 0.083648466 0.01967211 -0.06503818 -0.026465693 0.060789485 0.0009114656 0.04843624 0.03903162 0.03190403 -0.033623353 -0.014250422 0.076228 0.022516245 0.07461747 0.03381884 0.06242104 0.076818615 -0.08119586 5.315774e-05 -0.065215565 0.0003328909 -0.05525143 0.08293953 -0.08669317 0.078870386 -0.0044278656 -0.0581742 -0.013844737 -0.030909382 0.028560305 0.0062669967 -0.07349634 0.046334434 -0.023921797 0.081880584 0.0017694437 -0.036154255 -0.032477785 -0.05088037 0.043220226 -0.05745692 -0.0009078646 0.040316615 -0.05897562 -0.07264704 0.044129957 -0.063389644 -0.029061725 0.00025167712 -0.077858195 0.03508138 0.020240711 -0.029213937 -0.012716345 -0.031990863 0.07656732 0.042734064 -0.06101305 -0.032767974 -0.068876 -0.027065672 0.07981687 -0.08067512 0.04302143 0.010627406 0.079306856 0.053835515 -0.06420201 0.045592725 0.019256841 0.032348715 0.04134483 0.037202958 -0.05838293 0.043205317 -0.028919192 -0.046997525 0.02058724 -0.0063220896 0.072320886 -0.046319894 -0.0019564582 -0.04580991 0.045688804 0.05859812 -0.049473736 0.08596737 -0.06944854 -0.021451997 -0.08165225 -0.055318587 -0.022035008 0.0040283 -0.05437661 0.025322616 0.008653735 0.0014411954 0.06912444 -0.044008404 -0.049195655 -0.030002663 -0.03207992 0.030355893 0.047445536 -0.0720951 0.029447658 0.032586344 0.024023792 -0.080475114 0.038458154 0.0055578584 0.056210913 0.08280948 0.03097349 -0.07177664 -0.00021955906 0.0006562087 0.08275731 0.030661795 -0.034937162 0.080636024 -0.009301512 -0.02078113 -0.029369516 -0.023153098 -0.0524976 -0.07002265 0.04873742 -0.08223056 0.082669586 0.056904275 -0.039441396 0.06617308 0.033163574 0.018824434 0.04570888 0.03765878 -0.07593542 0.019295242 0.07383854 0.049418516 -0.0057824263 0.044404883 -0.012237641 -0.041062474 0.058669865 -0.04517397 -0.07464467 -0.00429012 -0.058390412 0.06479919 -0.014603163 0.08498065 -0.08153719 -0.06675947 -0.07523782 0.0625444 -0.058715165 0.040437322 0.068832286 -0.064902574 -0.025811343 -0.08349393 -0.033033095 0.037823968 0.06049872 -0.07678976 0.07832989 0.027862974 -0.074454494 -0.02648373 -0.055779554 0.037496407 -0.06198198 0.004473016 -0.021459011 0.07574735 -0.0014336308 0.03552158 0.007544656 -0.010438424 -0.049358387 0.0603527 -0.08000998 -0.057725366 0.08220206 0.06197018
main -0.07372922 0.0076655466 0.0064430973 -0.03031417 0.042451315 -0.028628284 -0.04403111 0.068664186 -0.06442722 -0.06429417 -0.063967496 -0.025661275 -0.058250118 -0.05772902 0.07446718 -0.03648984 0.06165269 0.07180252 0.013555042 0.0028012237 -0.0033554733 0.06063085 -0.03977295 0.026271246 -0.043513175 0.0060989102 -0.0033512616 -0.05147369 0.031303503 0.012717738 -0.008737781 0.04500995 -0.0494304 0.04374215 -0.06842332 0.012111363 0.027801719 -0.016916608 0.0054581803 -0.0283513 -0.058248665 0.0011120769 0.008088917 0.037380945 0.0043834643 0.04826359 -0.08614658 0.05817381 0.025197271 0.014916794 0.0039078835 0.07351853 0.010234103 0.029526701 -0.052100167 0.03826639 0.0657038 0.04212314 0.083408155 0.06741239 0.0336576 0.017396992 0.06335082 0.0058477134 0.0034040161 -0.06246557 -0.050751913 -0.031418055 0.08554305 0.032155544 0.026788043 0.04931519 0.03294854 0.036051434 0.029044192 -0.059233956 0.023769705 0.006701967 -0.03667836 -0.0679363 -0.05498567 -0.00050068495 0.025891386 -0.004699724 0.00825893 0.0036493111 -0.06808708 -0.009868203 0.013307812 -0.03984908 -0.0022467151 -0.038202126 -0.01574037 -0.054716542 -0.042947624 0.07514053 0.048717618 0.010947147 0.06086263 0.04999503 0.06967562 0.01454124 0.059290193 -0.026636498 0.039599232 -0.06848422 -0.00944664 0.06373806 -0.029161625 -0.035277084 -0.0049704467 0.0519165 0.040579986 0.060313173 0.07145659 0.031756215 0.014122268 -0.012787071 -0.077860735 -0.01635515 0.07365262 0.075316995 0.058146976 -0.06800064 -0.06275965 0.022870244 -0.053036038 -0.04395333 0.013711642 0.08092774 -0.053628456 -0.07859586 -0.049111318 0.010830956 0.04593289 -0.03277147 0.011809807 0.049552735 0.017848264 0.032838315 0.03163115 0.050134175 -0.0074520353 -0.051980093 -0.062427208 -0.08843094 0.021855133 -0.03668984 0.035804488 -0.07398787 -0.0030736928 -0.08928584 0.049333993 -0.07111112 -0.061906267 0.08290461 0.03180217 -0.066314705 0.008930044 -0.041681435 0.06716506 -0.033003278 0.003103754 -0.009354402 -0.054452572 0.069001384 -0.05800831 -0.018702894 0.037176248 -0.011452298 -0.040071804 0.067288905 -0.050604068 -0.07741227 0.02799122 -0.08559928 -0.006055002 0.068500265 -0.071069665 0.06822489 0.02197138 0.074690945 0.033443548 -0.07710095 -0.057137396 0.059748184 0.05274504 0.032770302 -0.0147682475 0.05201214 0.07009224 -0.06305365 0.08159074 -0.048651673 0.040713504 -0.05706157 0.025314318 0.03095304 0.024126343 -0.04794285 -0.017630959 -0.0074941865 -0.07781599 0.034487545 0.0007304705 0.0713694 -0.046225775 0.02238784 -0.079650484 0.05060981 0.028626367 0.0783961 0.06940889 0.040934682 0.022456156 -0.011081407 0.011617604 0.022547353 0.03267677 -0.03577047 0.058766223 0.02517111 -0.014089802 -0.06351252 0.05088165 -0.047134634 -0.050956447 -0.019131038 -0.04156827 -0.020448998 -0.0031766752 0.07953278 0.055940796 0.04368945 0.02509795 0.015158366 0.029818887 -0.01140422 0.016295671 -0.08113153 0.054654405 -0.060489364 0.04620706 -0.0009832708 -0.011862881 -0.016920745 -0.006840907 -0.031782046 -0.011755777 0.04447471 -0.010447071 -0.037067953 0.024156878 0.07058865 -0.002856457 -0.051898472 -0.0626581 -0.005300289 -0.05152645 0.051281344 -0.054575842 0.0077227023 -0.05653918 0.016354918 0.043714285 -0.046097487 -0.07939687 -0.06615693 0.08470905 0.016791672 0.020051235 0.055474974 0.052810036 -0.009617417 -0.06653571 -0.062604494 0.02588816 -0.04505755 -0.047882393 -0.07634645 0.0396783 0.08714501 -0.0442995 0.0827374 0.035762843 0.011746922 -0.035060532 -0.075545564 0.07106432 -0.07192157 -0.00087666966 -0.058765166 0.029945247 0.06571323 0.035967123 0.033819836 -0.025135318 -0.029058203 -0.06824408 -0.048122287 0.05935406 0.05537829 -0.07769195 -0.07675664 -0.010488233 -0.050004125 0.02645914 0.01829923 -0.06513303 0.007007771 -0.07462441 0.061433416 -0.07450878 0.0143340975 0.02398894 -0.0070012226 -0.06718587 -0.010705299 0.020808619 0.010046277 -0.082637236 0.024473002 -0.04551272 -0.068473846 -0.0026140981 -0.059515946 0.013221116 -0.028528424 -0.03135102 -0.010792172 -0.055053536 -0.078826584 -0.0619457 -0.069722064 -0.011767763 0.067622356 0.052116685 0.05825719 0.04909602 -0.028811824 0.008303437 0.06250659 0.039086025 0.017438065 -0.018769657 0.021428524 -0.0521785 -0.07004027 0.085358195 -0.06919261 0.029012484 0.07956964 0.015793392 -0.053844377 0.055323645 0.070984446 -0.07583687 -0.07743351 0.045093406 0.005505698 -0.017101577 -0.08339938 0.018685661 -0.06522174 -0.0010526206 -0.05069587 -0.06583668 0.05313094 0.0805417 0.046261236 0.06295126 0.06522877 -0.058017325 0.051828902 -0.012999937 0.022730479 0.03754461 -0.02730777 -0.0009614636 -0.08482955 -0.05260766 -0.06837947 -0.05892062 0.018450586
split -0.0683651 0.054025505 -0.057787552 0.029420678 -0.019402051 0.07592327 0.0336821 -0.045303937 -0.05978318 -0.038784664 -0.00793589 0.014955274 0.057783067 -0.025682079 -0.02857692 0.08658051 -0.0637418 -0.036479004 0.030709278 -0.07844847 0.025218997 0.08439852 0.037004784 -0.0009120236 -0.027231274 0.024062704 -0.078375585 -0.047541782 0.02560983 -0.04847314 -0.02436801 -0.051162437 0.00025985448 -0.08504756 0.026173133 -0.0014232477 0.004828282 0.04981603 -0.07971576 -0.03707429 -0.01795416 0.05703236 -0.015198745 0.01652265 0.048896622 -0.024053726 -0.033406578 0.06322537 0.04007517 -0.046236932 -0.02783318 -0.047798216 -0.08358781 0.0031203122 0.034691937 -0.016721912 -0.008038222 0.06748903 0.04058753 -0.019906528 0.016556514 -0.061824996 0.0027297735 -0.003943088 0.024225313 -0.012913346 0.0017366718 -0.0805737 -0.071885906 -0.08082152 -0.07356993 -0.046499785 -0.008245642 -0.033123966 0.068047985 -0.01938245 -0.06626944 -0.013688389 -0.053242754 0.07504027 -0.009721902 0.032117944 0.062002696 0.041853845 0.0677276 0.005033565 0.07414521 0.030992458 -0.016790079 -0.017735515 0.04693812 -0.058556587 0.06086653 -0.069456615 -0.08169996 -0.01675148 0.085935675 -0.057407398 0.058023687 0.070886545 -0.059889756 0.03463828 -0.07761838 0.00049446174 -0.00152703 0.083958514 0.024070935 -0.0024384237 0.0072320923 -0.0451794 -0.0029549915 -0.05302507 0.05020783 -0.030953648 -0.034791235 -0.06165659 0.085302636 0.08747029 -0.06608196 -0.0550502 0.005893317 -0.056604266 -0.071364395 0.0132145025 0.08163328 0.018387068 -0.011804267 -0.033169 0.033499338 0.018963896 -0.021079341 -0.036205012 0.018054577 0.07044534 0.03450766 0.036642823 0.045590747 -0.021796007 0.01795907 -0.07217475 0.03315088 0.021347778 -0.08580637 0.016165018 -0.08542746 -0.019600527 -0.07815172 0.06439365 0.014384201 -0.05396653 -0.0017673541 0.08261355 0.07875637 0.0836645 0.034547 -0.0009777308 0.0057033366 0.04776074 0.0637393 0.005373439 0.0045306003 -0.008127122 0.08405776 0.022629436 0.052697863 -0.0605072 0.011097647 -0.06873676 0.09005542 -0.027696714 0.010435119 -0.01010882 -0.04248928 -0.010117318 -0.046856374 -0.07198454 0.051859766 -0.068600304 -0.05712152 -0.0060912925 0.056648992 0.05685509 -0.036935538 0.075735226 0.039714776 0.0093692215 0.0743833 -0.047076974 -0.03498532 0.037474025 0.016990883 -0.06929185 -0.012998192 0.0067828977 -0.048169855 -0.0058261734 0.04267241 0.015965931 -0.019783854 -0.04931783 0.017030142 -0.022644913 0.074332714 0.019681836 -0.044724077 0.06930946 -0.03694129 0.017793514 0.08600092 -0.0068235146 -0.005673845 0.002889329 -0.01782036 -0.047752284 -0.05917458 0.038497657 0.0371963 0.07351143 0.06299151 0.0013582711 -0.058040015 0.058436256 0.04507705 0.055966657 0.027313434 0.04504893 0.08947675 0.012095668 0.08338916 0.015852492 0.08608938 -0.004642192 0.048865497 0.043843437 0.019266633 0.03135054 -0.008230674 0.01905785 -0.0027886904 0.04112401 0.039449934 0.0364109 0.03625314 -0.08305819 -0.020995308 -0.06449894 -0.059356015 0.014742008 0.047394317 0.07111129 -0.041556492 -0.066604845 -0.02405403 -0.023202596 -0.07774397 0.06318514 0.06201941 -0.015124041 0.07153443 -0.060658656 0.029444925 -0.05037064 -0.038029354 -0.0019267575 0.0052571003 -0.07952272 -0.026214037 0.053285863 -0.023489 -0.050416242 0.029608013 0.034989946 0.011638118 -0.064007424 0.00048962375 0.0635006 0.03851095 0.0029407423 0.05256185 0.016181916 -0.074926294 0.06255459 -0.062152978 0.05053902 -0.030416006 0.0025453274 0.06726281 -0.05078104 0.062307216 -0.07850411 0.05142379 0.06795484 0.079794005 -0.08313116 0.08228319 -0.074975215 0.022356663 0.02197766 -0.081277974 0.013563524 -0.01574391 0.062176734 -0.06553218 0.07493972 -0.078609474 -0.014343096 0.042293455 -0.058737036 -0.06650901 0.072642125 0.07206533 -0.0046051936 -0.0041277064 0.0012966344 -0.018792752 -0.05225321 0.08493411 0.073148705 -0.026794579 0.07792635 0.011352395 0.07212467 0.06577878 0.0147327185 0.011666713 -0.076984785 -0.0524642 -0.0020203572 -0.059523836 -0.009200892 -0.00027445419 -0.08854073 0.04676467 0.015025317 -0.031938776 -0.048015796 -0.03777485 0.028800087 -0.045574106 0.013106635 -0.08775051 -0.071360685 0.05665788 -0.012368146 0.072254695 -0.039935764 0.07163993 0.007139982 0.023323597 0.060166877 -0.014507366 0.007118181 -0.041280232 0.051448733 -0.018233424 -0.022602808 -0.07120976 -0.0648868 -0.08398268 0.030796662 0.010685589 0.048168827 -0.013004409 0.0028205183 0.009449756 0.0014393529 0.028256286 -0.089299105 0.040313102 -0.0029353937 -0.025927344 0.048337586 0.07219482 0.07374695 0.02962378 0.036415603 0.07729818 0.030235978 0.0331201 -0.05927407 0.05301614 -0.03602639 0.0045191385 -0.04286323
get|line -0.024571573 -0.044891775 -0.037048433 0.025128426 -0.024452679 0.015877372 -0.07598431 0.044967305 -0.07065428 -0.07408555 -0.056882482 -0.0021739467 -0.02653549 0.009050791 0.004645881 0.02625202 -0.06824648 0.07236953 0.053260986 -0.033747032 -0.015106141 -0.066202186 0.069322065 0.07357651 0.011224467 -0.024537524 -0.027839899 0.0876643 -0.05687049 0.06338084 0.028160283 0.02677675 0.0152946375 -0.0058620614 0.0033653753 0.028823053 -0.019715382 -0.081921995 -0.0023703638 0.045773488 -0.050988927 0.038552303 0.07240494 -0.07587192 0.0021910833 0.051460937 0.051143065 -0.00559618 0.07114708 -0.058822695 -0.021535227 0.020803113 -0.042371023 -0.016410355 0.027747976 0.07503159 -0.041865453 0.025293691 0.0013630867 -0.06505059 -0.06422709 0.07912427 0.056940675 -0.052428782 0.014583584 -0.046610147 0.07148649 0.06600932 0.049169376 -0.045088686 -0.015295533 0.08816264 -0.089783706 0.06374915 0.08375361 0.0697385 0.085138395 0.08185702 -0.06650047 0.008095764 -0.03688845 0.08492351 0.06674577 -7.28321e-05 0.05780861 -0.08138696 -0.079681136 0.037788935 0.07597936 0.0560184 -0.048875526 0.025647098 0.008215779 -0.028045231 -0.08610611 0.0036971988 0.017954892 -0.025328893 -0.048653897 0.062170606 -0.045108 0.011791818 0.04159711 0.00678185 -0.08387177 -0.018080946 0.063615516 -0.070754215 -0.052068144 0.082681455 0.0073355613 0.0372166 0.07984438 -0.070308015 0.040875692 0.07109756 0.029750055 -0.05913153 -0.037611898 -0.060488075 -0.019001849 -0.051056907 -0.06714094 0.005813861 0.037209723 -0.06685686 0.02434819 -0.008807726 0.01666534 0.012812758 -0.0583735 0.045656055 -0.027802197 0.059155088 0.027609792 0.0018645322 0.07785721 -0.03659299 -0.038079843 -0.0029189987 0.0694352 -0.08565561 0.023289254 -0.0035028677 -0.069885775 -0.005358061 -0.08642872 -0.0797157 -0.050545476 -6.627181e-05 -0.014192966 0.060752336 -0.041667074 -0.0473205 0.038573153 0.005323645 0.036588926 -0.00028196082 -0.033808503 -0.08298676 0.006733855 -0.032082874 0.010946852 0.023682266 0.08023439 0.07383012 -0.04061121 0.008757515 -0.05386021 0.085037746 0.014825336 -0.035418548 -0.035417568 -0.0487508 -0.04456054 0.08439656 0.028078726 -0.019255264 0.053799532 -0.007543966 0.068078496 0.055012275 0.06436846 0.078197226 -0.04547011 -0.063768886 0.008141159 -0.037146766 0.030621024 0.037075847 -0.043894086 -0.048867 0.029856939 -0.083793685 -0.04161963 -0.08008179 -0.010773674 -0.03966285 -0.014251664 -0.03293643 0.032733437 0.013237046 -0.05919866 -0.03763658 -0.07381444 0.021084812 -0.080118336 0.07747564 -0.009410222 0.0057576746 -0.0119694425 0.08633726 -0.0071919076 0.009784495 0.07204444 0.055038374 -0.0072533684 0.02430729 0.06588354 -0.08559983 -0.06458659 -0.021072425 -0.048181016 0.082321405 -0.046489608 -0.019078739 0.04249438 -0.03059466 0.05518751 -0.06982121 -0.003149979 -0.071743295 0.032935042 0.065378346 -0.01186832 -0.058390398 -0.048845157 0.072739854 0.07583935 -0.066957735 0.06712145 0.06995247 -0.0027878655 -0.034443185 -0.00918394 0.018716782 -0.030837871 0.011483404 -0.08067555 -0.045050632 0.004441272 0.0498409 0.04667993 0.0057559935 0.011155096 -0.07437007 0.050120655 0.010390837 -0.0012708796 0.024038848 0.025743345 -0.036624208 -0.082644865 -0.035949133 -0.06343319 0.024725113 -0.07221779 -0.006258158 -0.06528899 0.037755728 -0.061059166 -0.015602975 -0.005233594 0.046509176 0.007814392 0.08458603 0.02024091 0.085606605 -0.018305652 -0.009941661 -0.009942865 -0.05794768 0.057509813 0.074915715 -0.055928044 -0.037711017 -0.0031754994 0.006099742 0.074582055 -0.07297939 0.045785945 0.0012820504 -0.044901904 0.011274058 0.001752398 0.08366148 0.060080897 0.0018481051 0.01265144 0.07615595 -0.055000823 -0.057188127 0.075425744 -0.03627219 0.03728015 0.07582491 -0.057405215 0.058620095 -0.014562113 -0.006833147 0.0055336067 -0.06216502 -0.038473986 -0.06504248 0.0277728 0.015233522 -0.053422377 0.0052101724 0.06897351 -0.0005429182 0.019543286 -0.014185019 -0.047833465 0.063470155 -0.043573342 0.05729086 0.034851775 0.0402965 -0.05419944 0.039468933 -0.030488525 0.050839726 0.042045288 -0.031555552 0.0006117695 -0.06781411 0.04463244 -0.083706886 -0.0791536 -0.06824581 -0.08033831 -0.061742414 0.022436006 0.0068935016 -0.06582181 -0.015766328 -0.077457316 0.003799525 0.036638483 -0.024600863 -0.08266274 0.052635346 -0.06571507 0.008219348 -0.071755126 0.072869964 0.08451321 -0.04321856 0.000895177 -0.056480393 0.068746366 -0.05927997 0.046201207 -0.077749364 0.080255695 0.059698448 -0.07067412 0.06573859 -0.08921992 -0.075164594 0.014145189 -0.06517674 0.045585264 -0.02150442 -0.014750987 -0.004053783 0.058012914 -0.0601177 0.04220191 0.0021787803 0.07847454 -0.004355771 -0.012236716 -0.02509922
flush -0.08140381 -0.05696096 -0.0281971 -0.08736319 0.08079023 0.01694088 0.086260654 -0.04887426 -0.049499907 -0.079350434 -0.04714359 -0.06544433 0.085657425 0.0056891274 -0.016729921 0.041836858 0.05065161 0.06364493 0.032064978 0.013639335 -0.0130383875 0.08060148 -0.062226698 0.00982557 -0.065182984 -0.08186798 0.07688418 -0.042321984 -0.05645002 0.03465341 0.059683852 -0.07285891 0.07454573 -0.054673567 0.037047915 -0.044009894 -0.08231771 0.020836907 0.07481051 0.06523966 0.039290443 -0.0032134298 -0.01089818 -0.015311888 -0.025576103 -0.018986257 -0.048450258 -0.050554406 0.046209708 -0.016543861 0.07720035 -0.0100667 -0.02590906 0.05873869 0.036766514 -0.01805165 0.010853328 0.072525755 -0.040079273 -0.026639558 0.053102236 -0.023082983 0.030991953 -0.042903844 0.038685434 0.033607215 0.008762921 -0.07751942 -0.051660974 -0.039377443 -0.07379876 0.061376378 -0.04184165 -0.027356217 -0.054714996 -0.050168287 -0.040522393 -0.06448596 -0.04243196 0.00875569 0.008282739 -0.051321246 -0.017237842 -0.008815327 0.05737814 0.034835655 0.022987394 -0.0559282 0.01957094 0.06655323 0.018368797 0.028648654 0.0707282 0.053282324 0.06274783 0.071561046 -0.044975452 -0.021173095 0.04762474 0.070326544 -0.04298627 0.0055874716 -0.011260552 0.0062805363 -0.01583204 -0.05017591 -0.085310034 -0.0602579 -0.051975835 -0.068768494 0.0057606236 -0.024011895 -0.042875912 -0.0057086973 -0.06563274 0.012576598 0.026296666 0.023498068 -0.0769562 -0.087644696 -0.037893932 -0.026532363 -0.016299987 -0.024880014 -0.023876121 -0.03582323 -0.048345815 0.052237477 -0.060726613 0.03184373 -0.020193035 -0.05476174 -0.07061635 -0.06301317 -0.018382363 0.03384757 -0.06900961 0.07234982 0.028350834 -0.044517577 0.005004941 -0.02303567 0.079303056 0.05283524 -0.07179426 -0.042903416 -0.04606433 0.013380721 -0.0046703443 -0.065571085 -0.07350475 0.035908587 -0.005865627 0.0352687 -0.008511867 0.087259255 -0.009392432 0.013074452 -0.018575931 -0.071691126 0.07597822 0.046158213 -0.042097334 0.07779728 0.02142976 0.06478514 0.009123687 0.074006274 0.019261194 0.0071141333 0.0048406688 0.045806456 0.036775082 0.047973603 -0.068031915 -0.0877601 -0.07666133 0.005666705 0.084752254 0.0031000432 -0.016024485 -0.06929378 -0.032514352 -0.0028424808 0.07936014 0.06596402 -0.028832087 -0.017334672 0.071827486 0.02270143 0.020627707 0.05338993 0.0063083735 0.08023785 -0.084311254 0.03848959 -0.06329544 0.018730419 0.024478603 -0.07488128 0.074568726 -0.0665134 0.016263476 -0.014569182 0.021467945 -0.015617535 0.033301797 0.063665 -0.045365714 -0.01858809 -0.06081167 0.06004725 -0.07791461 0.033978533 -0.036844846 0.050932135 0.06575373 -0.085521765 -0.03356651 -0.023859411 0.057977762 -0.0607575 -0.010402353 0.018966878 -0.027656619 0.0051739565 -0.07387382 0.084452175 -0.041158866 0.024503134 0.02635676 -0.084443815 -0.08081767 -0.08455629 -0.012603202 -0.050748378 -0.061527997 0.0867957 -0.023500364 -0.033705764 0.08213266 0.011169897 0.06991105 -0.04483081 0.05279707 0.07908082 -0.08105757 0.036324095 -0.050541025 -0.008963854 -0.07546298 -0.055985574 0.033529587 -0.064560086 0.047336005 -0.08035439 -0.060201228 -0.08470747 -0.0861905 0.0032679113 -0.020794604 0.059076328 0.0019203034 -0.07056631 -0.07971443 0.0052786833 0.08967983 -0.013262885 0.041293614 -0.05308413 -0.0032824015 0.055669792 -0.007317111 0.006295624 -0.08169894 0.021854328 0.07730889 0.08654437 -0.012577538 0.036756344 -0.067575105 -0.06893298 -0.052441124 -0.059246767 -0.067165315 0.031994842 0.06807668 0.016068645 -0.013600557 0.07572838 -0.0025793042 -0.023023468 -0.073865466 -0.017098583 -0.068985954 0.07086877 -0.08106557 0.084359884 0.07628882 0.026508633 0.031612813 0.0012019518 -0.041108888 -0.03160805 0.016129944 0.07784659 -0.087192245 0.003171124 -0.08386053 0.026401913 -0.036608353 0.050626792 0.011529983 0.04885341 -0.063092045 -0.06643542 -0.0587535 0.030934164 0.054538377 -0.06283587 0.073650084 0.005874918 0.0173777 0.009880707 0.01615967 0.06874787 0.011714447 0.071803525 -0.0229249 -0.072226286 -0.036448415 -0.08715968 0.05021834 -0.063286245 -0.054269493 0.0352563 -0.069999985 0.044302676 0.006587181 0.031935163 0.052675433 -0.06864644 -0.02141397 0.014409447 0.007739909 0.014755728 -0.023299638 -0.088669 0.028594188 -0.00988197 0.020093543 0.060636766 -0.014322772 -0.007730595 0.04714667 0.036499612 0.046385184 0.011759083 -0.08794908 -0.05659994 -0.071839936 -0.06756 -0.07906414 -0.057356544 0.07995715 0.014447821 -0.034342732 0.055551063 -0.02653256 0.059882183 0.01594105 0.012394588 0.036527216 0.037726555 -0.067573294 -0.038109988 0.0118317595 0.01995844 0.034710925 0.009815786 0.06120909 0.024605568 0.0098784985 0.0036640065
sqr -0.047754783 -0.06629255 0.04040355 0.07641411 0.06026659 0.08188908 0.0029153062 -0.043685235 -0.024665972 -0.08446639 -0.08431361 -0.035807047 0.01671826 -0.08826389 0.019103888 0.011640164 0.017786058 -0.057849564 -0.0027491194 -0.033592153 -0.029233659 -0.02144605 -0.016444018 0.056517877 -0.07455897 0.055136167 0.070404 -0.073339924 -0.010462793 -0.0010575037 0.014871721 0.08485649 -0.051778026 -0.067640774 0.049531672 0.034381907 0.08076342 -0.05609333 -0.02452914 -0.051376183 -0.069405444 0.050656725 0.08621201 -0.088540256 0.009283337 0.033874422 0.072531864 -0.08260549 0.08674661 -0.051354248 -0.07788612 0.011160073 -0.05815934 -0.073994786 0.07328928 0.05035554 -0.078805596 0.066528425 0.08301389 0.053671073 -0.0023177941 0.03916569 0.00353737 0.014468885 -0.08877282 0.018247074 -0.0175144 0.005263757 -0.01720423 -0.058686566 0.074051276 -0.0214062 0.020794453 -0.040440492 0.01740211 -0.03815117 -0.04930427 0.04588294 -0.0007622109 -0.07959034 0.07610563 0.079825334 0.05525521 0.05496784 -0.0452574 -0.077208996 -0.0637424 -0.07353707 0.043640673 0.008688798 -0.033154175 0.08080054 -0.06492609 -0.08306466 -0.08437278 -0.050852504 0.060492672 0.08615039 -0.07849756 -0.08241265 -0.04329912 0.020955946 0.050734922 0.052154414 0.06836869 0.024395578 -0.013684439 0.068460554 0.0075665163 -0.012676537 -0.08622563 -0.015389437 0.07402897 0.07920305 0.014217818 0.0647073 0.040523358 0.04073916 -0.024070423 0.019286573 -0.016321138 0.014084435 0.061951958 -0.061162427 -0.0058841547 0.026496803 0.07936568 0.07253653 0.066771545 -0.06924963 0.0062239543 -0.04664345 0.009791689 0.026604699 0.009729322 0.04549942 0.07238487 -0.05472459 0.06441832 -0.0030821064 -0.06432778 -0.07645564 -0.06391233 -0.058750235 -0.07547769 0.03684477 -0.067934126 -0.06396025 -0.08376705 0.02183703 0.074877076 0.051406864 0.083041616 -0.08713134 -0.0021560807 0.009563809 0.081043966 0.047320325 -0.050311755 0.03254597 -0.07826767 0.037444558 0.05322743 -0.039084256 0.03321316 -0.0056971475 -0.086353846 0.014851083 0.04210273 -0.056785278 -0.006435708 -0.053042457 -0.058381785 -0.041920267 -0.0048829857 -0.015291616 0.06395323 0.0013389628 0.00503722 -0.07640157 0.039889064 -0.043523997 0.004426165 0.072961174 0.019850262 0.056021366 -0.017162323 0.06677719 -0.03702685 0.007290969 0.08274969 -0.06605632 0.036001477 0.0026398336 0.050263144 0.023209566 -0.058650155 -0.027923329 0.06142085 0.06666729 0.020247284 0.07120319 -0.008447238 -0.0027880862 0.036095604 -0.03878754 -0.04489781 -0.077386685 -0.07062092 -0.013057432 -0.008084777 -0.03690579 -0.036715116 -0.08795143 -0.084025174 -0.02784329 -0.07067766 0.060746636 0.04812061 0.07915091 -0.07830225 0.07031248 0.042966016 0.021456085 -0.08046601 -0.039869472 0.07552603 0.04371302 0.044745013 0.013022816 -0.0017141642 -0.03749803 0.07875279 0.056417685 0.00029704173 -0.035913654 0.07437618 0.040386625 0.0272095 -0.07090078 -0.027461303 -0.0037243534 -0.045147993 -0.029307038 -0.01687996 -0.064103544 0.02151584 0.002932763 -0.07316996 0.058595035 0.05206388 -0.033628818 -0.007819545 -0.044705883 -0.013269097 -0.020599056 0.06573377 -0.06634799 0.069865555 0.008099628 -0.085462496 0.051447175 0.0203498 -0.06048919 0.06650107 -0.06688399 -0.015729286 -0.08916247 -0.06299419 0.049997803 -0.05285 -0.013978032 -0.06473742 -0.038071614 0.027665492 0.06873779 0.08291374 -0.017656745 0.08111871 -0.009374546 0.049997933 -0.011197754 0.022780882 0.083732046 0.0529057 -0.043034606 0.05441349 0.06226602 -0.03663935 -0.071260594 0.03842701 -0.018361429 0.044097558 0.007807996 0.0025793673 -0.024484808 -0.02534337 -0.020702526 0.083440535 0.057836924 0.08284034 -0.019218475 0.07616309 -0.012111024 0.012182164 0.019315619 -0.052650232 0.030294325 0.04301644 0.002919902 0.044384826 0.013217411 0.05412841 -0.063531324 -0.057126477 0.06448937 0.056144502 0.03545226 -0.069791965 -0.0056537576 -0.031618766 0.021652007 -0.06063939 0.023706263 -0.039914973 0.01228853 -0.058246125 -0.07147811 0.01795006 0.02321763 0.003982022 0.030495506 0.05326137 0.014825359 0.04325966 -0.02211581 -0.07541225 -0.06841008 -0.034336973 -0.024095686 0.061059445 0.059212632 -0.08590671 -0.06454285 -0.03644025 -0.075374536 -0.053921387 0.014493928 -0.072754614 -0.045058075 -0.005308704 -0.0018520271 0.06022637 0.071256824 0.047561944 -0.08543057 -0.05318915 -0.009695303 -0.05976139 -0.07911061 -0.037215985 -0.020084215 0.051111087 -0.01397386 0.041104898 -0.06584954 -0.041876733 -0.0034665805 -0.082596704 -0.013084979 -0.059962224 0.013217211 0.06251075 -0.03479134 0.047127426 0.011925692 0.01955466 -0.012650575 0.0076542753 0.04257852 0.040730685 0.08391811 -0.06020831 -0.017935414
abs 0.055461787 0.01567973 -0.06850507 0.064753555 -0.07606476 0.043033376 0.03982105 0.012882136 0.07962889 -0.06687221 -0.054390702 -0.036877137 -0.05877597 0.07063476 -0.00033463002 -0.01853447 -0.0044655567 -0.009721234 -0.055602293 0.045451652 -0.07761875 -0.06667706 0.006318756 0.01836294 -0.06342515 -0.059628326 0.036002643 0.085876875 0.054354448 -0.0066031823 -0.008129033 -0.029684285 -0.08170481 0.06865576 -0.06876704 -0.0731058 0.047783744 -0.054017108 0.078411795 -0.028088976 0.07565434 -0.045565434 0.0779309 0.020249598 -0.03795838 -0.04992085 0.03733419 -0.02590127 0.029285556 0.07070659 -0.077257544 0.06172048 -0.082179815 0.049721655 -0.042339753 -0.026301974 0.00845832 -0.073991776 0.014121945 -0.01472931 -0.016458437 -0.04908492 0.030839613 0.06941634 -0.07489585 0.07720347 -0.07287063 0.004839155 -0.07467317 -0.08109374 -0.04813263 -0.072306976 0.04584556 -0.021930039 0.055348627 0.023179596 0.0063624703 0.06337106 -0.050084423 0.056085713 0.08264023 -0.07531812 0.052518707 0.028932687 -0.07202484 0.02443226 -0.014789925 -0.08620014 -0.015421134 -0.079672426 0.019136444 -0.014020634 0.026836658 0.029456483 0.027487952 0.0052019767 0.0037438136 -0.036642186 0.033679742 -0.055613346 0.06335175 -0.08354168 -0.050544843 -0.079332374 -0.08337061 -0.07975604 -0.06476254 -0.008836118 -0.09033618 0.076951526 0.056437574 -0.05479655 0.03631061 -0.022812232 0.084300734 0.06190153 -0.082466796 -0.02446161 -0.008848192 0.056883786 0.061550096 0.050988764 0.012872878 0.077994004 -0.012885146 -0.004149822 -0.03590196 -0.085104495 0.02141252 0.00690423 0.012811501 -0.0004627491 -0.037880957 0.04571596 0.03966873 0.08992827 0.05815154 -0.0030840342 -0.030911855 -0.017697178 0.051711943 -0.027261987 -0.033783093 -0.07193811 0.045522198 -0.06644028 0.018053982 0.058012974 -0.009349899 0.05615964 0.06646265 -0.017108645 0.080519155 0.013139712 -0.013279562 -0.05275124 0.03532077 0.02754593 0.054322287 0.034306925 0.04481432 0.07687951 -0.03460117 0.05424483 0.035064604 0.06814394 -0.022439223 -0.04049987 -0.06659643 0.0017333188 0.06068984 -0.03160409 0.0808916 0.041274585 -0.072076686 0.044937965 -0.056171015 -0.008006142 -0.01822452 -0.08009132 0.07002531 0.020158963 0.034353163 -0.06710734 0.013520306 -0.0068160323 0.017740771 0.048145447 0.007522734 -0.07935327 0.034226526 0.056334607 -0.022894613 0.07509645 -0.023681486 -0.048703294 -0.08217414 0.07247205 0.040145606 0.0619581 0.049972866 -0.031197263 -0.038890954 -0.00089510035 0.045050796 0.06302916 -0.084348425 0.019660182 0.059653312 0.039746292 0.041291814 0.08128022 0.036308248 0.041103862 -0.08589454 0.017738879 -0.036756825 0.054897163 -0.06386879 -0.018065574 -0.01580229 0.020444153 0.03621299 0.006822108 0.05799094 0.04592041 0.0103331655 0.08591513 -0.019076923 -0.05616044 -0.006622228 0.008253279 0.011699658 0.070427276 0.08346307 -0.004044174 -0.006590582 -0.0009699444 0.060818207 -0.03624834 -0.082746826 -0.016018406 -0.03602154 -0.013523491 0.04454046 -0.032666974 -0.010217362 0.03214699 -0.07080238 0.041636694 0.045759246 0.01791993 0.015148488 -0.025716087 -0.016735572 0.06119186 0.022682585 0.026831457 0.04697709 0.046081457 -0.019836258 -0.022201464 0.0059454655 -0.04865948 -0.055730008 -0.05559881 0.072592825 0.0361967 0.06283592 0.042181674 -0.0011234763 -0.07508474 0.07817152 -0.03509624 -0.09031711 -0.0004968743 -0.062376633 0.03379793 0.05206641 -0.06523255 0.054445755 -0.060083676 0.070969984 -0.023089541 -0.02230818 0.050549135 0.078993976 0.035137046 -0.03813778 0.016966518 -0.05486776 -0.03528175 0.026192464 -0.05292294 0.077030905 -0.05645676 0.07602115 -0.051242925 -0.0065782233 -0.021972876 -0.07510108 -0.03768925 0.083186194 -0.021090128 -0.008798458 0.023181885 -0.046963584 -0.076198526 -0.07608587 0.03358443 -0.013480773 0.07479366 -0.059238713 -0.022451049 -0.0024326567 -0.036260866 -0.08433147 -0.038044572 -0.06563197 -0.08175483 0.06415233 -0.047970578 0.007059422 0.017081827 -0.08322576 -0.041234065 0.0100875525 -0.08235593 -0.052249055 0.007873708 0.03389239 0.06795289 0.08963981 -0.07933247 -0.04456235 -0.002248339 0.035150565 -0.023343563 -0.08633939 0.014501793 -0.050231293 0.07611292 0.0062419884 -0.016707402 -0.054220658 0.042753678 0.046766844 0.048524566 0.05469774 -0.065484956 -0.03023942 0.01487254 -0.07690934 0.06250587 -0.07242107 -0.08004476 0.019886605 0.067034066 -0.015949877 -0.076542586 -0.008452496 0.085435055 0.07412692 0.07651221 -0.015091051 -0.0704499 0.03855988 -0.006927874 -0.063950785 -0.039586723 -0.06059689 -0.0740558 0.0063242693 0.045104846 0.01872379 0.056816883 0.06818585 0.0026515676 -0.028964285 0.04329261 0.017214512 -0.050269905 0.018460827 0.07570262
get|string 0.086655796 -0.05758483 -0.08061683 -0.03262213 0.041114558 0.0404364 0.05983442 0.032991067 -0.0001494789 0.087181285 -0.023880389 -0.07758561 0.039490983 -0.019406617 -0.054730702 -0.07295698 0.013676273 0.06898455 0.051167917 0.004960862 -0.011201205 0.06275168 0.047272243 0.0834435 0.05587924 -0.05558306 0.05764822 0.007835744 0.072753645 0.053114023 -0.090161055 0.075265 -0.06856754 -0.04792105 0.02396448 0.042876095 0.055685207 0.0045827148 -0.066675246 -0.074076265 0.05342108 0.08970376 0.0005720439 -0.016795225 0.017894622 -0.07760104 0.0494083 0.026991943 0.050046373 0.07575942 -0.030181203 0.0018915051 -0.045352172 0.02514645 -0.039196506 0.04017645 0.0774176 0.08613406 -0.014239791 0.07834026 0.056584314 0.042443488 -0.071896486 0.053774662 -0.028732358 -0.0149656385 -0.0632694 0.048788734 -0.0100101745 0.08230158 -0.046502534 0.01566911 -0.049169745 0.056494128 0.021750033 0.060607065 0.07755275 0.05483677 -0.08567998 -0.041100733 0.08224916 0.028688136 0.03683879 -0.04360542 -0.08007974 0.011867618 -0.0071588396 0.010943033 0.048697066 -0.06581783 -0.048783228 -0.06150638 0.015700007 -0.041532524 0.06448924 -0.013452044 -0.012352275 0.07503455 0.017642999 0.01250613 -0.07052605 -0.061560728 0.05478526 0.07525001 0.073070206 -0.0016657176 0.04766941 0.033107273 -0.018992746 -1.255353e-05 0.018517861 0.08669429 0.0050588856 0.0075498587 -0.014083103 0.0010842521 -0.079241134 -0.063518345 -0.035863444 -0.0064409734 0.07989121 -0.017862948 0.04701428 -0.028066665 -0.07721973 0.028228866 -0.010029512 0.017269997 -0.08787968 0.027781622 0.07565473 -0.039284576 0.08113883 0.085466385 -0.08070213 0.03349269 -0.06866611 0.052808456 -0.0857845 -0.06745101 0.003766647 0.07182221 0.028206721 0.018630033 0.012106389 -0.08591903 0.08356244 -0.023285575 -0.012920326 0.038830392 -0.049287524 -0.042598378 -0.023432096 -0.0018346063 0.065959975 0.038132768 -0.058154505 -0.070193134 -0.04015278 -0.052870948 -0.01368182 -0.02701748 -0.037127808 0.012584084 -0.002887032 -0.07655606 -0.032098684 0.06114833 0.027201347 0.038891282 0.02148279 0.040114872 0.057309162 -0.0076435674 -0.084512986 -0.032203797 -0.03228461 0.07067595 -0.035010673 -0.033146046 0.029505888 0.0024570453 -0.041318227 -0.015448172 0.046714965 -0.0023800298 0.045829915 -0.026496753 0.046367846 0.07331259 0.07084084 -0.03645975 -0.048374478 -0.0006205065 0.037793327 0.06774166 0.045944404 -0.06356497 0.0230624 -0.07781999 0.04546412 0.054318976 0.08219777 0.01993487 -0.06743109 -0.009889226 -0.0535941 0.030639194 -0.08153563 -0.023447644 -0.033420216 0.061244063 -0.046317186 0.049187273 -0.07400751 0.07507183 -0.046536554 0.051878683 0.038019575 -0.03292697 -0.057966985 0.04564573 0.056859594 0.0031038332 0.07059834 -0.08442016 -0.08399533 0.012579225 0.006756294 -0.07335932 -0.013806401 0.07313905 -0.07161614 -0.050993063 0.07621544 0.07757743 0.011768404 -0.042712677 0.04442827 0.02988969 0.07019567 0.008170135 0.006203673 -0.03694922 -0.066613235 0.05858631 0.005364177 0.08202463 0.004436968 0.040957246 -0.019650962 -0.024912404 0.04040863 0.07903461 0.07498775 0.021471793 0.008675239 -0.05066483 -0.058341533 0.049244422 -0.014636162 -0.06952038 0.0010870053 -0.0849793 0.08228858 0.045436893 -0.047755394 0.06578274 0.08522928 -0.04298428 0.044914536 0.050731417 0.06264008 0.01435888 0.01158848 0.031938337 0.0032311555 0.0030159622 -0.051485598 0.03655495 0.03410754 0.08945203 -0.04383011 0.08572833 0.027314097 0.020899132 0.0020257263 -0.018416526 -0.04862057 -0.06284045 0.046103295 0.036254477 0.077068165 -0.08246298 -0.06747394 0.007148766 -0.06478303 0.0022198542 0.006031868 0.08963088 -0.00034555292 -0.044624094 -0.049303513 0.075077705 -0.0035686195 -0.0362501 -0.007406033 0.06551836 0.064227685 -0.03700117 -0.07890446 -0.010956179 -0.086094245 0.06894783 -0.01462998 -0.027147025 0.026253669 0.086430416 -0.023161752 0.033744786 0.08284324 0.029043436 0.0728655 0.0074454416 0.07255174 0.044422954 -0.055094298 0.018726222 -0.00048283685 -0.084734865 0.051034205 -0.0031888916 -0.031943083 -0.082654014 0.07628423 0.041320458 0.019434296 -0.041316662 -0.0075558852 0.008646572 0.052569516 -0.04395243 0.069648 -0.038840905 0.056542892 0.016053546 0.079498276 -0.049462747 0.01097128 -0.04505981 -0.08031639 -0.009575106 -0.057789627 -0.026452377 0.022271449 0.0018161192 0.037142128 -0.08173334 -0.007837828 0.072308436 -0.029434413 0.019416608 0.030471921 0.04455884 -0.048539 -0.03295062 0.05500208 -0.07761558 -0.058827497 -0.0048879297 0.047738682 0.08235247 -0.064087756 -0.044932347 0.0025424832 -0.009559233 -0.027544992 0.05994717 0.030201854 -0.015904004 -0.010469027 0.07439578 -0.08323484 -0.040950753
gcd 0.011283692 -0.0021999155 -0.0010063901 -0.005244161 0.05912669 0.019210277 -0.040776093 -0.06253708 0.077081524 0.022037778 -0.06757029 0.03245878 -0.008173998 0.042847615 -0.05774545 -0.053969868 0.08667159 -0.002477419 -0.006014811 0.05364174 0.0741436 -0.035517354 -0.015844692 -0.008734083 0.024040602 0.04235317 -0.058338843 0.0007883706 -0.03472863 -0.08856589 0.02532271 0.01864881 0.036430627 0.06715042 0.056767058 0.02485836 0.06879395 0.07168273 -0.054247815 0.026287984 -0.024291003 0.08645284 0.060396746 -0.0042871283 0.050331667 -0.06744814 0.03852484 -0.022216782 0.048536185 -0.060917493 0.061657414 -0.06469104 0.040544987 -0.058772366 -0.08073278 -0.040508576 0.06825935 0.029113058 -0.068244085 -0.059371687 0.043071117 0.0828902 0.027314575 -0.07953103 -0.048905328 0.071701266 -0.034962155 0.08184556 -0.054257844 -0.06298631 -0.017768355 0.005273701 0.05371793 0.01269822 0.06020184 0.051871184 -0.013999777 -0.0069837286 0.0682415 0.014990605 -0.027508346 0.023418484 -0.059466343 -0.08907639 0.015467089 0.023954712 0.06670461 0.0055768713 0.088954 0.04429187 0.047317043 0.063005164 0.07270753 -0.023211516 0.07589832 -0.02078771 0.0427592 -0.0634251 0.062504865 0.052363764 -0.06699254 -0.029522112 -0.070372134 -0.07976035 0.040095218 -0.022558717 -0.05619771 0.04746052 0.035173237 -0.085067436 -0.042074904 -0.043394994 0.04121649 -0.079299666 -0.06485312 -0.038960446 -0.033926718 -0.01583046 0.06421586 0.023786956 0.07816976 -0.050398614 -0.031699553 0.04791764 -0.04930371 -0.08376441 -0.021470593 -0.08180842 -0.08618209 -0.04884509 0.03211091 -0.0130601805 -0.036832113 -0.02825436 0.041831605 0.074816056 -0.077906914 -0.0059428015 -0.034935944 0.039756764 0.00023695547 -0.019142345 -0.007982966 0.02649073 0.062376115 -0.011574663 0.020475473 0.044209573 -0.03635701 0.025688993 -0.010643661 0.054318655 -0.036680423 -0.0135192145 -0.028262265 -0.02091122 -0.047428444 0.0244883 -0.01680886 0.02423983 -0.057580978 0.010023507 -0.02620404 0.026059188 -0.03637845 0.022104004 -0.06339093 -0.07623089 -0.07036283 -0.06636552 0.047265958 0.08154738 0.023523187 0.06921269 -0.018412575 0.063249834 -0.07634635 -0.069106534 0.053841047 0.023707189 -0.04524757 0.04701879 0.012586347 -0.0847243 -0.06889634 0.020093916 0.07931696 0.033775903 0.070120186 -0.0008504961 -0.0023485124 0.065508924 0.060900588 0.071955666 0.07576227 0.05817372 0.0021843624 -0.025757952 -0.0013268512 -0.07937165 -0.03629759 -0.019596472 0.060381778 0.060922086 0.0430328 0.06452869 0.009109645 0.080629304 -0.062484812 -0.0364986 -0.009201088 0.022773929 0.02846596 -0.073329896 0.07873857 0.01158308 0.059029862 -0.023289355 -0.05656956 -0.025659475 -0.04017543 0.072755754 -0.026326159 -0.04795443 0.043812852 0.0877411 -0.059541814 0.04987015 0.04463948 0.020853825 0.019368032 -0.06258684 -0.056337737 -0.0006339259 0.01272543 -0.040545527 0.07703363 0.081226796 -0.085599095 -0.042867385 0.002622447 0.06039316 0.08036331 -0.020522384 0.03386355 0.016700074 -0.072159 -0.033445798 -0.015735358 -0.0787756 -0.082259856 -0.07853215 -0.058521576 0.057954267 -0.02368982 0.08723272 -0.018959705 -0.028341739 -0.0014875028 -0.0777987 0.069770016 -0.030914405 -0.08437368 0.007959759 -0.08076603 -0.012403803 -0.044096906 -0.08237891 0.043516014 -0.030240132 -0.035003737 0.03964447 -0.057458278 0.020768063 -0.089829594 -0.06785512 -0.05451056 -0.084462486 0.022874549 0.0043929084 0.066241704 0.018321874 -0.060361817 -0.07115951 0.07146292 -0.057737842 0.0645117 0.07760001 0.055498842 0.06758119 -0.07900283 0.002659318 0.065243214 0.050127875 0.0585989 0.056893736 -0.05526802 0.079511106 0.021366447 0.002885351 0.026662866 -0.043153007 -0.05218213 -0.016498799 0.01076274 -0.08109244 -0.019474782 0.04606795 0.078673914 0.074717484 -0.06230996 0.08355021 -0.05837762 0.02229518 -0.08399748 -0.01422492 0.015666312 0.0179472 -0.08695325 0.036536116 -0.0518061 0.076836474 0.08301487 -0.0671558 0.0749868 -0.06685661 0.08588851 0.053472158 0.06378616 0.08161004 0.06354737 0.0023330257 -0.062287893 -0.058918342 0.052807238 -0.078938715 0.04323666 0.08938632 -0.012901996 0.046347056 0.07933936 -0.0042497274 -0.051741034 -0.05964277 0.0763882 -0.063749105 -0.057475585 0.043899722 -0.014650555 0.039195247 -0.015753675 0.020466493 0.045388486 -0.046270713 0.0771016 -0.0074679456 -0.038840298 0.07277345 0.012045898 -0.030108577 0.024354879 -0.065791406 0.06859969 -0.018196642 0.0011396981 -0.035004083 -0.010432506 -0.086006835 -0.07308399 -0.045525976 0.05774346 -0.047536798 -0.018846912 -0.06844839 0.009793897 -0.023448797 -0.07102497 0.061219413 -0.00025659357 -0.009530891 -0.027676955 -0.045089275 0.038938154 -0.005454298
num|inversions -0.06984869 -0.06468546 -0.0518299 -0.03224482 0.042708643 -0.07356801 0.058502767 0.02433817 0.05252178 0.012198552 0.044111304 -0.022547083 -0.0258593 0.030126112 -0.026049415 -0.048365664 0.08749482 -0.055037696 0.038775813 0.073388696 -0.024391672 -0.047738522 0.06180332 -0.047617063 0.036257584 0.025545511 0.06782186 0.024163496 0.038961343 -0.00541833 -0.0459095 0.031884957 0.059699144 -0.03935092 0.016183648 0.03214324 -0.06802755 0.06794726 -0.01874027 -0.037904125 0.03596404 0.03749652 0.065670386 0.052415747 -0.005824485 0.0072159045 -0.053902354 -0.062262863 -0.086813495 0.08906264 0.07535972 0.025967954 0.012836736 0.017059194 -0.08899147 0.04205398 -0.08139028 0.08235399 -0.065245785 -0.00521382 0.045616906 -0.066476256 0.082116656 -0.0792544 0.0541209 0.028100004 0.05192072 -0.08650351 -0.07832152 -0.030570593 -0.022561235 0.049676973 0.067666 0.047912285 -0.005311177 0.049286257 0.06355119 -0.031582847 -0.082873575 0.034243423 0.04041153 0.03116957 0.030370766 -0.051531233 0.017852426 -0.023931466 -0.08037948 0.032173447 0.07819247 0.031368583 -0.0001526032 -0.05617642 -0.025774723 -0.053704485 -0.016971385 0.05679913 -0.022916965 0.0031637172 -0.051848546 0.037045445 -0.016646855 -0.053731784 0.04348305 0.023937955 -0.06398603 0.03550431 -9.3863e-05 -0.047160134 -0.086662985 0.06789883 0.06957661 0.06540398 0.08381872 -0.06564484 -0.031372502 0.07277765 -0.08503084 0.063295364 0.008522069 -0.054446466 0.0069139283 0.08257844 0.0047242055 0.035754308 -0.020513883 -0.004471568 -0.014843858 -0.04916529 -0.07414049 0.017737418 0.026059145 -0.019395709 -0.08022439 -0.022316603 -0.016328998 0.018951884 0.0739457 0.041521285 -0.08529768 -0.016451044 0.08681328 0.047990073 0.02825441 0.00799616 -0.023303645 0.08594592 0.07213261 -0.055554107 -0.06894372 0.03090619 0.03192898 -0.058305144 0.0285041 -0.011681821 -0.020161778 0.053467013 0.021624874 0.08748545 -0.072304256 -0.00095521135 -0.0456141 0.070668995 0.071148835 -0.025360461 0.054785885 -0.026817417 -0.056376107 0.07773664 -0.046259116 0.076258935 -0.06642993 -0.024767112 0.0688887 -0.08610452 -0.07508098 0.041223772 -0.079566576 0.061919793 0.009382109 0.025012918 -0.06561029 0.070759565 0.067162074 -0.060348418 0.03849201 0.07414431 0.053092692 0.08210833 0.045357794 0.043996733 0.08227613 0.058083087 -0.07284088 0.015507993 -0.040242568 -0.07015951 -0.041471153 -0.0260379 0.05742655 -0.06508519 0.06485835 -0.035848565 -0.03762903 0.075372785 0.04129225 -0.06869928 -0.07865615 -0.038166802 -0.0488445 0.07556725 0.0845862 0.0073987115 -0.031102374 -0.031494875 0.008411495 -0.00032317964 0.084483676 -0.0047639543 -0.088660315 -0.031689864 0.084649734 -0.04039884 0.082294635 -0.06823331 0.06572683 0.016444089 0.05043717 -0.0026750218 -0.01729067 -0.068256624 -0.051937 -0.042337183 -0.042658467 -0.078693666 -0.06920626 -0.08354743 -0.031970426 0.07689526 0.052417524 0.029911455 -0.040815536 0.00260644 0.07841293 0.06139066 0.017015684 0.0075592706 0.017627485 0.07236378 0.032876156 -0.0008282887 0.057692315 -0.08519872 0.085372955 -0.0060852887 0.039704047 -0.085411824 -0.08307807 0.033325136 -0.09029338 -0.018629905 0.038604744 0.007682669 -0.062451135 0.08193314 0.01775761 0.009913765 -0.057996046 0.08565736 -0.059428364 -0.07932158 0.04242301 -0.054682296 -0.020224873 -0.052453008 -0.05288596 -0.080200896 -0.06197117 -0.043365348 -0.08127264 -0.06233605 -0.04374038 -0.056918945 0.03865843 0.046643723 -0.002700059 0.038481936 -0.059121534 -0.0013850967 -0.07905785 -0.0326259 -0.056101806 -0.013577179 -0.07781426 0.06792295 -0.08775564 0.046457954 0.0041627265 0.0009252699 -0.05060473 -0.025682626 -0.031433173 -0.019660754 0.053560358 0.0012374336 0.061132625 0.07015221 0.07669673 0.08548962 0.08745881 -0.03269213 -0.030618774 -0.024638936 -0.023806939 -0.08495758 -0.017207032 -0.0035818988 0.070461154 0.07838251 0.050012283 -0.044979166 -0.03716919 0.010892368 0.07605983 0.07372962 -0.06411692 0.04288731 -0.010277657 -0.07867084 -0.06034841 0.08493418 -0.007769799 0.020826252 -0.065127246 0.008643553 -0.005619638 -0.043013435 -0.088688135 0.08287549 0.08864002 -0.019171186 0.07622178 -0.06799337 0.063050784 -0.012114241 -0.025657928 0.043404747 -0.05543632 0.044635303 -0.03197098 -0.027090097 -0.055497456 -0.07901076 -0.06834943 0.01966057 0.043415118 -0.013265244 -0.056903955 -0.0012585088 0.074748665 0.0015355384 0.0329225 -0.0145379165 -0.0124760475 -0.06898402 0.07600452 -0.07383255 0.07050776 -0.005525607 0.06231098 0.038615976 0.039799057 0.0047779903 0.07752139 0.07621848 0.055220656 0.0580031 -0.051001742 -0.015501432 0.02945018 0.003995651 -0.013727221 0.0066714194 0.04640403 -0.008462497
