14 384
<PAD_OR_OOV> -0.02842276 -0.08330979 0.08027091 -0.08609625 0.056363903 0.035794232 -0.06572176 -0.011115746 -0.08160648 -0.06839403 -0.07022774 -0.01971216 0.06102486 0.024844617 -0.00014935981 0.013479769 0.07465241 0.0040902724 -0.055509046 0.0010471058 0.00052836165 0.008526371 0.02461927 -0.009911481 -0.087431826 0.07552186 0.08062049 -0.03478885 -0.079517744 -0.014039738 -0.056019586 0.07529225 -0.0032662486 0.06146387 0.08854365 0.028066633 -0.033650722 -0.022741878 0.01760062 0.05931387 -0.022946823 -0.009714741 0.074995264 -0.042489793 0.06486845 0.05092889 0.010772012 0.058468133 -0.008748888 -0.027698655 0.010494962 -0.08531573 0.057061642 -0.024686217 -0.077849776 0.013909098 0.015986549 0.052578907 0.077580065 -0.007332865 0.06351486 0.088201344 -0.076293916 -0.070222035 -0.03024824 0.002320056 -0.031070463 0.06392698 0.084001526 -0.06505411 -0.06208105 0.05892065 -0.07031515 -0.088017635 0.004636132 0.008932354 -0.037471335 0.009761671 0.07898977 -0.07435978 -0.005660722 -0.051676564 -0.06539403 -0.008480763 0.073355846 0.020064257 0.042779204 0.030064119 -0.05039882 0.0677138 -0.07218805 -0.007555265 0.05090025 -0.08906626 -0.009125177 0.026907444 -0.04173863 -0.025258843 -0.06604712 -0.0050948407 0.04344672 0.004911322 -0.0747518 -0.014684266 -0.057716038 -0.03596689 -0.047078073 0.01682092 -0.025824828 -0.011920796 0.025910618 0.06876519 -0.060422253 -0.0052983565 -0.007693087 0.05440524 0.035630915 -0.05937449 0.06646017 0.061001964 -0.08563635 0.0739649 0.06336941 0.04077499 0.01591787 -0.039850406 -0.08603038 0.08924342 -0.029648991 -0.051628552 0.00792323 0.040187683 0.0875278 -0.033259526 -0.042248935 0.07375848 -0.038822155 -0.05161643 -0.08124122 0.06745739 -0.012401704 0.0011123098 -0.027467558 -0.077314116 0.01670837 -0.0067793066 0.071796544 0.06601116 -0.07813962 0.023383733 -0.0062219114 0.058604527 -0.021487288 0.054810006 0.07017357 -0.035040345 0.022121584 0.04292499 -0.056463793 0.049782533 -0.0052533373 -0.036044925 -0.0031788745 0.046011645 -0.07444135 0.028437225 0.04898328 0.041975703 -0.046110388 -0.061570246 0.043493852 0.034514956 -0.008934705 -0.0062371925 -0.021103505 0.07369073 -0.034958445 0.020114731 0.028656613 0.02935196 -0.03596843 -0.072849035 0.03682424 0.023231363 -0.011555512 -0.086957656 -0.055568133 -0.03826371 -0.009427047 0.052567713 0.07180072 -0.053588096 -0.07421624 0.035431683 -0.001231287 0.056340344 0.016127976 -0.07810178 -0.07051542 -0.011697545 0.02930182 -0.069315106 -0.077045396 -0.07728591 0.07088823 0.028932067 -0.04479036 -0.004853882 -0.033082098 0.07191901 -0.024634492 0.06654369 0.0458327 -0.08582528 0.06410072 -0.068889245 -0.0018476979 0.04077622 0.06361646 0.086247206 -0.032989267 0.02158286 -0.0055130413 0.06120224 0.010251043 -0.021119576 -0.062284146 0.048277557 0.033706207 0.052584678 -0.07307649 0.051890675 -0.041217916 0.08434548 0.04447682 0.07702345 0.071064085 -0.031010017 -0.08600446 -0.08018209 0.06317488 -0.071323365 -0.07349212 0.076958194 0.024200078 0.011587075 0.0456693 -0.009664685 -0.07330468 -0.04724391 0.050230175 -0.053867407 0.039897382 0.0043510017 0.012156745 0.053743914 0.055629604 0.04518818 0.04438679 -0.083832644 0.045563564 -0.015554825 -0.04624588 0.07962494 -0.066894725 0.02334698 0.0556768 0.025928019 0.05637681 0.037482582 -0.043620512 0.08094498 0.031687126 -0.033010874 0.035823565 0.06630636 -0.04533286 0.012441137 0.018926451 -0.009759202 -0.032843173 0.03346029 -0.043518525 -0.023846116 0.024430739 -0.03658936 0.0011755131 -0.041190278 -0.019603027 -0.02464946 -0.059980877 0.0146620255 -0.05128986 0.059379622 -0.050575953 -0.062909655 0.0016879414 0.087082036 -0.07187144 0.08723517 -0.041557327 0.033482414 0.003859116 0.0077399868 -0.07030176 0.01959718 0.010483353 -0.08148343 0.023816446 -0.04470117 -0.0094530955 0.06243297 -0.048579693 -0.039053682 -0.018386425 -0.04487492 0.03724775 0.028844576 0.031849895 0.04845477 0.065651394 -0.0026655076 0.002573638 0.023497969 0.032808274 -0.08371303 0.03429262 0.03616495 0.03666876 0.015118665 -0.068417914 0.05284524 -0.06434495 0.018076053 0.087371945 0.08086239 0.07517891 0.010024359 0.009172356 -0.0028694682 0.06365767 -0.0051265284 -0.056362398 0.05615246 -0.07114578 0.036521394 -0.07635567 0.013033678 -0.06704391 0.075628854 -0.0530015 -0.055354666 -0.054415714 0.025917925 -0.06955142 0.07997488 -0.017054206 0.022904104 0.060231637 -0.017656246 -0.0740596 -0.0537911 0.022101516 0.024827426 -0.047911495 0.0754217 0.063858114 0.04360816 0.079301305 0.051741548 -0.013992064 0.027070202 0.08526372 -0.019791279 0.046609722 -0.03213232 -0.050604515 0.0645691 -0.037564345 0.046496093 -0.083738774 0.04496032 0.0124885375 -0.013767891
bs_4.c 0.07185814 0.085362785 -0.07843383 -0.021283258 -0.020937916 0.007956429 -0.03188142 -0.0120626 -0.0099344645 -0.06908722 0.08364479 -0.030049277 -0.0060802307 0.02467101 -0.047954544 0.045124933 -0.012407943 -0.049274474 -0.054227803 0.038665224 -0.030256525 0.0106792245 0.06960914 0.0077295573 0.04217551 0.06703824 -0.017801808 0.071224935 -0.08193439 -0.024839021 0.081279635 0.08134709 0.07349257 0.028199079 -0.011779759 -0.04453912 0.05093854 -0.053468768 0.0686001 0.021970518 -0.061178144 -0.05134587 0.008176011 0.046386365 0.032009706 -0.041048605 -0.057394274 -0.075762205 -0.036581013 0.030864486 0.06928105 -0.024692776 0.049375534 -0.014753661 -0.018529315 0.06399949 0.0009875622 0.07903207 0.071118735 -0.029242817 -0.06641263 -0.083899565 0.000499349 -0.021040946 0.047013953 0.07392422 0.033782672 -0.05886459 0.025480408 0.08338594 0.042026855 -0.007047264 -0.0108880205 0.062250216 0.04722273 -0.014012119 0.009853743 -0.065417476 -0.00048310054 0.009675051 -0.055990655 -0.052826457 -0.058889106 -0.066223085 0.028013755 -0.07576849 -0.051929314 7.759279e-05 -0.057267517 -0.04409497 0.042700373 0.054864306 -0.05089477 -0.04606797 0.002485949 -0.07394206 0.035123385 -0.0018239744 -0.011623524 0.023242734 0.06685812 -0.026919289 -0.07053886 0.038411718 0.08822731 -0.006392447 -0.0049033947 0.06850613 0.06212027 0.017698633 0.039528206 0.052223805 0.0015367388 0.018730082 -0.05039479 -0.04260793 0.041248463 0.045789413 0.05112909 -0.044750396 -0.039714884 0.031785328 -0.017630793 0.06702557 -0.082716785 0.08669149 0.043525632 0.08723562 0.0042504976 -0.071138345 -0.045025647 0.08127219 -0.008999746 -0.05278759 -0.02806285 -0.029780596 -0.015293918 0.043781396 -0.022087833 0.08427569 0.07430209 -0.068387054 0.049475074 0.020013256 0.07542735 0.039363604 -0.046520393 -0.0032621524 0.017216913 -0.08501786 -0.03594936 -0.06295427 0.041485902 -0.042664763 0.023814298 0.017707327 -0.0136136785 0.033212 0.034179702 -0.020890936 -0.07415757 -0.031640314 -0.06848493 -0.01068993 -0.0757884 0.044882063 0.056461256 0.06926511 -0.07022274 0.08448416 -0.04105355 -0.058405377 -0.04982596 -0.054773662 -0.016108967 -0.02282473 0.07493856 0.0655401 0.07705688 0.020888219 -0.07507792 -0.03961767 -0.07509138 -0.057783656 -0.06351702 -0.035063606 -0.057535537 0.020748751 -0.07639362 -0.017106982 0.010356408 -0.0738134 0.06307823 -0.08162488 0.019170776 -0.07273245 0.00029929273 -0.03068782 0.0698919 0.031722147 0.060372323 0.0496323 0.02585495 -0.041332252 0.061067518 -0.03863597 0.08588424 -0.041746724 -0.048491616 -0.01320538 0.012237342 0.081995554 0.01622784 -0.04951213 0.021013886 0.032584317 -0.033100065 -0.0632356 -0.074511446 -0.0062392694 -0.053020958 -0.037171353 -0.07055886 -0.08907685 0.034569137 0.04246385 -0.063578665 0.076856956 0.010900822 0.03800972 -0.028933695 -0.038984336 0.0682334 -0.022109842 0.052864615 0.08485914 0.016840048 -0.027748065 0.044093434 -0.04956879 -0.0027253828 0.039910015 -0.08650633 -0.01717731 -0.050298326 0.053384144 0.024570368 0.076249704 -0.056183882 -0.0026069174 0.026471734 0.010313504 0.08427991 -0.025930028 0.03488029 0.07377104 -0.03523588 0.009532636 -0.03526844 -0.0576356 0.057555 -0.06561451 0.0019358721 0.011999582 -0.07666719 0.014002374 -0.038380433 0.035448723 -0.041970357 -0.059347764 -0.023039484 -0.04376776 0.015515 -0.06396483 -0.07441738 0.06909932 -0.03918272 0.0059525473 0.067539796 0.019496843 -0.08168462 -0.0756383 -0.061194576 0.017501347 0.058558073 -0.07497056 -0.031293005 -0.036540054 -0.01957466 -0.00012624788 0.016611807 -0.08554847 -0.08737394 -0.03149202 0.040663626 -0.018658128 -0.03676834 0.05274988 -0.028948834 -0.011551854 0.04853181 0.015946446 0.008143406 -0.08737466 -0.046691507 0.07386616 -0.05929415 -0.056222316 0.021569964 -0.0514063 0.015637722 -0.049791686 -0.017373271 -0.081125505 -0.08924489 0.03141047 0.089362726 0.025946667 -0.08103846 -0.050105896 -0.07927262 0.03793742 -0.040120404 0.0665089 -0.056099538 0.04230936 0.06643418 -0.048292685 -0.058176532 0.07733359 0.037950814 -0.067793086 -0.0156244 -0.0019169551 -0.013827464 -0.08272928 -0.07444596 -0.012079578 -0.010401711 0.065935545 0.06027307 -0.045850415 -0.07321153 -0.06279824 -0.03782738 0.030549064 0.021051485 0.01701495 -0.021844514 0.07102081 0.0732094 0.075700514 -0.04387594 -0.064035036 -0.0047414354 0.077477224 -0.040471986 -0.046235196 0.04490495 -0.050648592 -0.017569736 -0.031739816 0.053604774 0.014280088 0.062142506 0.00874268 -0.022562215 0.016542438 0.045002915 0.059907805 -0.048772957 -0.038058147 0.05389186 -0.010887381 0.06665502 -0.002534845 0.06654474 0.081832565 0.058910616 -0.060393553 -0.07492661 -0.06854798 -0.06151735 -0.036620222
ss_5.c -0.022032503 -0.019229217 0.052933007 0.03422382 0.059962746 0.03959311 -0.061740268 0.06226933 -0.017907146 0.030848743 0.051647633 0.06267309 -0.04052635 0.022594132 0.05823546 0.016005639 0.01554976 -0.08703027 0.0405472 -0.051380865 -0.036572915 0.0026848544 0.05655164 0.04547539 -0.07359536 -0.08749892 0.020472445 -0.064396866 -0.03361757 0.052370105 0.05560958 -0.016374378 -0.06634667 0.071940556 0.07389815 0.072552636 -0.083457924 0.06557789 0.053809285 -0.03762789 -0.018647647 0.030967072 0.026209546 -0.041042812 -0.014909022 0.055833705 0.06086186 -0.08904062 0.06304754 -0.019759433 0.0081572505 -0.027320499 0.02970132 0.058846813 0.010185334 -0.017560728 -0.08501687 -0.03970947 -0.049377486 -0.055435114 0.025422437 -0.04204667 -0.08194075 -0.037588604 -0.02530624 0.015414409 0.08637554 0.08044633 0.024321163 -0.04714043 0.08633266 -0.04975469 -0.0652415 -0.013069557 -0.054035217 -0.032331273 0.006180485 -0.061549943 0.073339924 0.08514406 0.041400284 0.035957992 -0.012093164 -0.024722522 -0.0857484 0.07411169 -0.028911598 0.036955453 0.03495709 0.069869176 -0.06127317 0.044199385 -0.021928333 -0.0061388854 -0.08355696 0.032703802 0.054497752 0.040421292 -0.036963925 -0.07902472 -0.052022174 -0.036512032 0.0068261335 0.02646549 0.057986245 -0.0027010157 0.04471839 -0.034626074 0.02272277 -0.027171101 -0.07737412 0.0016715853 0.044360198 -0.011408125 -0.07845037 -0.08324251 -0.0499141 -0.030436676 -0.0053422614 -0.034705058 0.017587602 0.0012374127 -0.05828934 -0.056174263 0.08814027 -0.023363777 0.021320198 0.08691536 -0.034273263 -0.051496018 0.022603871 0.03614753 0.073012896 -0.030986436 0.07019868 0.0030900156 0.02472395 -0.06127707 0.009573313 0.056952283 -0.04534294 0.010786593 0.0026832558 -0.05808054 -0.019122534 0.057469204 -0.07323311 -0.008134234 0.083748765 0.0781926 -0.044614263 -0.003744442 0.031795368 -0.0741734 -0.051132668 -0.025365481 0.0068457127 0.04722603 -0.059239533 0.061814453 0.004319672 -0.017152129 0.03715483 -0.040783226 -0.004416675 0.055508938 0.07992326 0.06566199 0.052475277 0.023973545 0.046001475 -0.0522497 -0.06991893 0.06452914 0.06480299 0.07389088 -0.031244341 -0.05949019 0.032825362 0.03317237 0.050661627 0.05733634 0.038254786 -0.057867214 0.078608766 -0.019074207 -0.042658396 -0.066905074 0.007962238 -0.026546352 -0.0014821537 0.049773008 0.008356998 -0.017694898 -0.0024137672 0.012337594 -0.039701514 0.034828465 -0.06625409 0.027286667 -0.08020532 -0.018413031 0.08097637 -0.083738886 -0.05136703 -0.07707888 0.03584948 -0.021560702 0.030024782 -0.0036858066 -0.022454975 -0.062321033 -0.0829786 0.07779219 -0.026009293 -0.0013099967 -0.0031407923 0.084011056 -0.03892023 0.017986903 0.00028903736 -0.038198933 -0.006744212 0.06343801 -0.08201953 -0.0745002 0.06277957 0.040252402 -0.07995491 -0.08643807 0.053244207 -0.07521718 -0.028454442 -0.026264828 -0.03390682 0.06286477 0.07015806 -0.001169201 -0.0028515449 -0.045472927 -0.03544275 -0.037824474 0.08682442 0.084420435 0.08161461 -0.03199331 -0.06354226 0.03850166 0.024073908 -0.0064079007 -0.044488043 0.060446884 0.048757724 0.046399765 -0.04643464 0.024362322 0.08011296 -0.07302817 -0.0515576 0.014123261 0.08600848 -0.02663924 0.030751674 0.05630739 -0.02847986 0.009271961 -0.06705704 0.009083958 -0.07362327 -0.0288728 -0.034924876 0.087003775 0.052255888 0.026771255 0.06257747 0.08135617 -0.012061231 0.08657443 0.060396764 -0.044029795 -0.07676628 -0.03502971 0.07051472 0.0730638 -0.06446404 0.071967095 0.03607552 -0.045036115 -0.08599493 -0.0022088408 0.010614345 0.086458996 0.0871548 0.047228817 0.06321839 0.057062935 0.044535972 0.057330344 0.08506248 0.021920212 -0.048053905 0.05097055 -0.049633633 0.049946208 -0.08345438 0.054343995 -0.06170462 -0.045686994 0.04932123 -0.04770882 0.07175879 0.0021215025 0.011642418 -0.064024754 0.05284459 -0.035325266 0.06839114 0.00064339733 0.01925262 0.045556676 -0.05989303 -0.026310874 0.070991285 0.048557695 0.0827321 0.059759405 -0.060754977 -0.05829282 0.051205162 -0.08917676 0.011533396 -0.054349188 -0.04045345 -0.08374683 0.088340044 -0.028151942 -0.042173423 0.07581585 -0.08155782 0.055083595 -0.05901297 0.041863654 0.017760606 -0.030822493 -0.00768693 0.038391095 -0.015142793 -0.050796315 0.035691254 0.06936801 0.05243008 0.0550122 0.008080989 -0.028224926 0.06129815 -0.044759236 -0.03760563 -0.015976736 -0.057914186 -0.070838235 -0.005734828 0.010875394 0.021754958 -0.015176203 -0.05752701 -0.07898314 -0.0065588793 -0.086500406 -0.001508538 -0.045040432 -0.0039876616 -0.043500368 -0.002932429 -0.026533952 -0.07309264 -0.027849015 0.010302173 -0.023157645 0.012108025 0.019418113 0.03923586 0.046318986 0.08303802 -0.0022690091
ss_8.c 0.047915027 0.043721568 0.020246394 -0.04011678 -0.08010539 0.066734515 0.0062785298 -0.03561455 -0.0026022098 -0.04218503 -0.011457668 0.020407718 0.048234373 -0.021586355 -0.014232467 -0.060114093 0.07104523 0.053009905 -0.059241213 -0.029042436 0.043269508 0.033249248 -0.04567493 0.0032754764 -0.05971145 0.01677875 0.04368941 -0.074213244 0.013892066 0.060341105 -0.032611758 -0.0430393 -0.08354522 -0.053369883 -0.0108636 -0.07903154 -0.07643464 -0.041448083 -0.026400624 0.0025586379 -0.031182911 0.07964325 0.07429451 -0.037288643 0.08646502 0.0064580995 0.05178962 -0.045002032 -0.06862265 0.02013505 0.06512013 0.019407898 -0.034192704 0.05523509 0.04068619 -0.03481046 0.080018476 -0.020462574 -0.02286288 -0.008212765 0.06614313 -0.050038237 0.021629203 -0.060566347 -0.06607329 -0.00648691 0.012970992 0.07355991 -0.032451518 0.035046596 0.042919386 -0.087848924 -0.038122315 0.052551735 -0.006448061 0.078701496 0.05138241 -0.030938255 -0.08506475 -0.04522858 0.04689121 -0.038071875 -0.01621951 -0.0030162833 -0.04924616 -0.0008782451 0.036789976 0.06529246 -0.0033853594 0.011101454 -0.0073585794 -0.03641152 -0.082477085 0.07200883 0.07330578 -0.056946103 0.029204164 0.07455327 -0.016201317 0.06280586 0.08166688 -0.0048758946 0.058772005 -0.015946994 -0.0045552743 -0.033341035 0.032674097 0.041249238 0.060857538 -0.06334364 0.04648439 -0.05529134 -0.033817485 0.07880263 0.0037371947 0.05874637 -0.002597812 0.04581656 0.028451815 -0.035510484 -0.0459358 -0.06557501 -0.0071427044 -0.023459146 0.0337269 0.0705246 0.029593995 -0.06859575 -0.042920496 -0.075595714 -0.019612627 0.07582133 8.011132e-05 -0.030492581 0.026099976 0.032241262 0.001547585 0.050704915 -0.014675101 -0.034027558 -0.065870464 -0.030677848 0.076778166 0.0019999095 0.04654079 0.030585194 -0.07216725 0.013364051 0.014378443 0.06714592 0.01593195 0.07567966 0.022678625 0.009980866 -0.024470367 0.043675277 0.06825081 0.0459491 0.056576796 -0.002890013 -0.055562623 -0.06210099 -0.04494636 -0.06157966 -0.023283834 0.030532375 -0.04457423 -0.030082168 0.076511614 -0.085330926 -0.08332528 0.07136754 -0.054226916 -0.066324085 -0.045503292 -0.08923795 0.015109752 -0.02179999 -0.051136665 -0.086899504 -0.07748859 -0.07426619 -0.033357397 0.08083785 -0.066797115 0.039364405 -0.06831184 0.0066729826 0.02273879 0.050041538 0.077762306 0.07392371 -0.06073963 -0.029357338 -0.030267045 0.034941997 0.046120882 -0.08068642 0.03086734 0.015325679 0.017733298 0.044036213 0.0033239853 0.003633014 -0.013890372 0.028585553 -0.017318046 -0.040851943 -0.014476748 0.011080626 0.016395632 0.08756881 -0.08703925 -0.07876829 0.02029305 -0.05246305 0.020583393 0.016708944 -0.07608149 0.07187708 -0.036701597 0.071208745 0.0845962 -0.059007958 0.054909844 0.040956896 0.0032806431 0.036887154 -0.0050876345 0.013299667 0.08027734 -0.038012322 0.022838615 -0.061477266 -0.052903056 -0.08637469 -0.07472373 0.034440324 0.008958569 -0.0855596 -0.05357588 -0.009880697 -0.028036773 0.018948171 -0.009820726 0.0410417 0.08347682 0.027509583 -0.025065204 0.03039801 0.052606557 0.089138016 0.019381054 -0.012175192 -0.06413957 0.015272508 -0.07981629 0.03013913 0.02726305 -0.012384801 -0.0855077 0.005872109 -0.0055693802 -0.077712834 0.056798473 -0.016901191 0.02836964 -0.067536324 0.031011734 -0.075702846 0.0831064 -0.007161099 -0.08718454 -0.08558999 -0.02894466 0.0456636 0.06752578 0.00411985 0.014634386 -0.03261763 -0.07187708 0.03208782 -0.057746544 0.035795525 -0.04996351 -0.08085933 -0.01719153 0.074007235 -0.033865348 0.027351074 -0.014694116 -0.068088725 -0.05389393 -0.005007195 0.07453794 -0.054131415 0.045070603 -0.045364853 -0.0087551605 -0.024435781 0.041105527 -0.042677265 0.08380561 -0.012166872 0.010162961 -0.04714121 0.07765125 0.07592356 -0.03145002 0.027152032 0.062474027 0.015719721 0.0684928 -0.07515268 -0.021836737 0.014009409 -0.041356046 -0.07702019 -0.013169752 0.06655489 0.025859708 -0.051699385 0.03600838 0.050724797 -0.041605778 0.061905142 0.029890347 -0.013164778 -0.03321233 -0.074234106 0.0845646 -0.013307374 -0.051140454 -0.054542698 -0.00982988 -0.06791251 0.08391147 -0.00742954 -0.025832366 0.01217801 0.017815825 0.061670426 -0.014473307 -0.0049792253 0.03652107 0.06747115 -0.034428395 -0.07363594 0.06740227 -0.079126775 -0.07486926 0.043128494 0.04121525 -0.029977348 0.016879078 0.033868775 0.05138444 0.044539027 -0.075663336 0.03892419 0.00903875 0.076684326 -0.05810406 0.06736256 -0.054845437 0.056759823 0.045630503 0.047618873 -0.08348705 -0.01229483 -0.055275925 -0.022423346 -0.039925225 -0.05850109 0.035418052 0.077807084 -0.06681752 -0.077085495 0.054593787 -0.06279075 0.0019610508 0.06430223 0.0706445 -0.008759495
bs_2.c 0.010680297 0.022155555 -0.0024648786 -0.06514478 0.02090665 0.013915373 -0.029493133 0.017113673 0.054898188 -0.06864004 -0.03874417 -0.035362843 0.035913125 0.07734164 0.028679019 -0.057712287 -0.04531257 -0.04807491 0.001535446 -0.051228166 -0.086046614 -0.05347077 0.024452293 -0.039715484 -0.08035151 -0.07054673 -0.01190933 0.073570505 0.011984579 0.04822467 -0.014756977 -0.004466281 -0.018144881 -0.020930823 0.061433498 0.0116834985 0.023337834 -0.060571797 -0.0066627297 0.0037559294 -0.03009143 -0.082183726 -0.033645082 0.04804371 0.04460058 0.050408002 0.014163083 0.08377696 -0.015078273 0.080794334 -0.066420466 0.029508408 0.052379943 -0.085292764 0.019117856 -0.012832111 0.021280142 0.04699793 -0.046909526 0.0039034085 0.00035000697 -0.07575698 0.05676167 -0.08439862 0.015964018 0.036095824 0.08540454 -0.055776138 0.06849016 0.0150702875 0.051856976 -0.083292685 0.034239862 0.039026815 0.012344024 -0.01700464 -0.012412324 0.051593028 -0.049417544 -0.04539827 -0.08182197 0.061200272 -0.08852124 -0.011250956 0.018651446 0.04651783 0.04733102 0.061055508 0.053329166 -0.06800004 0.07636121 0.08389291 -0.012587778 0.06352363 -0.06356646 -0.06742439 -0.07141736 -0.084111236 -0.06935412 0.0007435988 -0.062320795 0.077797204 0.014922578 0.07970084 0.057011634 -0.08925975 0.037222553 -0.02194267 0.08207309 0.07207272 -0.08366702 0.02472329 0.034156267 -0.060859036 0.029881038 -0.0075193704 0.040175587 -0.04937787 0.008683559 0.02910693 0.05188292 -0.02215749 0.02379636 0.041521087 0.02725752 0.009523084 -0.057865135 -0.07149225 0.050384704 -0.0070532793 0.08386257 -0.045652732 -0.038768873 -0.086630374 -0.00046770414 0.018575244 -0.037082464 -0.041889247 -0.058395144 0.007653291 0.023018787 0.03497123 0.013387156 -0.04607656 0.045272257 -0.045973845 0.048756726 0.0026822304 0.060923845 -0.045290194 0.046538588 -0.027132016 -0.043028116 -0.02862708 0.036591165 0.009114746 0.07411586 0.08413281 0.059440367 -0.053213205 -0.048970073 -0.041364986 0.07864246 -0.03779164 -0.011770767 0.018459614 -0.006077439 0.087336026 0.008760257 0.06353501 -0.03736486 -0.01691843 0.08292106 -0.05411964 -0.03930324 0.029899566 0.026200686 -0.0019970401 -0.06536754 0.06959317 0.038387273 -0.04406991 0.037993297 0.050689697 -0.008247754 0.00050879794 0.07712393 -0.08524191 0.026764575 -0.08399199 0.08727001 0.0832463 -0.0024524154 0.08440164 0.0337251 -0.020220751 0.07867351 0.07499667 0.0170135 -0.050633494 -0.07395993 0.02569089 -0.024052242 -0.057400826 0.042585272 0.058476012 0.000165581 -0.003037056 0.043767143 0.06629812 0.045586623 0.041201446 0.04177358 0.009505785 0.08718342 -0.04222428 0.047174804 0.016563965 -0.05162208 0.04765111 -0.079768874 0.053745076 -0.086738124 -0.0785211 -0.08489999 0.027759695 -0.07088044 -0.055020783 0.07659366 -0.038615666 0.08346635 -0.01628914 0.048421923 -0.07169998 0.065768406 -0.036476087 -0.0012200895 -0.043324325 0.06952417 -0.07759547 0.018647008 0.037227266 -0.0069412524 -0.039205007 -0.0052661933 -0.010411317 0.019062163 0.07810565 0.06362981 0.05251807 0.060516696 0.020170527 -0.07386169 -0.050511397 0.02802693 -0.0699211 -0.023527093 0.028442979 -0.042914666 -0.034279868 0.07388674 0.0012457304 -0.06868365 0.079287216 0.058365107 -0.033384454 0.062147193 -0.06013121 -0.012063865 0.057255052 0.037081648 0.06480567 0.07146152 0.07539118 0.087995045 0.059768256 0.04616927 -0.071105555 0.028290633 -0.08104416 0.034526583 0.008701283 -0.00932226 -0.011901782 -0.07407888 -0.059200786 0.008857066 -0.08262899 -0.0044609755 0.017459378 -0.044555523 -0.005218816 -0.016893266 -0.088565595 -0.041357376 0.038456067 0.0018780471 -0.0777293 0.01797683 -0.04713495 0.012241652 0.088672586 0.008399505 0.07765057 -0.02051385 0.010645605 0.029511666 0.05917376 0.04470902 -0.05028665 0.032002077 0.0046175625 -0.06597789 -0.08039558 -0.07044172 -0.030517856 -0.055406623 0.07882309 -0.022179691 0.08491135 -0.025428312 0.01605573 -0.044602342 -0.035308853 0.05424984 0.018684076 0.01755098 -0.033862006 0.082709454 0.0036380666 -0.03928363 0.03595299 0.078677796 0.0017818677 -0.041749265 0.079556905 0.013973829 0.08018156 0.06218543 0.051599 -0.04019492 -0.04056138 0.08298961 -0.071608685 -0.030921808 -0.016984023 0.081930906 0.08390903 -0.028673703 0.00419566 0.048611943 0.07940617 -0.07616299 0.0702695 0.010354509 0.044823006 0.021560745 -0.08081261 0.08678226 0.029251778 -0.012917036 -0.069127366 -0.07032467 -0.081272505 0.014357856 0.0007983007 0.051510982 0.0050395615 0.038775053 0.07142367 -0.076929905 -0.019169081 0.08743938 0.079469465 0.04417926 0.039433483 -0.0831234 0.046290077 0.06120658 -0.05733404 0.009350651 -0.036087893 0.019396229 -0.0029699854
ss_3.c -0.036307454 -0.028295504 0.077645615 0.031515054 -0.013769837 0.06878207 0.08049945 -0.024260249 -0.0833405 0.023073914 -0.04798742 0.07191981 0.008038386 0.076619536 0.055596344 -0.07352668 0.0033390827 0.062230524 0.02890056 0.057316482 -0.012205324 0.023103552 0.073559724 0.0135581 -0.06352972 -0.06039544 0.07916822 -0.075343 -0.07692532 0.026285436 0.033129323 0.013988375 -0.06907609 -0.03421431 0.065831654 -0.010311969 0.009189156 0.04442951 0.06449994 0.002282374 -0.08047091 0.0015968744 0.042833667 -0.028293835 0.05818183 -0.0068850177 0.08101232 0.05873994 -0.052612532 0.038186006 -0.052925482 0.00185977 0.003788209 0.04436275 -0.03849716 0.03689114 0.061643634 -0.03248444 -0.021670768 0.012772613 0.032335572 0.024273414 0.01691607 0.047474325 0.016791554 0.034665767 -0.039169498 0.02607959 -0.06113689 -0.08533833 -0.0015559315 -0.04386326 -0.034944423 -0.01248724 -0.022989703 0.02305025 -0.058511823 -0.008914272 -0.06529984 -0.020847974 -0.066661745 -0.05635219 -0.0037718364 0.08474185 -0.023658615 -0.005003831 0.022189789 -0.04215286 -0.062960155 0.07020463 -0.054872274 -0.05985249 -0.057044268 0.05077167 -0.006387088 -0.053459477 -0.054661274 0.028652254 -0.070518225 -0.04796699 0.07696487 -0.080300964 -0.039131206 -0.030148298 0.040339183 -0.04947302 -0.012339751 0.08299707 -0.04308105 -0.040716037 0.04218213 -0.08820534 -0.007265072 -0.0012258696 -0.03530776 -0.070496306 0.029168978 -0.08046057 0.04471473 -0.018339157 -0.08336327 0.02777147 -0.008363494 -0.06941099 0.03678427 0.01252019 -0.039329425 -0.076369315 0.008870658 0.034281984 -0.0629507 0.0012966959 0.077670574 0.02763983 -0.086186156 0.06550418 0.06246005 0.06369685 -0.07714534 0.0651674 0.06600563 0.016136615 0.004210761 0.052789655 -0.07577649 -0.00936877 0.05134752 -0.025546188 0.034142043 -0.027230507 0.078594595 -0.024424355 -0.011039762 0.04341684 0.017329222 0.06721684 -0.0106403185 0.043810263 0.081792556 0.0137696015 0.019630553 0.024755135 -0.07865327 -0.041355178 0.018088704 -0.06428415 0.05090926 0.050343312 0.06705863 0.026217042 0.005851262 -0.061346874 -0.00490393 0.02515591 -0.080518216 -0.04649636 0.088341534 -0.070575126 -0.043250076 0.025953025 0.020568268 0.062952094 0.066655666 0.030555487 0.07635863 0.039444294 -0.043684382 -0.059518773 0.06157292 0.046117414 0.08518118 -0.029714582 -0.065667495 -0.012598419 0.034700572 0.08196786 -0.053756 0.011229216 -0.03151967 0.065646335 -0.025804706 -0.021536728 -0.027942363 0.03910846 -0.07921214 0.033590864 0.015724076 0.024349457 -0.046888288 -0.0812467 0.082316644 0.08686766 0.0653158 -0.03019531 -0.007486635 0.010388983 -0.0189382 0.07368058 0.075440235 -0.033635106 -0.021964833 -0.01021953 -0.012851928 -0.031809535 -0.06010084 0.02462923 -0.063717455 0.06771743 -0.019790374 0.04591093 -0.028569696 0.06352934 0.003595983 -0.05301022 0.06087118 0.0050579635 0.07788207 -0.0542143 0.0023904038 0.02248668 0.08035797 -0.08230104 0.017552372 0.028705679 0.037566554 0.062285483 0.05911082 -0.079721615 0.019404907 0.07185751 0.03599593 0.022553613 0.07526993 -0.049730383 0.01462282 0.0044956314 0.04126931 -0.061273836 0.067257635 -0.04484632 -0.07049441 0.016534358 -0.027016174 -0.021717545 0.03061128 0.03561646 0.015938234 -0.00919098 0.013089609 -0.082888655 0.048873067 0.05337815 -0.029600983 0.08117756 -0.03807149 0.0715969 0.055013854 -0.025029399 0.07506972 0.07567098 0.01591301 0.0764479 -0.051520914 -0.015983216 0.03526456 0.034045435 -0.053287826 0.084471405 0.05102443 0.06963809 -0.061973132 -0.07891169 -0.023237221 -0.021792177 -0.05627685 -0.07141853 -0.05108369 -0.05829722 0.06937487 -0.08636328 0.07870129 -0.06567661 -0.050273344 0.043508288 -0.06636551 0.034680642 0.027040333 0.071587764 -0.027497763 0.009099404 -0.026715703 0.018131932 -0.055306826 -0.013302119 -0.08078005 0.024917522 0.054415163 -0.0025699516 -0.03631883 0.011247484 0.0351769 -0.032256436 -0.009082131 0.05133204 0.08357344 -0.042783238 0.004351585 0.048118677 0.017918132 -0.08499292 0.06273527 0.04166203 -0.034602217 -0.04979033 -0.07402237 -0.0824805 -0.05535067 0.07668045 0.038134802 -0.020141544 -0.06803341 -0.07610563 0.042494085 -0.018113712 0.02743833 0.0692596 -0.05506187 0.06403676 -0.032630086 0.021003935 -0.041458774 0.06800201 -0.034194004 -0.083783984 0.00020816259 -0.0882538 -0.020555016 0.007723298 0.052219283 -0.046005752 -0.053136572 0.010271869 0.07485926 -0.0073773395 0.056466408 0.08243171 0.030866163 -0.075724326 0.038343374 -0.043669485 -0.017690763 0.026649965 0.051019702 -0.026899908 -0.041591138 -0.04457466 0.052398212 -0.08331971 0.08141753 0.029343538 0.062271614 -0.0047331112 -0.013348124 -0.05651284
bs_5.c 0.055741545 -0.081427075 0.04488048 0.0023736968 0.027012963 -0.052699305 0.035920266 -0.056846116 -0.07226456 0.05620255 -0.010769569 -0.074156106 -0.03557783 0.052411042 0.0036936854 -0.039268296 0.033001196 -0.049338862 0.05798595 0.027588025 0.0009249087 -0.05887471 -0.012865347 0.07152368 -0.030024324 0.010224989 0.022278115 0.06693085 -0.050741933 -0.012027966 0.055555098 0.0077510346 0.07696035 -0.041115344 0.07992911 -0.03324875 0.01602006 -0.08332138 0.04537476 0.048857357 -0.06578275 0.0672586 0.057232283 0.02104993 -0.08329857 -0.04832611 -0.0078060143 0.08189687 0.04544192 0.05221502 -0.06715844 0.0394945 0.058829878 -0.026865626 -0.030139761 -0.03286007 0.034347717 -0.067482814 -0.00942734 0.08417185 -0.06319549 0.020715808 0.0844123 0.028895587 0.005633399 0.06063021 -0.066514745 -0.082782686 0.07440187 -0.018864734 0.003133913 -0.018672856 0.02362373 -0.032736477 0.01304943 -0.023668038 -0.06124757 -0.044232596 -0.048450075 -0.069929294 0.01331566 -0.044173297 -0.02813502 -0.08719282 -0.059341755 -0.0034053873 -0.072780296 -0.022426544 0.07981216 -0.045236424 -0.045127686 -0.060956832 -0.06891432 -0.08379416 -0.0356906 -0.029471207 0.022234963 0.05585268 0.08353135 0.034185607 0.007519015 -0.04743642 0.0042447527 -0.015373093 -0.04473855 0.047968008 -0.033262562 0.083530515 -0.05609924 -0.019721117 0.0596946 0.07211526 -0.008623772 0.034950282 0.03882824 0.065539986 0.033275995 -0.053592607 -0.0732976 0.080564186 0.012306544 -0.031784467 0.038148202 -0.038457893 0.019445008 -0.024626171 0.005347363 -0.082437426 0.049644943 0.07475469 0.0707588 -0.027810078 -0.01725306 0.062394045 -0.006804145 -0.036341637 0.049770813 -0.021701217 0.027384773 -0.06076119 0.083194695 0.059598662 -0.060280956 0.02051242 0.051730752 -0.069855645 -0.0012101785 -0.02515212 0.058266494 -0.083271086 -0.051752858 0.049430385 0.0070824204 0.03421029 0.07788064 -0.07616168 -0.07563358 -0.009705592 0.081335336 0.048772298 -0.03140917 -0.03594299 0.011355222 0.047593668 -0.069272 -0.027403895 0.0067598782 -0.011609299 0.021007951 0.0598505 0.08145424 0.03843856 -0.027913533 0.014056248 0.02209168 -0.026215216 -0.05393716 -0.008097116 -0.025498979 0.081773736 0.015636826 0.06818628 -0.06650223 0.07162092 -0.086785674 0.0014018845 0.029313946 -0.037959564 -0.04353923 0.07552684 0.021247054 0.071094304 0.02309379 0.07045148 -0.016418822 -0.06735052 -0.010138383 0.08666386 -0.076557875 0.028804878 0.029904807 0.011645995 -0.06316225 -0.08409712 0.03339854 -0.013451422 -0.004158985 0.026833916 0.059956208 0.07980297 0.021669865 -0.06345068 0.029651506 0.05386612 0.05266805 0.0054047233 0.08800468 0.013566876 0.075867996 0.011871925 -0.014844932 0.04250082 -0.039443772 0.04472706 0.03459274 -0.05805684 -0.06371778 0.05798514 -0.018717797 -0.084990405 0.028928986 -0.03387529 -0.08197965 0.006728413 -0.05326707 -0.035146274 -0.072461724 -0.03039742 0.01533119 -0.008374557 -0.016610011 -0.008787815 -0.01374855 0.026416613 -0.053250644 0.062300727 -0.03887767 0.031117223 -0.030401058 -0.082136065 0.019309413 0.03150318 0.025843525 -0.08633146 -0.07757087 -0.073369086 0.0460186 0.037621573 -0.050182063 -0.013592854 0.034514178 -0.07982718 -0.020165766 -0.028638786 -0.0407985 0.081024975 -0.06302519 -0.020468099 -0.059079234 0.054055322 -0.07483444 0.023374991 -0.041610483 -0.04277315 0.013633627 -0.008433364 -0.016081164 -0.064636126 -0.08184162 0.07697944 0.026611108 -0.050333023 0.016918425 0.071766354 0.06997797 0.086812444 -0.07208119 -0.04307451 0.02211605 0.03716517 0.06465908 0.07905841 -0.03515957 0.013422137 0.008007403 -0.06797347 0.026512355 -0.07605231 0.045710243 0.015890693 -0.071064375 -0.054927826 -0.008711649 0.00914664 -0.019116167 -0.06232099 0.046205513 0.013278961 0.006996624 0.026290486 -0.054665934 0.011889155 -0.004510877 0.0019454011 -0.08502254 0.015974749 0.07777839 -0.015836565 0.0654792 -0.026290307 0.03124067 0.05300262 0.037968893 0.014733967 0.07336284 0.036907118 0.07106983 0.03496736 -0.06632491 0.06435873 0.057677142 -0.021203728 0.002219725 0.04051117 0.063873924 -0.0013124221 -0.07840673 0.06130374 -0.018372776 0.0038624322 -0.04580006 -0.08153954 -0.07417276 0.06851407 0.027607977 -0.01153631 -0.012476057 0.01752007 0.047974348 -0.051003348 -0.041605536 0.079027615 0.030565254 0.031521708 -0.03801333 0.0560644 -0.028982414 -0.042249784 -0.023603333 -0.038520068 0.08020087 0.022593658 0.010714301 0.0016107302 -0.046803586 -0.0655276 0.08469189 0.04647106 0.001013848 -0.082964696 -0.050683673 -0.009687804 -0.014557522 -0.021133078 0.01497408 0.06117015 0.046095848 0.08222373 0.020640811 -0.07442685 -0.018496986 -0.019042289 -0.03219257 0.017314795
ss_1.c 0.03562755 0.008906724 0.02720907 0.009784462 0.08279799 -0.010923356 -0.080753304 0.07523706 0.0039984076 -0.07904544 0.059681896 0.083762 0.04910519 0.060809147 0.012065451 -0.08624149 -0.027158417 0.0005990759 0.08646829 0.082298115 -0.0039066104 -0.06137659 0.0408672 -0.027978597 -0.07505299 0.03980236 0.013867656 0.042449076 0.017290888 -0.020688532 0.05724861 -0.0682121 -0.019482106 -0.07199323 0.020827163 -0.038593147 -0.07534563 0.023868775 0.015340181 -0.045952745 0.044616774 0.08209859 -0.047127552 0.08215762 -0.051179275 0.07213828 0.03425291 -0.0022954256 0.012951032 0.074105754 -0.05828692 0.01691008 -0.021662759 0.06403302 -0.049635332 0.052997544 0.04514165 -0.0323662 0.032073997 -0.017484497 0.08674892 0.08288816 -0.08049958 -0.005152485 0.044722356 -0.012819334 -0.07071954 -0.06904878 -0.040532224 0.050976846 0.04044298 -0.062019605 -0.028546156 -0.028939268 -0.010542118 -0.036318444 -0.078143194 0.06352856 -0.07797213 -0.02623525 0.005212905 0.006886849 -0.058748465 -0.034753397 0.07742539 -0.013442757 -0.041106418 -0.0031102765 0.042551327 0.07295453 -0.06132757 0.021144893 -0.07321545 0.08342008 0.058264866 0.027514068 0.06785175 0.023802087 -0.07695097 -0.06870992 -0.034177702 0.04742528 0.04553971 -0.027442005 0.064792015 -0.02616524 -0.04097524 -0.006269692 0.034587417 0.06488939 0.058595803 0.08257901 -0.006089994 -0.03614206 -0.060480192 -0.05792398 -0.029746791 -0.049780097 0.06760568 -0.04978801 0.005495409 0.042463925 -0.06439318 -0.006182735 0.049161278 0.0825059 -0.052744374 -0.07898734 -0.0054805297 -0.011242728 0.049747728 -0.045579143 -0.04630481 0.030244216 -0.008937066 0.068063445 -0.054523032 -0.039691813 -0.07059514 -0.04906775 0.058568824 -0.056759313 0.022542294 -0.027743023 0.061995752 0.021062898 -0.023944674 0.06919117 0.08103179 -0.0472365 0.031661592 -0.07364201 0.07808962 0.08342761 0.08310056 -0.03408602 -0.048532084 -0.06699758 -0.019909484 0.0131316325 0.027194634 -0.07670605 -0.039703395 0.08525451 -0.01569385 0.08206751 0.04926064 -0.043619443 -0.020131918 -0.071169466 -0.02933619 0.018314313 -0.005755672 0.077305004 -0.062261183 0.04837389 -0.087494195 0.012671425 0.063413545 -0.0794092 0.08053618 -0.064817555 -0.040050484 0.017484775 0.006421849 0.0797349 -0.02200339 -0.04958138 0.037407376 0.0035195195 -0.07376091 0.03325502 0.033999935 0.0029695258 -0.05916281 -0.0114042675 0.00093000184 0.053025145 -0.026053438 0.0045025735 -0.0762093 -0.00650827 -0.04211781 -0.028658718 -0.011155386 -0.029324608 0.012175424 0.07804175 -0.0005199234 0.0018110699 0.045713954 -0.03918043 -0.016213236 0.078240015 -0.013072106 -0.08520029 -0.06857696 0.06415008 -0.055422667 -0.031140262 0.022961373 0.03967212 -0.014800839 -0.025028456 -0.053064045 0.063892774 -0.03833234 -0.020651083 0.00038692122 -0.07409175 -0.038551178 0.041191477 0.08391792 -0.03861388 0.0215195 -0.015312804 0.04606513 0.06172712 -0.040658984 0.06821772 -0.017923206 -0.070814714 0.06515537 -0.07019795 0.05624264 -0.004816058 0.008805703 0.026088778 0.072777614 -0.03166047 -0.010991615 0.051009122 0.08212945 -0.06979365 -0.06507563 0.08623343 0.075654715 0.0508644 -0.036928568 0.073173694 0.019475117 0.05111686 0.0014164924 -0.013278413 0.053144168 -0.061742794 -0.05237047 0.06740635 -0.08374341 0.059569567 0.06100895 -0.04661456 -0.012439965 -0.07698669 0.058214862 0.0312699 -0.063651964 -0.053178795 0.007173841 0.0142177055 0.062405486 0.04907698 -0.034820277 -0.041716486 0.08071838 0.08094136 0.03668153 -0.07565678 -0.0034845797 -0.06279091 -0.07916002 0.014633842 -0.035709035 0.017697966 -0.013971431 0.025408212 0.0024931976 0.057132173 0.058462545 0.011339402 -0.010108236 0.086133644 -0.017821563 0.03472482 -0.08171826 0.061131127 -0.06582161 0.038693294 -0.021282015 0.038131826 -0.014806059 0.00093400315 -0.072422996 -0.016525384 -0.0058992067 -0.047820073 -0.034906138 0.05938765 0.062632434 0.036482453 0.03708991 -0.047067467 0.07100201 -0.01201819 0.045972105 0.050516527 -0.030985529 -0.085277885 0.0015822818 -0.054986283 0.04263005 -0.07919384 0.06355922 0.042596586 0.04041743 -0.07690709 0.08361693 -0.04974051 0.04319725 0.06267031 0.0817294 -0.020890806 0.086125344 0.016777229 -0.053637903 -0.06828804 0.05997166 0.028356396 -0.00050665333 -0.088543825 -0.07875994 0.040679388 0.03851475 -0.018454213 -0.085277535 -0.06601108 0.07251459 0.031822126 -0.059300218 0.053742975 -0.025731325 -0.075880565 0.027855646 0.069746606 -0.047905646 0.023504091 0.06035645 0.08197378 -0.002042063 0.013235201 -0.042245347 0.0745904 0.023605349 0.007129942 -0.0606272 0.07716634 0.08210321 0.0648741 -0.054908074 0.08348513 -0.043724295 -0.06085047 0.028739685 0.030181976
ss_9.c 0.041947994 0.04943152 -0.01750539 0.08895274 -0.055364013 -0.006256708 -0.07986675 0.057638336 0.06820812 -0.061446816 0.045549046 0.01432479 -0.07611978 0.0012437924 -0.07635084 -0.012669493 -0.02533667 -0.02947123 -0.038829546 -0.012112603 -0.0004761623 -0.08118263 -0.01995883 -0.003021791 -0.07018684 -0.026662199 0.053255856 0.081745684 -0.062640384 -0.04760354 -0.011285702 0.04966541 0.024962453 0.022129284 -0.012460848 0.008264624 -0.048278447 -0.034526184 -0.0093924925 0.009953971 0.020118445 -0.021612464 -0.0505535 0.033559345 0.08511598 -0.049279846 -0.088926 0.059537366 -0.006852647 0.024690345 0.06889574 0.08734508 -0.08059251 -0.007395574 -0.042101443 0.01087474 -0.007986063 0.053629074 0.05716574 0.08711524 0.050418463 -0.056395143 -0.05278148 0.001860146 0.056415908 0.059832547 -0.02118849 -0.05263174 -0.055818018 0.080815926 -0.08594617 0.01986492 0.05881635 0.071308725 0.022246543 -0.06272602 0.0797496 -0.03787328 -0.012415228 -0.025823116 0.03548656 -0.0798085 -0.044402868 0.03626331 0.057693515 -0.042447705 -0.05366564 0.003940715 0.07224494 -0.03094772 -0.035692185 -0.0579227 0.055282347 0.047903243 0.011803318 0.04590466 -0.004674187 -0.06754191 -0.072968885 0.0034531362 -0.026756313 0.03132483 0.070451066 -0.0051909564 -0.019890247 -0.0861066 0.054459672 -0.08257078 -0.040103912 0.012837412 0.07146009 -0.06300624 -0.055237953 -0.04913364 -0.016308578 -0.070734754 0.0074336915 0.08920112 -0.084995374 -0.04547143 -0.086779095 0.05684642 -0.032325808 0.07927675 -0.017261816 0.08680025 0.038732678 0.007969419 -0.00075201644 0.05163131 -0.035985798 0.0638907 -0.08136215 0.028471781 -0.04737437 -0.081629746 0.007875732 0.0061576734 -0.019584341 -0.06619931 -0.08507541 0.062169775 -0.007557485 0.059264272 -0.04783856 0.067036614 -0.0780506 0.011033938 0.08076788 0.002986965 0.03705625 -0.046732098 -0.041721106 -0.08731467 0.067586705 -0.034819532 -0.0650391 0.031900883 0.005928284 -0.026845222 -0.000137505 -0.024671819 -0.050223928 -0.033644117 0.016260944 -0.017803421 -0.057313643 -0.06966354 0.033061437 0.08056917 -0.07210962 0.05645492 -0.05863302 0.06847212 -0.055492323 -0.069430076 -0.040333334 -0.014976758 -0.035121072 0.051451355 0.085545965 -0.037962966 0.0791037 -0.07784804 -0.036335386 0.032560766 -0.039126128 -0.035578597 -0.009247971 0.013029196 0.080119506 -0.001594758 -0.009752708 0.06034513 -0.028317524 0.03564268 0.00054330134 -0.05805832 -0.0853681 -0.063970625 0.024132213 0.0011222808 0.055354416 0.06568725 -0.06838361 0.019350834 0.07606253 0.05739281 0.03204247 0.031437185 -0.0022471766 -0.00943178 -0.021869099 -0.049264286 -0.061852355 0.08324711 0.048325185 -0.07397098 0.072655834 0.049201135 -0.05961038 0.008964703 0.027757749 -0.07633201 0.040235773 -0.04559871 0.029356143 0.058622308 -0.022036402 0.07343544 -0.04564975 -0.079510175 0.07117263 -0.083722904 0.014310813 -0.012015443 0.066555366 0.050652307 0.056728117 0.02124756 0.06321257 0.058456767 -0.032458257 -0.03253495 0.07465051 -0.0819306 0.011219299 -0.007385465 0.06734975 -0.013150508 0.036219228 0.0067673973 -0.07942772 0.025158348 -0.06673573 0.030824762 0.062990025 0.08595299 -0.04234314 -0.004743308 -0.03821249 0.0048896405 -0.03440938 0.06814887 -0.08655081 -0.03002368 0.054363694 -0.07807404 -0.06413804 0.0522811 -0.07871276 0.025150448 0.0036708002 0.030197209 0.04632498 0.012593142 0.03019895 0.013195739 0.070169345 0.088447176 0.05300961 0.07177212 -0.022928197 0.049965814 -0.0036718715 -0.006370101 0.031305384 0.025150018 -0.0058230353 -0.016146129 -0.08107473 -0.064684406 0.022044707 -0.07711235 0.064371854 0.04074787 0.010151947 -0.07243108 -0.05222371 -0.078653716 0.03557156 0.03715036 -0.016084855 0.043728013 -0.018656196 0.043217473 -0.0129600195 0.073420875 0.041264597 -0.05816254 0.020308077 0.06279062 0.03865911 0.053589467 0.03530025 -0.0648046 -0.045136448 0.006378654 -0.03372963 0.07108777 0.032834463 0.00072739704 -0.016784275 -0.06993401 0.06396002 0.041325416 -0.061307322 -0.018021924 -0.068412974 0.06184905 -0.081306316 -0.042620607 0.06320456 -0.04190608 0.024525568 -0.044743072 0.058708824 0.06823645 0.052423257 0.03240456 0.04659585 0.012888985 -0.046138156 -0.012735071 -0.008377958 0.02987543 -0.0050230455 0.065644726 0.0073372596 -0.05261322 -0.021928731 -0.048788186 -0.05787602 -0.017625706 0.03657534 0.07107159 -0.011120647 -0.030054105 -0.026247725 -0.02928267 0.06911223 -0.026555395 0.07191069 -0.028799076 0.02681217 -0.048616394 0.08730117 -0.020313956 0.0001741082 -0.08227029 0.08427737 0.00550183 0.03609991 0.03343374 -0.006013643 -0.0412197 -0.06861201 -0.048633095 0.022852456 0.06125062 0.044522453 -0.0062354254 0.08364113 0.015486232
bs_3.c -0.03536572 -0.078846306 0.0591612 0.044450358 0.03149089 -0.067212954 -0.009037954 -0.081585325 -0.037851207 -0.03446473 -0.0111941425 0.04646449 0.050582785 -0.0020122644 0.0030756532 -0.0783753 0.03866632 0.029676983 0.016894687 0.0723456 -0.037501384 -0.068406396 0.053674974 -0.0040291594 0.031801138 0.026535787 -0.00413989 0.05337861 0.08322715 -0.08884008 0.030800758 0.06951876 0.0701268 -0.004882099 -0.02291375 0.04392271 0.01663829 -0.021190528 -0.053087253 -0.040708542 -0.013572695 -0.03392623 -0.011549555 0.009707173 0.020569725 -0.06778023 -0.013423748 0.043424245 -0.047942452 -0.045983143 0.087308325 -0.031277664 -0.011580277 -0.024055539 -0.0812529 -0.035677094 0.06038932 -0.06761597 0.060167532 0.07700333 0.075683884 -0.00089756143 -0.018784726 -0.054014906 -0.06976063 0.048957802 -0.087008834 -0.07073399 -0.017831678 0.009941394 -0.08374317 -0.063006446 -0.084546745 0.023010343 0.011645779 0.021597492 -0.068111844 0.08227138 0.053629715 -0.04696376 -0.08378182 0.07567122 -0.04630655 0.039391804 0.04369808 0.083510995 0.04906655 0.06731155 -0.0006728587 -0.08191278 -0.024123609 0.019276103 0.08418915 -0.0832703 0.08633987 0.047634117 0.010283247 0.038438186 -0.014860245 0.0016169703 0.05046696 -0.04724933 0.065237485 0.008075142 0.074716344 0.064811975 -0.036536597 -0.009595962 0.078965396 -0.06460614 0.07719504 -0.040006578 -0.057546128 0.05467508 0.029548436 -0.020338276 -0.011725032 0.02874234 -0.066461295 0.009046158 0.042213775 -0.011101844 0.05500514 0.07613405 0.066370755 0.08838284 -0.026851397 0.014417266 -0.05395176 0.029746925 0.048485048 0.004400767 0.032604884 -0.043346703 0.061178353 -0.047588855 -0.035547074 0.017365942 0.034104135 0.070674196 0.02374758 -0.054884106 0.033258513 -0.08282728 -0.085226014 0.084528044 -0.03405679 0.049851783 0.06334248 0.022426028 -0.0078703035 0.0507239 0.086443126 -0.007086022 0.056481596 -0.071628556 0.003094216 -0.042174995 -0.059602242 -0.000641008 -0.02021713 0.07579181 -0.07267351 -0.052769274 0.0469009 0.06655604 0.010344754 -0.011394932 0.067035 -0.075302206 -0.010102234 -0.078518555 0.07742615 -0.003406655 -0.045712505 -0.06799086 -0.011620859 0.011435046 -0.06356397 -0.03654031 0.028629761 0.08049119 0.08073684 0.068490855 -0.08224861 0.0038956078 0.07385868 -0.013192947 -0.08719231 0.04633088 0.012827914 0.06750261 0.046003796 -0.048182834 0.00097501895 -0.06498675 0.05304632 -0.043837205 -0.061407298 -0.0141654955 -0.06434158 0.0016984633 -0.08915709 0.06677479 -0.039804213 -0.051649768 0.088652916 -0.031549867 0.00072703033 0.075861394 -0.0050029205 0.03610686 -0.07955483 0.08512557 -0.033099625 -0.08611485 0.03722271 0.08544608 -0.009496782 0.016180828 0.041064955 0.07839372 -0.06835854 -0.07517617 0.046520397 0.02657504 0.026490219 -0.04174569 0.047458384 0.076629184 -0.030703286 -0.06990362 0.037810933 0.078196436 -0.046479747 0.07593554 -0.011719394 0.039102785 0.032255977 -0.002809612 -0.07341872 -0.06794114 0.034854554 0.08100941 0.06916157 -0.08545366 0.07290375 0.0036929213 0.08673449 -0.026512578 0.06216641 -0.029947998 -0.07374504 0.01421223 -0.051736444 0.05869046 -0.06925099 0.056316458 0.02643862 -0.0008631144 -0.020781077 0.06369409 0.0226907 -0.0017874492 -0.058248233 0.05105989 -0.0074133356 0.07459954 0.04900439 0.043060232 -0.07848701 -0.0062719146 -0.062506095 0.08081263 0.08583425 -0.013021558 -0.01573096 -0.060121454 -0.022617374 -0.0083228275 -0.070733435 0.04360517 -0.009353855 0.025431162 -0.031737275 -0.062982954 0.016963653 0.0606309 -0.021985857 0.06906104 0.07624586 0.085872285 -0.0107643185 0.009736883 0.045000505 0.044147756 0.067041874 0.03494261 -0.020790793 -0.013574986 0.023648493 0.018370988 -0.05231384 -0.05603828 0.01309047 0.0015174473 -0.049727947 -0.0870982 0.016899318 0.05276641 -0.046366617 -0.03776795 0.06210651 -0.035280336 0.008589047 -0.027543461 -0.0836715 -0.06529216 -0.08284981 0.004130494 0.04919139 0.024047969 0.018234758 -0.07737593 -0.07704103 -0.019865178 -0.06327793 -0.0044460334 0.03780507 0.056950554 -0.018722985 -0.03183157 0.013023565 0.056693863 0.053676646 -0.038735013 0.022953229 -0.021814888 -0.03648505 0.07890634 -0.0546767 0.05754264 0.0716345 -0.03233036 -0.046425864 0.043874104 -0.07247179 0.049549825 0.03147643 0.069750704 -0.054221347 0.06491173 -0.075442106 -0.03265306 -0.076870814 -0.029511413 -0.081164055 0.037215393 0.017170168 -0.07655683 -0.009711966 -0.012453961 0.030508125 0.07620713 -0.053952087 0.00059842865 -0.06401745 0.0043423884 -0.014838201 0.0021346612 -0.029347269 0.06748826 -0.0079984795 0.020925105 -0.015941938 -0.054092925 -0.07799038 -0.082820214 0.064719245 0.02637837 0.032433424 0.024739075 -0.05312629 0.083172366
ss_4.c 0.049105372 0.07103124 0.044703566 0.07822698 -0.07966805 -0.0053831087 0.06270717 0.05649891 -0.088847786 -0.0025026232 0.047930375 0.08279443 -0.017571822 0.034750406 -0.012527991 -0.07048881 -0.00598008 -0.0049364823 -0.08070669 -0.00076012267 0.06272287 0.02055502 -0.059883755 0.08227811 -0.034340937 -0.050768074 0.039301604 -0.060283933 -0.07288937 -0.0088139735 -0.035643585 0.02493282 0.055031393 0.06734909 0.05858039 -0.08428067 0.0047734105 0.07335983 0.08189229 0.08172835 -0.01268935 0.07646815 0.0876434 -0.06758986 -0.026857343 0.0029665558 -0.061247855 -0.007858524 0.03189937 0.07192522 -0.03442153 0.016698191 -0.022058245 0.0062295133 0.0006221294 0.051564243 -0.08179898 -0.082276486 -0.08505386 -0.009248843 -0.0665551 0.031190196 0.006788807 0.044427067 0.031812124 -0.06931343 0.022676969 0.08689024 -0.039360225 -0.008016387 0.0635858 -0.06825012 -0.088864975 0.018043306 0.009433391 0.051413286 0.021659007 0.08741188 0.087059446 -0.028098106 -0.07791867 -0.012009619 -0.021563921 -0.000746932 0.06558783 -0.05961793 -0.08820029 0.07073879 -0.0078985635 0.011063248 -0.06920477 -0.08476824 -0.08566681 -0.042079598 0.03998623 0.011503522 -0.07365608 0.002529581 0.036463644 -0.0586154 0.00039445865 0.026727824 -0.07677093 -0.0030830568 0.016019735 0.038444888 0.011625031 -0.08886685 -0.06561462 0.010221928 -0.0067136735 -0.05056957 0.0014762053 0.06710924 0.08624178 0.058819152 -0.016937597 0.0061738496 -0.035730597 -0.045270957 -0.034512706 0.013852684 0.068047196 -0.0734011 -0.04527927 -0.081478015 0.04254735 0.015554288 -0.077126645 0.023881374 -0.048379242 -0.041792262 0.07468267 0.05453348 -0.031756915 -0.017653666 0.0755294 -0.017545572 0.0131666325 0.00019641349 0.03141895 0.04851072 0.07623922 0.051422916 -0.049999766 -0.03984359 -0.06767237 -0.02746356 -0.02463937 0.060236946 -0.023272771 -0.046981905 0.07446257 -0.0062259003 0.056176174 0.07146238 0.07081051 -0.05721215 0.08861812 0.039572313 0.0581768 -0.06067927 0.0044633197 -0.057414144 0.05241498 -0.0052138274 0.008794356 0.002900084 -0.073895104 0.080272324 0.06817765 -0.023959655 -0.0007610858 0.08816295 0.03471456 0.062135067 -0.052820597 0.08061455 -0.06032484 -0.032031536 0.01943681 0.05996424 -0.023050353 -0.08246732 -0.081201464 0.07997508 -0.017154997 -0.084291115 -0.024646992 -0.0043273387 -0.07092296 0.0282847 -0.04027968 -0.082594335 -0.012062039 -0.03093139 0.012351714 0.04579614 -0.024433369 0.031433564 -0.011918921 -0.073665865 -0.08431415 -0.006833299 0.058222234 0.037883095 0.03767885 -0.08625515 -0.052345417 -0.010284824 -0.062342167 -0.05849996 -0.07283302 0.030030247 -0.081323974 0.0068095583 0.007132033 -0.026091276 -0.048144937 -0.08047719 0.04531299 -0.03815023 0.04976398 -0.0026736283 -0.05176606 -0.02231692 0.059031088 0.035625823 0.0069673704 0.041553594 0.064747624 -0.08872472 -0.011540494 0.054726098 -0.06852233 0.08814907 -0.07698373 -0.04784528 -0.051078502 -0.034475725 0.072365046 -0.057912484 0.08064156 -0.0007652078 0.018378943 -0.02699994 -0.042595815 -0.036752414 0.007191848 -0.04801348 0.012885219 -0.033668213 -0.021080311 0.0070535266 0.04598664 -0.042909387 -0.06919163 0.04510924 0.071673706 0.008614055 0.042580325 0.08789114 -0.04626716 -0.082912326 -0.07211255 -0.08289822 0.043008376 0.022491071 0.06071446 -0.03746781 -0.08229852 0.0843695 0.030414293 0.073154725 -0.05782528 -0.016625885 0.032663316 0.029330453 -0.06485844 0.062418614 0.0045994516 0.013835966 -0.08162632 0.08018927 0.053833667 0.03346297 0.0794512 0.057663128 0.06536736 -0.03959056 -0.010035434 0.039411973 -0.016089112 0.060600974 -0.04168968 -0.074603446 -0.041537967 -0.047291048 -0.059358094 0.05935701 -0.08656965 -0.043659117 7.321162e-05 0.043034263 -0.008421856 -0.08333306 -0.04750569 0.06101878 0.048816916 0.027265372 0.01954866 0.043770775 0.07470423 0.012036156 0.0061558047 0.06386757 -0.015194716 0.0744975 -0.0023567853 0.032168992 -0.027721282 0.05082456 -0.08147512 0.022135127 -0.060591053 -0.018103736 -0.07993289 -0.041827295 0.0413394 0.006147588 0.08172756 -0.065905355 -0.04958787 0.080139846 0.059418917 0.050127134 0.03215773 0.07020351 -0.0397436 0.0657738 0.051914793 -0.0514415 0.04259562 -0.026711322 0.012739661 0.0622942 -0.03223159 -0.034401167 -0.027573641 0.019397307 -0.0054426156 -0.08437571 -0.019704008 0.05821073 0.029232409 -0.035370592 -0.041424986 -0.07435176 0.049344957 0.08361422 -0.05796875 0.073543325 -0.046133958 0.009497604 0.0054594316 -0.013109765 -0.038062982 -0.0374527 -0.05936675 0.04813911 -0.07550787 -0.08918985 -0.016136846 -0.052459903 0.040465467 0.054475248 0.01824873 0.084680796 0.026238501 -0.047737155 0.057707746 -0.001070675 0.080816746 0.068400666
ss_7.c 0.08637111 0.011202722 0.049356457 0.060715124 -0.007981001 0.006682711 0.07169082 0.08399125 -0.0070296535 -0.074817374 -0.080299325 -0.083315626 0.028034741 -0.053538647 0.026735282 -0.07349934 -0.0077243955 -0.019570362 -0.086239204 -0.06305238 0.049008563 -0.022265114 0.07868115 0.06103098 0.033815358 0.06248685 -0.050811063 -0.05873226 -0.020984488 -0.013811451 0.06342644 0.01262737 0.048698116 0.05519038 -0.015898425 0.08674112 -0.004285632 -0.06857042 0.07224687 -0.03703312 0.088792875 -0.07067398 0.06981503 -0.045885522 -0.0019697817 0.08676069 0.007733316 -0.056505777 -0.06013163 0.063805684 0.0038532976 -0.03297895 0.05352095 0.050052837 0.042672113 -0.08459959 -0.013478904 0.067557 -0.030401932 -0.08015724 -0.0029939595 0.01804559 -0.016055146 0.07830612 0.07955558 0.05142956 -0.07385765 0.05625629 -0.04486606 -0.0720993 0.084846765 -0.020918455 0.08755982 -0.055189185 -0.037563853 0.012239128 0.05610906 0.055965114 -0.07600801 -0.085240796 -0.027166564 0.026673255 -0.03376648 -0.022419583 -0.0031916152 -0.071344525 0.08230078 -0.072707936 0.051299967 0.080536515 0.038027495 0.08261461 -0.06811464 -0.008223733 -0.07036668 -0.019057939 -0.03850784 -0.015561749 -0.027636254 -0.07630818 -0.057016652 0.0104492 0.0644336 0.06083239 -0.029716354 0.06017051 -0.0072620152 0.022260584 -0.087855406 -0.014783713 -0.010571467 -0.067074835 -0.043564156 -0.04016946 0.044668823 -0.03277787 0.065475814 -0.0022888863 -0.0056789396 0.03750501 0.03731431 0.035229698 -0.024509095 -0.074164696 0.079523444 0.03170445 0.024425592 0.038877923 0.021280779 0.028689846 0.0137120215 0.03918213 0.051189087 -0.001815014 0.07444358 -0.019078229 -0.0021874637 -0.029270891 -0.06982034 -0.0719133 0.03765684 -0.016393736 0.029359888 0.07060038 0.038590778 0.0599495 0.020425852 0.0121469665 0.020871423 0.05605532 -0.0841128 -0.07791577 0.013084648 0.050573338 0.025063857 0.012837118 -0.049139213 0.03529155 -0.06973534 0.053165436 -0.033242766 -0.057885364 0.069949485 0.012428882 0.0060532433 0.085266836 -0.005879009 0.016271668 0.062446732 0.06462571 0.07507526 -0.011805998 0.055840597 -0.006797314 0.06292453 0.04532935 0.03252821 -0.031855907 0.072025925 0.02431378 -0.01942992 0.02474263 0.02679259 -0.04294546 0.05509078 0.0035876196 -0.06717546 0.07916194 0.009426445 -0.031318557 0.054282997 0.05747978 0.005090696 -0.04738067 0.057353586 0.00218998 -0.003315687 -0.079909846 0.02335844 0.0078106318 0.07012194 -0.05736515 0.024275564 -0.044674158 -0.051421225 0.036998037 -0.015750682 0.0049812375 0.033298068 0.078631036 0.086347125 0.04830366 0.025617924 -0.0006754667 -0.037724424 0.08139828 -0.019526768 0.073409036 -0.012114301 0.059478965 0.044106226 -0.04801379 -0.041554675 0.04155135 -0.076049864 -0.022479191 0.06001603 0.030070992 -0.07666218 0.027822727 0.02058877 -0.08087099 0.0491506 0.050929178 -0.08724253 -0.07013441 0.0144122215 -0.01616958 -0.049786285 0.014489337 -0.026837487 -0.01842547 0.0523741 0.08494844 0.027355293 0.0827731 0.0017002133 -0.017654208 0.016155012 -0.07116396 0.07992807 0.052681014 0.054403912 -0.05994483 0.05156411 0.07028136 0.08576377 0.069627225 -0.0054174536 0.08663964 0.021026704 0.06406263 -0.07709394 -0.008943485 -0.07352624 0.039328706 -0.040817406 -0.035426483 -0.08733452 0.069507256 0.03331049 -0.055704013 -0.034122936 -0.069680184 0.06607768 -0.035117056 -0.043040372 -0.05041285 0.06563613 -0.007766977 -0.00095107337 -0.07987861 -0.07627855 -0.0581754 -0.07988028 -0.010484384 -0.009069989 0.06984253 0.027675087 0.02443717 -0.05350109 -0.0015579424 0.016625144 -0.08675437 -0.047936764 0.011727169 0.014596707 0.06568115 0.061807092 0.02864043 0.057916533 -0.06769513 0.012006344 -0.07870313 0.04361188 0.068644494 0.0057577034 0.08718009 -0.073199004 0.004831347 0.01455373 -0.06087142 0.025395492 -0.074164264 0.06900747 -0.07753409 0.05635106 -0.019969067 0.08287235 0.063409165 -0.040046204 -0.01159111 0.05565163 0.045759156 -0.03790819 -0.029339701 -0.062574334 0.081004374 0.055356197 0.074863955 0.035508983 -0.013690973 0.011605263 0.0571726 -0.028054697 -0.0043167854 -0.043218993 -0.016822172 -0.042750936 -0.021305319 0.046985894 -0.05775699 -0.01752484 -0.059562348 0.053959936 -0.047661364 -0.002209947 0.0492446 0.015484605 0.017140329 -0.048264068 -0.03730591 0.013163476 -0.006358604 0.07617335 -0.064882904 -0.07731104 0.07512297 -0.06641056 0.083869725 0.03818013 0.025694935 -0.04055164 -0.021334514 0.071199626 -0.037426766 -0.007597104 -0.0066672526 -0.028835976 0.002468444 0.018579457 0.05967787 0.07881696 -0.005602155 -0.06616578 -0.006656945 0.02404545 0.043764003 0.020863174 -0.04807519 0.012257466 -0.035342235 -0.06033183 -0.051858284
bs_1.c -0.08367757 0.023569131 0.07809676 0.012847037 -0.04947818 -0.06009909 0.08267861 0.055088837 0.022696361 0.08929022 -0.049283937 -0.0870863 -0.0553603 -0.021021545 0.023121202 -0.058527425 0.054259486 0.06651024 -0.00835881 0.01923132 -0.00036885275 0.003890379 0.01875858 0.07789409 -0.06000821 -0.0763243 0.059741393 0.06836246 -0.056747977 0.080883965 0.044667613 -0.053334422 0.08425594 -0.01625844 -0.041338187 0.005895053 0.04028501 0.04126305 0.00314451 0.004422577 -0.083216585 0.009496792 -0.054547966 0.0494686 -0.032690987 0.011555724 0.015145065 -0.07746742 -0.048226517 0.016180748 0.011096848 -0.08072001 -0.01858515 0.0009515751 0.019232271 -0.015845982 0.08326568 -0.012431846 0.08291511 -0.010775187 0.08723393 -0.025073584 -0.01462879 0.018289417 0.022009887 0.061922163 0.08260607 0.027738482 -0.06633819 -0.009524352 0.024853755 0.054299615 0.019874422 0.006323867 -0.08870226 0.07825769 -0.00094372616 0.048165448 -0.041378472 -0.019639812 0.06178755 0.045507178 -0.031146808 -0.08400363 0.041365903 -0.04229173 -0.078546576 0.013667907 0.039411195 -0.08432408 -0.06428234 -0.030684555 0.024142459 -0.089074165 0.05677172 -0.08386971 0.087059826 0.03469051 -0.050507855 -0.024993911 -0.06724009 0.02113441 -0.04162838 -0.009641051 0.022179049 -0.07342301 -0.07794585 0.019502517 0.010188653 -0.051704593 -0.009348686 -0.05599759 -0.004891124 -0.039485373 -0.07583182 -0.07989542 0.0014968603 0.006037377 -0.010027194 -0.037198827 -0.05380672 -0.017328095 0.08021324 0.023543172 0.00014030794 -0.05775938 -0.015765935 0.061069615 0.039715257 -0.045276448 0.068286665 -0.0027140277 -0.08697998 -0.068953924 -0.047370773 0.010080985 -0.011728293 0.051640343 -0.042032886 0.08014695 -0.08608974 0.07234263 0.06292663 -0.08755721 -0.055562805 -0.0064434563 -0.001386767 -0.07909062 -0.023257647 -0.009534642 0.024697272 0.022352535 0.07026274 -0.0074246824 0.0449392 0.039186876 -0.0568439 -0.07120505 -0.023651438 -0.059593655 0.066984765 -0.07630302 0.07732369 -0.021466814 0.068239145 -0.03800271 0.05617362 -0.04116956 0.047876876 -0.0066388934 0.03292271 -0.0052738795 -0.037190765 -0.044759803 -0.054495182 0.02370171 -0.06402945 -0.07758226 0.0462224 -0.065401204 0.03843387 0.049847517 -0.019398801 0.024611488 -0.020761486 0.04746342 -0.07193337 -0.06896089 0.019164538 -0.020634966 -0.060434192 0.08301328 0.07775757 0.052116428 -0.07523022 0.074586004 0.0013251604 0.06335564 -0.04766945 -0.077050075 0.006316715 0.01348198 0.07719396 -0.030393964 0.038194407 0.047209438 0.04886658 0.018485714 0.015906923 0.04377401 -0.08107433 -0.072877884 0.050473306 0.06685412 0.06829709 -0.022503896 -0.0069190967 -0.06008049 -0.05715947 0.05311005 0.014095429 0.019332586 0.028678644 -0.021947956 0.030405853 0.088381484 0.038847744 0.067034476 -0.087369554 -0.027054122 -0.0509113 -0.0337747 -0.049352694 0.05713483 -0.028309936 0.0673118 0.017722325 0.08201904 0.082620725 0.07707837 -0.055610493 -0.01454072 0.01315341 0.05495935 -0.05271557 0.030753713 0.0107738115 0.010213231 -0.0635955 0.027691986 0.04808738 -0.03281886 0.03759856 0.02587942 -0.04772501 0.036509562 0.08782706 -0.018538605 -0.051051177 -0.026102925 0.018311355 -0.016474798 -0.07734596 0.03533572 -0.0099873915 -0.029916866 0.010897642 -0.011395172 -0.06953974 -0.0033422783 0.03154013 -0.07654351 0.045259356 -0.06538959 0.07981529 -0.018599793 0.026723247 -0.030359894 -0.029795095 0.019712877 0.08453785 -0.001591336 -0.032642793 0.008456792 0.06819225 -0.021323655 -0.08598417 0.02986699 -0.0017798102 0.017925318 0.043301612 0.022565125 0.010152059 0.07452769 -0.08528331 -0.04112109 0.00075032515 -0.05265939 0.07098322 -0.06864142 0.04371183 -0.0025805635 0.010852111 -0.05402828 0.07847954 -0.023296375 -0.045315567 -0.0042781075 0.021569941 0.06710462 0.024300367 0.054365806 0.029397434 -0.019422656 -0.05206691 -0.014482351 0.07085676 -0.0621433 0.08081344 0.029669154 -0.077166244 0.083266966 -0.027720522 -0.065897785 0.040987615 0.038733244 0.06551953 0.00894204 0.08590219 -0.08658218 -0.035955187 0.052835196 0.03842057 -0.067997836 0.07830915 -0.00018485135 -0.015362229 0.0010582422 0.018971957 0.067953944 0.02767395 0.06933378 0.08660582 -0.036679685 -0.007153664 -0.073507786 0.08014978 0.00024228147 -0.07075774 -0.038853757 0.04957939 -0.040470995 -0.010146788 0.030399656 -0.034068834 0.033756074 -0.08230225 0.050485864 0.07425116 -0.08456734 0.0038344376 -0.025645336 0.04715498 -0.028547758 0.06948738 0.044555172 0.06934234 0.026784256 -0.049211275 -0.0014643766 -0.0010618614 0.012565192 -0.07270581 -0.0070667225 0.0046884217 0.023790434 -0.04033204 -0.08605623 -0.06555364 0.036079418 -0.018521853 -0.025847903 -0.087345816 -0.022929797
ss_2.c 0.04790236 0.08081776 0.007862695 -0.05090839 -0.020606484 -0.06192506 0.0850032 0.019807978 0.04462874 -0.056484703 -0.08086594 0.051928744 -0.051982194 0.0470963 0.05839252 -0.052652456 0.072259486 -0.04278618 0.058349606 -0.011263407 -0.05527892 -0.047439165 0.07239014 0.076086946 0.0825359 0.07109484 -0.04221693 -0.029991625 0.056674138 -0.012751203 -0.00914113 -0.08325411 -0.0074179266 -0.048562616 -0.027097449 -0.029603103 0.033890188 -0.07914155 -0.034409784 -0.08323933 -0.014730404 0.031820957 -0.0871898 0.06267237 0.0006324488 -0.06531648 0.07376798 -0.0024442563 -0.005531304 -0.020092964 -0.061486475 -0.060097266 0.081096634 0.015021872 -0.027822899 0.074592315 -0.07123216 0.0017927833 0.05411061 -0.07206983 0.07863688 -0.014208667 -0.07479793 0.021049544 0.0017428995 -0.0051532355 -0.053820547 0.04528007 -0.058842577 0.07424277 0.044472784 -0.04623805 0.04281707 -0.0032883857 -0.0061906734 -0.034954086 0.058289036 0.06703593 0.029873624 0.024158206 0.01421508 -0.0032947264 0.04616665 0.06670557 0.022200568 0.022657024 0.026955163 0.007418492 0.024381226 -0.031608865 0.07289826 0.021082822 0.060476165 -0.0017496279 -0.048832707 -0.05738658 0.033773854 -0.054015584 0.059724446 0.04739782 -0.0023462726 0.061984893 -0.060246382 -0.011456568 -0.011706706 0.07304327 0.04503935 -0.049369343 0.03401064 0.048431836 -0.024879724 0.04143599 0.07301349 -0.081874415 0.08496094 0.0010651825 0.077664256 -0.05088352 -0.068454415 -0.071933 -0.016096992 -0.053033747 0.019922646 0.009984764 -0.042586286 0.013613494 0.072924264 -0.02062716 0.08032809 0.03174225 -0.05077016 -0.026817208 0.076059446 -0.08694371 0.0073505845 0.023878114 -0.042315222 0.06707819 0.05395461 -0.061894465 -0.07544941 -0.022842458 -0.044232197 -0.047999732 -0.034449495 0.021511331 -0.03172618 0.06459641 -0.0496819 0.07518285 -0.018753786 0.021089971 -0.021211108 -0.037291028 0.07489799 -0.04847527 -0.077930994 -0.08390134 0.0028089704 0.027125033 -0.042598967 -0.02545393 -0.011021268 -0.046602514 0.07085213 0.035431772 -0.00097371626 -0.024446523 0.066659674 -0.08376378 0.015122753 -0.029429954 0.06803467 0.004486043 -0.045851763 -0.035633236 0.07547693 0.06354046 0.009467283 -0.019197727 -0.08582998 0.031341065 -0.04547323 0.06424204 -0.061156385 0.055332266 -0.07678916 0.04793758 0.08910386 0.05995392 -0.047165602 0.03233429 0.07854927 -0.074670404 0.054375514 -0.03935124 -0.0325949 -0.04383527 0.07554347 -0.08565403 0.015443214 -0.08067265 -0.048764657 -0.051349014 -0.08721707 -0.06379247 0.07873793 0.037565444 0.019360894 0.046578776 0.019726185 -0.05069217 0.062361915 0.03628809 0.07609877 0.016637143 -0.02577808 0.0263922 0.012821898 -0.03515024 -0.06722673 0.07449863 -0.052443434 -0.042712104 -0.031109374 -0.043216553 -0.08011928 -0.045582417 0.069316275 -0.080997705 0.038075175 0.07462025 0.08309998 0.049463607 0.046034634 -0.019987678 0.023778295 -0.013959063 -0.062058195 0.0047564222 -0.054474346 -0.0141487885 0.047150195 0.06465019 0.04544895 -0.054882374 0.07585941 -0.010297982 -0.032673024 0.04889644 0.005567684 -0.08143808 0.0030697733 0.080463246 -0.022709107 -0.030653821 -0.07274765 -0.0752957 -0.015458468 0.033960324 0.024634002 0.032695483 -0.0613357 -0.069197945 0.0073136045 -0.0514762 0.035404805 0.08154448 -0.07258851 0.01494272 -0.0632195 -0.01499438 -0.073473915 -0.0009067013 0.06851577 0.029111922 -0.082474165 -0.012340659 0.032197174 0.086339556 0.04273348 -0.03400136 -0.0048270086 -0.05440834 -0.028841088 -0.02367637 0.0719828 0.047600184 0.002859285 0.07135655 0.017322976 -0.05151223 -0.0697546 -0.03241513 -0.010985966 0.021666443 0.046470936 0.0019554817 0.025516523 -0.0049036043 0.08736507 -0.045590572 -0.020843862 -0.058038186 -0.08214464 0.03147652 0.010652656 0.04977974 0.052436043 0.039316416 0.087893605 -0.07860272 -0.05494299 0.0010658931 -0.08266198 -0.023933997 0.04536508 0.05772004 0.037549373 0.038105447 0.031377938 -0.013397128 -0.04388302 0.05553039 0.08336812 -0.011652751 0.04982057 -0.003263798 0.073213056 -0.07810991 0.021091344 0.039486762 -0.0150127215 0.0018512077 0.017054036 0.059864838 0.078168884 0.017900687 0.05223892 0.0758024 -0.015776971 0.083519176 0.03763948 0.0057231914 -0.08563878 0.006247514 0.06397872 0.045305558 0.009753138 -0.009828082 -0.056076445 -0.07385108 0.01273497 -0.028316274 0.006271243 0.04020071 0.00324444 -0.014193982 -0.05750736 0.0032832783 0.01706352 -0.067519255 0.01102115 -0.019535214 -0.0022285867 -0.07329062 0.055859305 0.031782076 0.047487497 -0.042790256 0.008831885 0.065072596 -0.011665849 -0.056428246 -0.078267686 0.08670544 -0.0054756016 -0.056469444 0.0801403 -0.048578076 0.07218538 0.007892977 -0.052702334 0.051965624
