3 384
<PAD_OR_OOV> -0.022511978 -0.043147326 0.07820155 0.00800312 -0.03123199 0.056765813 -0.017285006 0.073278315 -0.041786775 -0.0044658356 0.02615502 0.062375113 -0.0062467856 0.032146975 0.028672505 -0.07765877 -0.048037164 -0.007475648 -0.018628089 0.072293624 -0.035653494 -0.08856103 -0.05934337 0.011955818 -0.03177628 -0.03261524 -0.08084835 0.04860814 -0.023437444 0.05106585 0.0386669 -0.014200523 -0.05317087 0.037663087 -0.058017034 -0.029808726 0.061421186 0.07081022 -0.011740833 -0.047611438 -0.022486057 -0.039300058 0.02881788 0.010608724 -0.0066486583 -0.0072329384 0.03145918 0.00613515 -0.06199823 -0.040056597 -0.03366847 0.028733002 -0.064060844 0.012665495 -0.028107164 0.07420914 0.011301718 -0.014300294 0.07498631 -0.041620962 0.040614955 -0.063630275 0.013116343 -0.060378443 -0.061957747 0.07604255 0.015777443 -0.03133697 0.019493474 -0.057018116 0.004788936 -0.02596951 -0.03067046 -0.0044580135 -0.08132949 -0.0603182 0.04403929 0.025454603 -0.009082484 0.08465643 0.020530473 0.03069692 0.02017044 0.0030489205 0.05830822 0.010421751 0.0350486 -0.007115404 -0.022904273 0.018495025 -0.04348147 -0.00188603 -0.0019894857 -0.041861575 0.08566284 0.06912315 -0.07849483 0.058432292 0.015807422 -0.027633747 -0.013882837 0.02879341 0.04511748 -0.06361627 -0.04208905 0.042237915 0.05735722 0.032250587 -0.016012857 0.052707918 -0.065389514 -0.014072599 0.07363166 0.013743792 0.022689728 -0.07155467 0.015346136 -0.062191073 -0.056665782 -0.08294007 0.010409508 -0.08898731 0.058425818 0.0017069305 0.035324696 0.08395692 0.044888858 -0.06266298 -0.04097045 -0.081944846 -0.03990359 -0.07067511 0.082533605 0.02694368 -0.015985573 0.026821662 0.0683327 0.05617625 -0.01702613 0.086880356 -0.006662387 -0.05992594 -0.0022803277 -0.061823536 -0.06159727 -0.05691172 -0.016258845 0.02021273 0.06843775 0.07459074 -0.07350862 -0.007649368 0.06940065 0.01700369 0.056608222 -0.087269515 0.04333858 -0.006821042 -0.04420017 -0.072284535 -0.055962585 -0.08119038 0.05541349 -0.06028514 -0.07024883 -0.038591266 -0.0031168791 -0.014812493 -0.040860306 0.042928733 -0.03333375 -0.012859301 -0.0032296854 -0.03548936 -0.06958321 -0.042143114 0.0064334525 0.07814598 -0.03490331 -0.037207734 -0.031767935 0.03304049 -0.08806236 -0.055144142 -0.008732988 -0.044436518 -0.005388747 -0.026198355 -0.08165945 0.047227055 -0.06601914 -0.06122928 0.011179699 -0.052497417 -0.033043288 0.030721463 0.0054735593 -0.07136316 -0.061224062 0.030324358 0.040850833 -0.08720828 -0.07835651 0.07755728 0.0492994 -0.08088005 0.0518796 0.005819018 0.05983321 -0.04527352 -0.05070644 0.010650454 0.03323581 -0.0067859343 0.037269115 0.06942613 -0.052885868 -0.046857145 0.034763906 -0.07797211 0.014960708 0.08243252 -0.011229601 0.054898847 0.0023021041 0.0597889 -0.018116867 0.046171773 -0.07854151 0.06566247 -0.06389127 -0.007945654 -0.010993948 0.042845882 -0.025462626 0.004564601 -0.071883805 0.0015740343 0.056526054 -0.04053505 -0.040297177 -0.066529416 -0.008944804 0.00797105 0.05827134 0.085757874 0.04854014 -0.047309034 0.054636434 -0.016335813 0.023222419 -0.0071002524 0.08797984 0.061491974 -0.018054433 0.000657161 -0.050423317 0.04719002 -0.07558219 0.010493603 0.061905097 -0.050433997 0.02914584 -0.028841099 0.015442723 0.072521746 0.025561113 0.044271737 0.07543515 -0.06064611 -0.037343603 -0.014666671 0.022617748 -0.02146101 -0.031344622 -0.040118184 -0.06968974 -0.046242345 0.052063555 -0.015675377 -0.010425616 -0.02818797 -0.012615359 0.051432066 -0.070964865 0.047829866 -0.042875867 0.019042512 -0.028386597 0.079161204 -0.023242883 -0.0685745 -0.06918995 0.0012544068 0.08063743 0.04656091 -0.022273252 0.047820155 -0.079449914 -0.07649593 -0.03188592 0.0077343453 0.024827411 -0.07310518 0.06001781 -0.0750049 -0.07527192 -0.041415367 -0.085430376 -0.04446353 0.017111942 -0.03012951 0.0058436696 0.05930648 -0.007876119 -0.0025564437 0.05998047 0.08737876 0.054312635 0.045104403 -0.07748271 -0.031878237 0.08033669 -0.0008635067 -0.010620196 -0.055291332 0.06317192 0.07964948 -0.031686813 0.0055620987 -0.06695954 0.06969913 -0.086529866 0.031033186 0.06718991 0.03324209 -0.08201892 -0.02976204 -0.009348941 0.077415004 -0.0144941835 0.058292683 -0.060173914 0.0864902 0.066625945 0.027071744 0.04398326 -0.015244229 0.07820125 -0.024099255 0.051946413 0.003089143 0.07768597 -0.07697113 -0.05188334 0.054088917 -0.007552491 0.026387285 -0.0047428254 0.057917383 -0.03669343 0.013039844 0.017654927 0.075035624 -0.088031374 -0.054904096 0.03887425 -0.016412169 0.08792617 0.088216335 0.020646067 -0.07563937 -0.08528487 0.03674264 -0.06593598 -0.08248547 0.044758633 -0.07078319 -0.00836642 -0.007576308 0.027474388 0.05074856 -0.046345584 -0.033853475
selection|sort 0.0775604 0.0848586 0.038054112 0.024817858 0.08697548 0.02066167 -0.002116369 0.010827929 0.041231316 -0.08282158 0.0559071 0.018517964 0.04559273 -0.039980453 -0.05648359 0.023129562 -0.046062287 0.05478251 -0.016377332 0.04035462 0.027196264 -0.046108834 0.015835533 0.013208942 0.051842853 -0.03797734 0.07983409 -0.017473955 0.0772684 -0.07113817 -0.020120228 -0.035275478 0.057847742 -0.0022083425 0.04351168 0.07483212 0.004188006 -0.028339772 -0.022950666 0.07737363 -0.03900385 -0.010117549 0.058704216 0.01611623 -0.01947952 -0.041520316 0.0632665 0.06467003 0.038853288 0.007869154 -0.02971374 -0.053253636 -0.030135123 0.017127711 0.07547732 0.023847612 0.064128086 -0.054311488 -0.04815256 -0.08060489 0.08364337 -0.012671112 -0.087785475 -0.023038644 0.0345923 -0.020320056 0.047888853 0.016610967 0.036181014 0.019225784 0.024863264 0.05773587 0.036149114 0.022608396 -0.081533924 -0.00066801195 0.0076716216 -0.08075664 0.031052904 0.057131454 -0.053275023 0.065271676 0.047755145 0.076509334 0.026447868 0.027172014 -0.07203311 -0.033315092 0.025444036 -0.029232081 0.054016005 0.050824802 -0.0049039023 0.035774756 -0.07576404 0.026717281 -0.07351274 -0.0056245313 -0.039845567 -0.08236864 0.027115641 0.087203674 0.045818504 -0.011748973 0.027615007 -0.058461618 -0.058316153 -0.08643563 -0.005801957 0.08181073 -0.011243584 0.031313587 0.0421547 -0.0050625224 -0.023148207 0.04547024 0.03476966 -0.015314406 0.043236386 -0.010758341 0.025633138 -0.06779912 -0.02115732 -0.04297753 0.055351995 0.0037885113 0.05763349 -0.034382157 -0.046019256 -0.046445355 -0.08682909 0.077791005 0.08905277 -0.08873559 -0.072666995 0.049082644 -0.0044681057 0.039388426 -0.045452602 0.044590324 -0.0020787779 -0.03508947 -0.050037883 0.056621112 -0.007912554 0.051815998 -0.03375548 -0.0342113 -0.06319731 -0.07310516 -0.01236713 -0.008574393 -0.036690716 -0.053240694 -0.014700817 -0.035744846 -0.06956565 0.0022166306 0.035516333 -0.06799343 -0.08251608 0.06288618 0.031001855 -0.0075897886 0.0023039542 0.08262106 0.045091674 -0.03927683 -0.054202307 -0.08555045 0.061826523 0.021982182 0.08524277 0.06208647 -0.020573866 -0.029153215 -0.061082296 0.08539603 -0.019111836 0.050135024 -0.038510825 -0.07264884 -0.060103465 -0.052009985 0.029384013 -0.044360083 0.051524196 -0.05881778 -0.0368342 -0.06648426 0.08260371 0.08736922 -0.039745323 -0.032973357 0.080738276 -0.058309473 0.052143373 0.07328968 -0.07788738 -0.04742718 -0.08653726 -0.07596771 -0.08823958 -0.0026389319 -0.037946746 0.017914258 -0.030123398 -0.025560003 -0.07090487 0.08853621 0.07476559 0.018038696 0.0017521594 -0.014683003 0.061779164 0.018347858 -0.07938753 -0.08551278 0.014632599 -0.030404234 0.00879053 -0.06177578 0.068615824 0.03258541 -0.045314334 0.06980107 -0.05656229 0.06847177 -0.020905668 -0.022288792 0.044068098 -0.030118454 0.07631135 0.044207525 0.06807566 -0.032832902 -0.04115952 0.075666286 -0.055641238 -0.058154058 -0.06330407 -0.063643 -0.023265466 0.030182982 0.04459625 0.008612631 0.04128678 0.08408713 -0.0337337 0.03300517 -0.063068286 -0.07362645 0.020082934 0.07014905 0.006787733 0.038529415 0.05513639 -0.07150106 0.033830207 -0.026084628 -0.05924243 -0.05670212 -0.06910345 0.045780018 -0.008055151 0.009902047 0.07679353 -0.076040365 -0.01772954 0.036010645 0.060832918 0.030228643 -0.025881855 -0.024453234 0.076013796 0.07383173 -0.0044644848 0.012038541 0.087223485 -0.034314837 -0.05722883 0.011246776 0.054542966 -0.08631169 -0.08637109 -0.08035831 0.04227329 -0.016856626 -0.04211769 0.085745096 -0.079610445 0.02257653 -0.07987168 -0.068157986 0.0017000199 0.044597637 -0.041029524 -0.06215729 -0.07732652 0.040019147 0.0719611 0.073502354 -0.04211953 -0.06645359 0.049244594 -0.032119267 0.06805267 0.046477772 0.049176924 0.02536313 -0.080269516 0.061805114 0.032089334 0.024003595 -0.011946781 0.0550203 -0.018285884 -0.0025146203 0.08183054 -0.08306463 -0.072781734 0.044423442 -0.054239966 -0.08096388 -0.050498698 -0.08349559 0.0652258 0.08727239 0.07682936 -0.07817748 -0.036154553 -0.07834502 -0.07990372 0.039591406 0.020871064 -0.015693666 -0.056297265 0.08918219 -0.04426997 0.04470483 -0.0659673 -0.059774138 -0.006871324 0.05550863 0.06658355 0.010254923 -0.028726703 0.03786673 -0.06273002 -0.00034686644 -0.057301477 0.05555482 0.03130607 0.026632898 -0.042473678 0.073672 0.027198054 0.034237377 0.07191242 0.03588878 -0.0071011526 -0.02256714 0.0871054 0.007865513 -0.006634409 0.036115807 -0.015339784 -0.052882627 0.05424109 0.07533999 0.07615143 -0.08220034 0.0063588917 0.0057497444 0.035606984 -0.0066112243 0.015361283 0.061750446 -0.034774546 -0.045732178 -0.053529073 -0.03165929 -0.04350503 0.04363855
bubble|sort 0.03923322 0.044134505 0.031160401 -0.060634207 -0.06632029 -0.06797529 0.03327116 0.07986145 0.0073388945 0.032487564 0.03648848 -0.033745594 0.043255325 -0.028672976 0.070138186 0.032754205 -0.07778834 -0.017122941 -0.025000758 0.014751531 -0.04124561 0.08141202 0.08399612 0.0762621 -0.055638786 0.064851485 -0.052108463 -0.056849357 0.014828547 -0.00050714344 0.06850669 0.0471444 0.086751424 0.029033976 -0.070116244 0.032459043 0.055783235 0.032200143 -0.06685293 0.048905544 0.009716635 -0.04863165 0.02249513 -0.010282919 0.07892615 -0.07028038 -0.056001395 -0.07241008 -0.01644408 -0.01629832 -0.008787811 -0.032866683 0.02813451 -0.06977148 0.047536142 0.0073383697 -0.034321062 -0.06512459 0.014518689 -0.056394696 -0.089312986 -0.031525012 -0.039569087 0.08602713 0.055287223 -0.053907916 -0.045557264 0.045629766 -0.07059992 0.009954362 -0.08684673 -0.010297172 -0.029139163 -0.062182378 -0.008221146 0.0169244 0.0035863088 0.057530656 -0.053231407 -0.08831053 0.025776701 0.050598096 -0.031606317 0.03243902 0.02339444 -0.025004325 0.08384715 -0.064623706 -0.042514626 0.017823773 0.086557955 -0.07183019 -0.08640475 -0.02635809 -0.021292401 0.085576326 -0.05414818 0.030667292 -0.02658953 -0.0046143727 0.08481919 0.037234683 -0.07552729 0.07862771 0.042757835 -0.019336935 0.06871587 0.05159539 -0.010862659 0.00665142 0.05096734 -0.043611854 -0.011461347 0.014328235 -0.07207211 0.020488769 0.02934587 -0.08093394 0.06817514 0.005889599 0.053574648 0.068772465 0.035889827 0.055288896 -0.04563184 -0.04812716 0.04676908 -0.06316803 0.08253138 0.050301835 0.06683936 -0.040597178 -0.0474937 0.0065280795 -0.003901936 -0.056208137 -0.014343679 0.047824904 0.0013110415 0.074677154 0.081413 -0.01040924 0.044544723 0.08068721 -0.04145608 0.019190298 0.0201472 0.05802155 -0.017147033 -0.08738774 -0.08895141 0.06398681 -0.06441561 -0.01415262 -0.0050960016 -0.055884052 0.053179298 -0.0410045 0.013671128 -0.031319298 -0.08482958 -0.07870199 -0.05910945 0.047179796 0.023511458 -0.08869123 0.04457425 0.025490332 0.05009018 0.027638048 0.027726766 0.037821352 -0.0603495 0.03314081 0.0336936 -0.03866803 -0.08666454 0.04621407 -0.052638143 0.019945458 0.039123993 0.046549022 0.059743397 -0.06066297 0.08549369 -0.0036338884 -0.0026499345 -0.086472414 0.034282077 0.020087216 -0.061293148 0.05728711 -0.0076097082 0.06982476 -0.0818238 -0.082154885 -0.081274584 0.058916293 0.028149514 -0.043668523 0.01563952 0.00706662 -0.05274967 0.003892243 -0.07845671 -0.06373477 -0.03767845 0.023727683 -0.029169051 -0.061191488 -0.021303894 -0.04466749 0.08276453 -0.030609962 0.07335415 -0.0043230047 0.038396697 0.009487555 -0.040937085 -0.0037524588 0.0301283 -0.05656669 0.036162436 -0.0187115 0.053389803 -0.082220845 0.04425712 -0.010063003 0.020081548 0.034583375 -0.055006284 0.026572466 -0.022734592 -0.048040688 0.0630876 0.027014345 0.0052367384 -0.05966722 0.0816436 -0.04015786 0.038869917 0.018135026 -0.047896683 0.012824792 -0.05578316 -0.026381608 -0.028875612 -0.04598362 0.08016105 -0.078904994 0.031616613 -0.06179765 0.08700778 0.01810703 0.023560993 0.037929114 -0.052883953 -0.06443128 0.031077629 0.022374935 0.00018590823 0.07364649 -0.0140360715 0.04715465 0.0591991 -0.008347256 -0.0819765 -0.030909788 -0.025505053 -0.040845927 -0.04012519 -0.02111867 0.03641626 -0.06972454 0.080575846 -0.082474284 -0.016496152 -0.07882586 0.070204414 -0.030637037 0.012196123 -0.07059136 -0.029977698 -0.05127952 -0.049186803 0.058185156 0.050546467 -0.006235825 0.08673246 -0.031767353 0.04843947 -0.06579847 -0.056390665 -0.073867016 -0.07438665 -0.01960804 7.566309e-05 0.052190837 0.015080532 -0.004139133 -0.013380482 -0.01951164 0.012316504 0.060478467 0.06331169 -0.013683654 0.03061032 -0.06225421 -0.08001289 0.009805432 0.057964087 -0.07339786 -0.073374376 0.056560013 0.07314194 -0.05712363 0.040136725 0.010729465 0.063334756 0.011776735 0.040000897 -0.014609371 -0.020083595 -0.052242123 -0.046565417 0.055630118 0.08844189 0.08276124 -0.07032431 0.07996015 0.07961618 -0.079883404 -0.05131613 0.08026955 -0.07145015 -0.07885295 0.07978563 -0.063966274 0.0650659 0.044462405 -0.032380253 -0.07230988 0.06286181 -0.08627138 -0.042263903 0.051389094 -0.002445285 0.02295083 0.0006031594 0.07771162 0.05787037 0.07222294 -0.039163854 -0.051756192 0.059704006 0.00044408732 0.030591764 0.0007159455 -0.005760663 -0.07161367 -0.019177558 -0.014602273 0.042648673 0.06270524 -0.05675188 -0.07362791 -0.06561922 0.039778553 0.07438007 0.072746664 0.07998825 0.006925045 0.06209592 0.031761628 -0.055139527 -0.0056665363 0.0054200245 0.007370596 0.08231435 -0.085188024 -0.019536305 0.030094046 0.0044794506 0.07198682
